{"learner":{"attributes":{"best_iteration":"299","best_ntree_limit":"300","scikit_learn":"{\"use_label_encoder\": false, \"n_estimators\": 300, \"objective\": \"binary:logistic\", \"max_depth\": 6, \"max_leaves\": null, \"max_bin\": null, \"grow_policy\": null, \"learning_rate\": 0.1, \"verbosity\": null, \"booster\": null, \"tree_method\": null, \"gamma\": null, \"min_child_weight\": null, \"max_delta_step\": null, \"subsample\": 0.8, \"sampling_method\": null, \"colsample_bytree\": 0.8, \"colsample_bylevel\": null, \"colsample_bynode\": null, \"reg_alpha\": null, \"reg_lambda\": null, \"scale_pos_weight\": 61.85264567983925, \"base_score\": null, \"missing\": NaN, \"num_parallel_tree\": null, \"random_state\": null, \"n_jobs\": -1, \"monotone_constraints\": null, \"interaction_constraints\": null, \"importance_type\": null, \"gpu_id\": null, \"validate_parameters\": null, \"predictor\": null, \"enable_categorical\": false, \"max_cat_to_onehot\": null, \"eval_metric\": \"logloss\", \"early_stopping_rounds\": null, \"callbacks\": null, \"classes_\": [0, 1], \"n_classes_\": 2, \"_estimator_type\": \"classifier\"}"},"feature_names":["num_logs","num_errors","avg_severity","max_severity","error_ratio","hour","dayofweek","is_night","is_weekend","log_intensity"],"feature_types":["int","int","float","int","float","int","int","int","int","float"],"gradient_booster":{"model":{"gbtree_model_param":{"num_parallel_tree":"1","num_trees":"300","size_leaf_vector":"0"},"tree_info":[0,0,0,0,0,0,0,0,0,0,0,0,0,0,0,0,0,0,0,0,0,0,0,0,0,0,0,0,0,0,0,0,0,0,0,0,0,0,0,0,0,0,0,0,0,0,0,0,0,0,0,0,0,0,0,0,0,0,0,0,0,0,0,0,0,0,0,0,0,0,0,0,0,0,0,0,0,0,0,0,0,0,0,0,0,0,0,0,0,0,0,0,0,0,0,0,0,0,0,0,0,0,0,0,0,0,0,0,0,0,0,0,0,0,0,0,0,0,0,0,0,0,0,0,0,0,0,0,0,0,0,0,0,0,0,0,0,0,0,0,0,0,0,0,0,0,0,0,0,0,0,0,0,0,0,0,0,0,0,0,0,0,0,0,0,0,0,0,0,0,0,0,0,0,0,0,0,0,0,0,0,0,0,0,0,0,0,0,0,0,0,0,0,0,0,0,0,0,0,0,0,0,0,0,0,0,0,0,0,0,0,0,0,0,0,0,0,0,0,0,0,0,0,0,0,0,0,0,0,0,0,0,0,0,0,0,0,0,0,0,0,0,0,0,0,0,0,0,0,0,0,0,0,0,0,0,0,0,0,0,0,0,0,0,0,0,0,0,0,0,0,0,0,0,0,0,0,0,0,0,0,0,0,0,0,0,0,0,0,0,0,0,0,0,0,0,0,0,0,0],"trees":[{"base_weights":[3.2018083E-3,-1.000036E0,1.9982442E0,-8.857522E-1,-1.7712365E0,-1.7262635E0,-8.6526674E-1,-1.7263855E0,-1.999041E0,-1.782949E0,1.3144603E0,-8.1909937E-1,-1.1600403E0,-1.7810788E0,1.6473318E0,-1.052661E0,-1.9250159E0,1.7327499E0,-1.6190476E0,-8.919045E-1,-1.9061108E-1,-1.7365062E0,-8.9959687E-1,-1.6964335E0,-1.8907715E0,2.834559E-1,1.9022131E0,-1.9859649E0,-3.3607632E-1,-1.9977654E0,-1.8393391E0,-1.2E0,1.9067638E0,-8.1287056E-1,-1.4361442E0,-6.741307E-4,-4.5730826E-1,-1.3120222E0,-1.8285319E0,-9.950051E-2,-1.1153492E0,-1.7057599E0,6.927091E-1,-1.9139051E0,-1.4171576E0,1.8205007E0,-1.8367347E0,1.9435301E0,-1.2E0],"categories":[],"categories_nodes":[],"categories_segments":[],"categories_sizes":[],"default_left":[1,1,0,1,1,1,1,1,0,1,1,1,1,1,1,1,1,1,0,1,1,1,1,1,1,1,1,0,0,0,0,0,0,0,0,0,0,0,0,0,0,0,0,0,0,0,0,0,0],"id":0,"left_children":[1,3,-1,5,7,9,11,13,-1,15,17,19,21,23,25,27,29,31,-1,33,35,37,39,41,43,45,47,-1,-1,-1,-1,-1,-1,-1,-1,-1,-1,-1,-1,-1,-1,-1,-1,-1,-1,-1,-1,-1,-1],"loss_changes":[2.9639756E5,8.683039E3,0E0,1.4762031E3,1.2647656E2,3.5412646E2,1.1392266E3,1.96475E3,0E0,2.058872E2,4.9343117E1,3.3144688E3,1.701376E3,9.394141E1,5.8603058E1,2.1907455E2,6.774414E0,1.9474457E1,0E0,2.7912266E3,3.8101355E2,1.3544336E2,1.3489146E3,1.3299023E2,4.712207E1,9.447091E1,2.0682678E1,0E0,0E0,0E0,0E0,0E0,0E0,0E0,0E0,0E0,0E0,0E0,0E0,0E0,0E0,0E0,0E0,0E0,0E0,0E0,0E0,0E0,0E0],"parents":[2147483647,0,0,1,1,3,3,4,4,5,5,6,6,7,7,9,9,10,10,11,11,12,12,13,13,14,14,15,15,16,16,17,17,19,19,20,20,21,21,22,22,23,23,24,24,25,25,26,26],"right_children":[2,4,-1,6,8,10,12,14,-1,16,18,20,22,24,26,28,30,32,-1,34,36,38,40,42,44,46,48,-1,-1,-1,-1,-1,-1,-1,-1,-1,-1,-1,-1,-1,-1,-1,-1,-1,-1,-1,-1,-1,-1],"split_conditions":[5E-1,4.9678802E-1,1.9982442E-1,1.8697595E-2,4.458548E0,6.5E0,1.3088316E-1,4.2897964E0,-1.999041E-1,5E-1,1.5E0,9.443469E-2,2.1372062E-1,1.0913241E0,4.393935E0,1.0650529E-2,1.0650529E-2,1.25E1,-1.6190477E-1,5.3252645E-2,1.0342847E-1,1.4319044E-1,2.5584936E-1,1.0908508E0,2.25E1,4.29169E0,6.5E0,-1.9859649E-1,-3.3607632E-2,-1.9977655E-1,-1.8393391E-1,-1.20000005E-1,1.9067638E-1,-8.1287056E-2,-1.4361443E-1,-6.741307E-5,-4.5730826E-2,-1.3120222E-1,-1.8285319E-1,-9.950051E-3,-1.11534916E-1,-1.7057599E-1,6.927091E-2,-1.9139051E-1,-1.4171576E-1,1.8205008E-1,-1.8367347E-1,1.9435301E-1,-1.20000005E-1],"split_indices":[1,9,0,9,9,3,9,9,0,6,6,9,9,9,9,9,9,5,0,9,9,9,9,9,5,9,3,0,0,0,0,0,0,0,0,0,0,0,0,0,0,0,0,0,0,0,0,0,0],"split_type":[0,0,0,0,0,0,0,0,0,0,0,0,0,0,0,0,0,0,0,0,0,0,0,0,0,0,0,0,0,0,0,0,0,0,0,0,0,0,0,0,0,0,0,0,0,0,0,0,0],"sum_hessian":[1.4808558E5,9.853581E4,4.9549758E4,8.58203E4,1.2715519E4,2.0399185E3,8.378038E4,1.0631019E4,2.0845E3,2.0029922E3,3.6926323E1,7.2438805E4,1.1341577E4,1.0461887E4,1.6913162E2,3.275658E2,1.6754263E3,3.2676323E1,4.25E0,6.4918156E4,7.5206455E3,3.5276975E3,7.8138794E3,5.9144316E3,4.547455E3,2.6963161E1,1.4216846E2,1.415E2,1.8606581E2,8.94E2,7.8142633E2,1.5E0,3.1176323E1,5.6688418E4,8.229737E3,4.393019E3,3.1276267E3,6.312421E2,2.8964553E3,1.6598712E3,6.1540083E3,5.8917188E3,2.2713161E1,4.332779E3,2.1467633E2,1.5713161E1,1.125E1,1.4066846E2,1.5E0],"tree_param":{"num_deleted":"0","num_feature":"10","num_nodes":"49","size_leaf_vector":"0"}},{"base_weights":[9.880354E-3,-8.805844E-1,1.8170307E0,-7.6511014E-1,-1.5511963E0,-1.3048965E0,-6.2704635E-1,-1.0473745E0,-1.75806E0,-2.8071895E-1,-1.6023964E0,-5.942796E-1,-1.5231965E0,-1.1319636E0,1.6339041E0,-1.5100404E0,-1.7702147E0,-1.7345093E0,3.83706E-1,-1.7120221E0,-1.3288276E0,-6.64604E-1,-9.35034E-2,-1.6545506E0,-1.1991357E0,-1.0076227E0,-1.6066089E0,-1.5604546E0,1.7933375E0,-1.7530551E0,1.4272548E0,-1.8078299E0,-1.6895049E0,-1.8251956E0,-1.1892003E0,9.912386E-2,1.3932197E0,-1.7557939E0,-1.0248296E0,-1.804047E0,-1.1051439E0,-5.871752E-1,-1.218172E0,2.5927886E-1,-1.2333876E0,-1.295333E0,-1.7024157E0,1.363642E0,-1.337304E0,-1.0925846E0,-1.3606441E-1,-1.4487485E0,-1.8223505E0,-9.2875224E-1,-1.8895495E0,-1.41974E0,1.7125485E0,-1.60589E0,-1.8166467E0,2.0522983E0,-1.7085915E0],"categories":[],"categories_nodes":[],"categories_segments":[],"categories_sizes":[],"default_left":[1,1,0,1,1,1,1,1,1,1,1,1,1,1,1,1,1,1,1,1,1,1,1,1,1,1,1,0,0,1,1,1,1,0,0,0,0,0,0,0,0,0,0,0,0,0,0,0,0,0,0,0,0,0,0,0,0,0,0,0,0],"id":1,"left_children":[1,3,-1,5,7,9,11,13,15,17,19,21,23,25,27,29,31,33,35,37,39,41,43,45,47,49,51,-1,-1,53,55,57,59,-1,-1,-1,-1,-1,-1,-1,-1,-1,-1,-1,-1,-1,-1,-1,-1,-1,-1,-1,-1,-1,-1,-1,-1,-1,-1,-1,-1],"loss_changes":[2.3745139E5,7.653625E3,0E0,6.2839766E3,1.5114609E3,5.23283E3,1.9710801E3,9.6098926E2,2.8353516E1,3.7362385E3,3.96875E2,2.2816172E3,9.882471E1,2.4036182E2,6.887436E1,3.505714E2,2.671289E1,5.782715E1,7.626344E2,2.8390625E2,4.0322168E2,2.434336E3,3.2090198E3,2.672461E1,2.4498126E2,2.4063647E2,2.628955E1,0E0,0E0,4.8967285E1,3.3143158E1,8.964844E0,2.2721582E2,0E0,0E0,0E0,0E0,0E0,0E0,0E0,0E0,0E0,0E0,0E0,0E0,0E0,0E0,0E0,0E0,0E0,0E0,0E0,0E0,0E0,0E0,0E0,0E0,0E0,0E0,0E0,0E0],"parents":[2147483647,0,0,1,1,3,3,4,4,5,5,6,6,7,7,8,8,9,9,10,10,11,11,12,12,13,13,14,14,15,15,16,16,17,17,18,18,19,19,20,20,21,21,22,22,23,23,24,24,25,25,26,26,29,29,30,30,31,31,32,32],"right_children":[2,4,-1,6,8,10,12,14,16,18,20,22,24,26,28,30,32,34,36,38,40,42,44,46,48,50,52,-1,-1,54,56,58,60,-1,-1,-1,-1,-1,-1,-1,-1,-1,-1,-1,-1,-1,-1,-1,-1,-1,-1,-1,-1,-1,-1,-1,-1,-1,-1,-1,-1],"split_conditions":[5E-1,4.0306336E-1,1.8170308E-1,5.87904E0,4.908021E0,4.1935654E0,5.996173E0,4.9046574E0,4.6317965E-1,2.2129431E-1,5.7809086E0,9.443469E-2,6.5E0,1.1788952E0,4.0604553E0,4.617596E-1,5.9978366E0,2.0804033E-1,3.8412905E-1,3.543076E-1,5E-1,5.3252645E-2,1.3088316E-1,5.9968996E0,1.6804168E-2,1.0371249E0,3.5E0,-1.5604547E-1,1.7933375E-1,5.537175E0,5.9252157E0,5.0164847E0,5.9978375E0,-1.8251956E-1,-1.1892003E-1,9.912386E-3,1.3932197E-1,-1.755794E-1,-1.0248297E-1,-1.8040471E-1,-1.10514395E-1,-5.871752E-2,-1.21817194E-1,2.5927886E-2,-1.2333876E-1,-1.295333E-1,-1.7024158E-1,1.363642E-1,-1.337304E-1,-1.09258465E-1,-1.3606441E-2,-1.4487486E-1,-1.8223505E-1,-9.287523E-2,-1.8895495E-1,-1.41974E-1,1.7125486E-1,-1.6058901E-1,-1.8166468E-1,2.0522983E-1,-1.7085914E-1],"split_indices":[1,9,0,2,2,2,2,2,9,9,2,9,3,9,9,9,2,9,9,9,7,9,9,2,9,9,6,0,0,2,2,2,2,0,0,0,0,0,0,0,0,0,0,0,0,0,0,0,0,0,0,0,0,0,0,0,0,0,0,0,0],"split_type":[0,0,0,0,0,0,0,0,0,0,0,0,0,0,0,0,0,0,0,0,0,0,0,0,0,0,0,0,0,0,0,0,0,0,0,0,0,0,0,0,0,0,0,0,0,0,0,0,0,0,0,0,0,0,0,0,0,0,0,0,0],"sum_hessian":[1.4755633E5,9.884931E4,4.870702E4,8.43304E4,1.4518915E4,1.7174604E4,6.71558E4,4.2278755E3,1.0291039E4,3.8663147E3,1.3308288E4,6.478854E4,2.3672559E3,4.099134E3,1.2874202E2,4.8662454E2,9.804415E3,1.2122496E3,2.654065E3,9.49725E3,3.811039E3,5.6810297E4,7.978243E3,1.6815532E3,6.8570264E2,3.250687E3,8.4844653E2,5.702423E0,1.2303959E2,4.4981284E2,3.681172E1,6.6730293E3,3.1313857E3,1.0373833E3,1.748663E2,2.0712712E3,5.827937E2,8.927069E3,5.7018024E2,1.2174607E3,2.5935781E3,4.9840984E4,6.9693135E3,6.0932256E3,1.8850173E3,2.0101834E2,1.4805348E3,3.4623753E1,6.5107886E2,2.961717E3,2.8896994E2,4.944023E2,3.5404425E2,6.501077E1,3.8480206E2,2.9906895E0,3.3821033E1,2.868217E2,6.3862075E3,1.5351224E1,3.1160347E3],"tree_param":{"num_deleted":"0","num_feature":"10","num_nodes":"61","size_leaf_vector":"0"}},{"base_weights":[1.7791914E-3,-8.093554E-1,1.6810428E0,-7.0085484E-1,-1.4496278E0,-9.1386855E-1,-5.8536994E-1,-1.4095049E0,-1.6894814E0,-6.682798E-1,-1.2012798E0,-3.78201E-1,-7.5169253E-1,-1.4404644E0,1.3375604E0,-1.450552E0,-5.56357E-1,-1.0441622E0,-1.4794728E0,-2.9466477E-1,-4.9722725E-1,-1.0186704E0,-5.573235E-1,-1.2066742E0,-1.481999E0,4.1926077E-1,1.5578656E0,-1.1478245E0,-1.6148007E0,-4.1942525E-1,-6.167258E-1,-1.6146104E0,-9.6307063E-1,-1.1806489E0,-1.6007475E0,-4.0311503E-1,-1.9555484E-1,-4.4170192E-1,-6.182866E-1,-7.048777E-1,-1.2295852E0,-1.6758642E-1,-8.8846403E-1,-1.2591771E0,5.060408E-1,-1.6750227E0,-1.451057E0,1.8005193E0,-1.5562501E0],"categories":[],"categories_nodes":[],"categories_segments":[],"categories_sizes":[],"default_left":[1,1,0,1,1,1,1,1,0,1,1,1,1,1,1,1,1,1,1,1,1,1,1,1,1,1,0,0,0,0,0,0,0,0,0,0,0,0,0,0,0,0,0,0,0,0,0,0,0],"id":2,"left_children":[1,3,-1,5,7,9,11,13,-1,15,17,19,21,23,25,27,29,31,33,35,37,39,41,43,45,47,-1,-1,-1,-1,-1,-1,-1,-1,-1,-1,-1,-1,-1,-1,-1,-1,-1,-1,-1,-1,-1,-1,-1],"loss_changes":[1.9717645E5,6.779926E3,0E0,2.052754E3,1.3372656E2,2.0702715E3,1.8647656E3,1.0329043E3,0E0,1.3846665E3,5.893281E2,2.3953735E2,1.5573535E3,1.1461914E2,2.6782654E1,9.659912E1,1.1419141E2,3.9823633E2,1.7484375E2,1.5219592E2,6.654028E1,8.361836E2,2.2423413E3,1.6374048E2,5.8339844E1,7.813578E1,0E0,0E0,0E0,0E0,0E0,0E0,0E0,0E0,0E0,0E0,0E0,0E0,0E0,0E0,0E0,0E0,0E0,0E0,0E0,0E0,0E0,0E0,0E0],"parents":[2147483647,0,0,1,1,3,3,4,4,5,5,6,6,7,7,9,9,10,10,11,11,12,12,13,13,14,14,15,15,16,16,17,17,18,18,19,19,20,20,21,21,22,22,23,23,24,24,25,25],"right_children":[2,4,-1,6,8,10,12,14,-1,16,18,20,22,24,26,28,30,32,34,36,38,40,42,44,46,48,-1,-1,-1,-1,-1,-1,-1,-1,-1,-1,-1,-1,-1,-1,-1,-1,-1,-1,-1,-1,-1,-1,-1],"split_conditions":[5E-1,8.515E2,1.6810428E-1,9.05E1,9.419E3,5.85E1,9.95E1,9.061E3,-1.6894814E-1,3.95E1,6.65E1,3.5E0,1.955E2,1.0395E3,9.2825E3,1.5E0,1.5E0,5.95E1,4.5E0,1.5E0,5.5E0,1.125E2,2.765E2,1.0355E3,1.1975E3,9.068E3,1.5578656E-1,-1.1478245E-1,-1.6148007E-1,-4.1942526E-2,-6.167258E-2,-1.6146104E-1,-9.630706E-2,-1.18064895E-1,-1.6007476E-1,-4.0311504E-2,-1.9555485E-2,-4.4170193E-2,-6.182866E-2,-7.048777E-2,-1.2295852E-1,-1.6758641E-2,-8.884641E-2,-1.2591772E-1,5.0604083E-2,-1.6750227E-1,-1.451057E-1,1.8005194E-1,-1.5562502E-1],"split_indices":[1,0,0,0,0,0,0,0,0,0,0,6,0,0,0,6,6,0,5,6,6,0,0,0,0,0,0,0,0,0,0,0,0,0,0,0,0,0,0,0,0,0,0,0,0,0,0,0,0],"split_type":[0,0,0,0,0,0,0,0,0,0,0,0,0,0,0,0,0,0,0,0,0,0,0,0,0,0,0,0,0,0,0,0,0,0,0,0,0,0,0,0,0,0,0,0,0,0,0,0,0],"sum_hessian":[1.4475622E5,9.760878E4,4.7147445E4,8.346662E4,1.4142162E4,2.9340559E4,5.412606E4,1.2121367E4,2.0207949E3,1.5823194E4,1.3517365E4,2.410478E4,3.002128E4,1.1986752E4,1.346152E2,1.9790289E3,1.3844165E4,8.641552E3,4.8758135E3,1.416607E4,9.938708E3,1.2646411E4,1.737487E4,1.8128195E3,1.0173932E4,2.6608002E1,1.080072E2,6.988897E2,1.2801393E3,4.238383E3,9.605782E3,1.0731854E3,7.568366E3,1.4106573E3,3.465156E3,6.762829E3,7.403241E3,6.8167666E3,3.121942E3,5.0851772E3,7.5612344E3,7.9819673E3,9.392901E3,1.7591576E3,5.3661785E1,1.3982439E3,8.775688E3,1.5711352E1,1.0896649E1],"tree_param":{"num_deleted":"0","num_feature":"10","num_nodes":"49","size_leaf_vector":"0"}},{"base_weights":[1.7375964E-3,-7.436798E-1,1.5757254E0,-6.478375E-1,-1.3319681E0,-1.1029303E0,-5.307075E-1,-8.727537E-1,-1.5243573E0,-1.4550972E-1,-1.3835673E0,-5.0166607E-1,-1.2869723E0,-9.5614475E-1,4.852083E-1,-1.0737457E0,-1.5389885E0,-1.3930187E0,4.3073627E-1,-1.080178E0,-1.5113083E0,-5.6008655E-1,-8.597166E-2,-1.1211619E0,-1.6330696E0,-8.6066145E-1,-1.3591737E0,1.4847932E0,-1.0264231E0,-1.423453E0,1.4332422E0,-1.5741987E0,-1.4447457E0,-1.6630489E0,-1.2201372E0,7.118628E-2,1.4084306E0,-1.6531526E0,-7.1499E-1,-1.5590935E0,-8.909442E-1,-4.9263677E-1,-1.0536413E0,2.1354125E-1,-1.0503585E0,-1.1812016E0,1.3012979E0,-1.7123452E0,-1.0084349E0,-9.5635295E-1,1.6900965E0,-1.1721679E0,-1.6155323E0,-1.2672956E0,1.5658177E0,-1.5888842E0,1.7060398E0,-1.657478E0,-8.9797324E-1,-1.2770139E0,1.7175066E0,-1.2894199E0,-1.5829281E0,2.0525649E0,-1.5164007E0],"categories":[],"categories_nodes":[],"categories_segments":[],"categories_sizes":[],"default_left":[1,1,0,1,1,1,1,1,1,1,1,1,1,1,1,1,1,1,1,1,1,1,1,1,1,1,1,1,1,1,1,1,1,0,0,0,0,0,0,0,0,0,0,0,0,0,0,0,0,0,0,0,0,0,0,0,0,0,0,0,0,0,0,0,0],"id":3,"left_children":[1,3,-1,5,7,9,11,13,15,17,19,21,23,25,27,29,31,33,35,37,39,41,43,45,47,49,51,53,55,57,59,61,63,-1,-1,-1,-1,-1,-1,-1,-1,-1,-1,-1,-1,-1,-1,-1,-1,-1,-1,-1,-1,-1,-1,-1,-1,-1,-1,-1,-1,-1,-1,-1,-1],"loss_changes":[1.6661836E5,5.4328164E3,0E0,4.416914E3,1.1913691E3,4.5573887E3,1.4469492E3,4.5210547E2,6.10625E1,2.7654365E3,5.0673438E2,1.5414453E3,1.3800879E2,1.4344287E2,3.5118588E2,2.6721805E2,2.8292969E1,5.4713135E1,9.249887E2,8.12792E2,2.7217383E2,1.8521875E3,2.2597424E3,2.4162036E2,3.7249268E1,7.438408E2,3.2529785E1,3.3137085E1,1.451874E2,3.1216064E1,3.1104042E1,1.46015625E1,6.3400977E2,0E0,0E0,0E0,0E0,0E0,0E0,0E0,0E0,0E0,0E0,0E0,0E0,0E0,0E0,0E0,0E0,0E0,0E0,0E0,0E0,0E0,0E0,0E0,0E0,0E0,0E0,0E0,0E0,0E0,0E0,0E0,0E0],"parents":[2147483647,0,0,1,1,3,3,4,4,5,5,6,6,7,7,8,8,9,9,10,10,11,11,12,12,13,13,14,14,15,15,16,16,17,17,18,18,19,19,20,20,21,21,22,22,23,23,24,24,25,25,26,26,27,27,28,28,29,29,30,30,31,31,32,32],"right_children":[2,4,-1,6,8,10,12,14,16,18,20,22,24,26,28,30,32,34,36,38,40,42,44,46,48,50,52,54,56,58,60,62,64,-1,-1,-1,-1,-1,-1,-1,-1,-1,-1,-1,-1,-1,-1,-1,-1,-1,-1,-1,-1,-1,-1,-1,-1,-1,-1,-1,-1,-1,-1,-1,-1],"split_conditions":[5E-1,8.765E2,1.5757255E-1,5.87904E0,4.9369574E0,4.187435E0,5.996173E0,4.9046574E0,9.785E2,4.675E2,3.5E0,1.995E2,2.045E2,4.742619E0,4.9088097E0,9.755E2,5.9986835E0,3.5017881E0,8.115E2,5.7482634E0,7.485E2,1.125E2,2.765E2,1.965E2,2.15E1,4.738002E0,1.25E1,4.3895E3,4.9366837E0,5.9964795E0,5.9252157E0,5.0164847E0,5.9986873E0,-1.6630489E-1,-1.22013725E-1,7.1186284E-3,1.4084306E-1,-1.6531526E-1,-7.1499005E-2,-1.5590934E-1,-8.909442E-2,-4.926368E-2,-1.0536414E-1,2.1354126E-2,-1.0503586E-1,-1.18120156E-1,1.301298E-1,-1.7123453E-1,-1.0084349E-1,-9.5635295E-2,1.6900966E-1,-1.1721679E-1,-1.6155323E-1,-1.2672956E-1,1.5658177E-1,-1.5888843E-1,1.7060398E-1,-1.657478E-1,-8.9797325E-2,-1.2770139E-1,1.7175066E-1,-1.28942E-1,-1.5829282E-1,2.0525649E-1,-1.5164007E-1],"split_indices":[1,0,0,2,2,2,2,2,0,0,5,0,0,2,2,0,2,2,0,2,0,0,0,0,5,2,5,0,2,2,2,2,2,0,0,0,0,0,0,0,0,0,0,0,0,0,0,0,0,0,0,0,0,0,0,0,0,0,0,0,0,0,0,0,0],"split_type":[0,0,0,0,0,0,0,0,0,0,0,0,0,0,0,0,0,0,0,0,0,0,0,0,0,0,0,0,0,0,0,0,0,0,0,0,0,0,0,0,0,0,0,0,0,0,0,0,0,0,0,0,0,0,0,0,0,0,0,0,0,0,0,0,0],"sum_hessian":[1.4200897E5,9.637006E4,4.5638914E4,8.287104E4,1.34990205E4,1.696141E4,6.590963E4,3.9872888E3,9.511731E3,3.8450762E3,1.3116333E4,6.347383E4,2.4358025E3,3.7568784E3,2.304103E2,3.0146863E2,9.210264E3,1.2144685E3,2.6306077E3,3.8890808E3,9.227252E3,5.5652266E4,7.821562E3,1.6496962E3,7.861064E2,3.039834E3,7.170445E2,1.387066E2,9.17037E1,2.649431E2,3.6525505E1,6.693712E3,2.516551E3,4.706785E2,7.4379E2,1.9240905E3,7.065172E2,1.512486E3,2.376595E3,8.565926E3,6.613262E2,4.896293E4,6.689337E3,5.9686396E3,1.8529222E3,1.6102981E3,3.9398174E1,6.960285E2,9.007788E1,2.9305208E3,1.0931318E2,4.1782562E2,2.9921887E2,3.5481691E0,1.3515843E2,7.6396454E1,1.5307238E1,1.8181616E2,8.312695E1,3.1357791E0,3.3389725E1,2.0350325E2,6.490209E3,4.997038E1,2.4665808E3],"tree_param":{"num_deleted":"0","num_feature":"10","num_nodes":"65","size_leaf_vector":"0"}},{"base_weights":[-2.4509525E-3,-6.823772E-1,1.4911586E0,-5.88864E-1,-1.2797586E0,-1.0102284E0,-4.821122E-1,-8.9298326E-1,-1.4358379E0,-1.0265879E-1,-1.2619054E0,-4.5424956E-1,-1.2382886E0,-9.6543956E-1,1.3261569E0,-1.0068954E0,-1.4508371E0,-1.3875427E0,4.8072523E-1,-1.3637592E0,-1.0015253E0,-5.1128036E-1,-5.9196852E-2,-1.1024731E0,-1.5217688E0,-8.526914E-1,-1.4465616E0,-1.3933499E0,1.4822872E0,-1.1853945E0,2.150366E0,-1.4616163E0,-1.225569E0,-1.4742442E0,-8.692535E-1,1.3082024E-1,1.5166795E0,-1.422505E0,-8.260694E-1,-6.809343E-1,-1.46911E0,-4.510338E-1,-9.5645046E-1,2.2181949E-1,-9.6534586E-1,-1.1610365E0,1.4251627E0,-1.5996898E0,-9.276297E-1,-9.3016905E-1,1.4185824E0,-1.2092543E0,-1.5360013E0,-7.9034144E-1,-1.5677676E0,-1.0119935E0,2.598943E0,-1.4835995E0,-1.4011894E0,-1.5196985E0,-7.4842185E-1],"categories":[],"categories_nodes":[],"categories_segments":[],"categories_sizes":[],"default_left":[1,1,0,1,1,1,1,1,1,1,1,1,1,1,1,1,1,1,1,1,1,1,1,1,1,1,1,0,0,1,1,1,1,0,0,0,0,0,0,0,0,0,0,0,0,0,0,0,0,0,0,0,0,0,0,0,0,0,0,0,0],"id":4,"left_children":[1,3,-1,5,7,9,11,13,15,17,19,21,23,25,27,29,31,33,35,37,39,41,43,45,47,49,51,-1,-1,53,55,57,59,-1,-1,-1,-1,-1,-1,-1,-1,-1,-1,-1,-1,-1,-1,-1,-1,-1,-1,-1,-1,-1,-1,-1,-1,-1,-1,-1,-1],"loss_changes":[1.4035595E5,5.304754E3,0E0,3.693412E3,7.7467773E2,3.79125E3,1.3799434E3,5.959392E2,5.744922E1,2.7027024E3,3.4326953E2,1.4237842E3,8.794971E1,1.9307349E2,5.1894608E1,1.7874149E2,1.96875E1,4.9311035E1,8.987156E2,2.9379297E2,5.473037E2,1.4806631E3,2.0305724E3,2.3516821E2,3.330359E1,5.124099E2,1.25460205E1,0E0,0E0,4.3557434E1,2.6865982E1,9.126953E0,5.641638E1,0E0,0E0,0E0,0E0,0E0,0E0,0E0,0E0,0E0,0E0,0E0,0E0,0E0,0E0,0E0,0E0,0E0,0E0,0E0,0E0,0E0,0E0,0E0,0E0,0E0,0E0,0E0,0E0],"parents":[2147483647,0,0,1,1,3,3,4,4,5,5,6,6,7,7,8,8,9,9,10,10,11,11,12,12,13,13,14,14,15,15,16,16,17,17,18,18,19,19,20,20,21,21,22,22,23,23,24,24,25,25,26,26,29,29,30,30,31,31,32,32],"right_children":[2,4,-1,6,8,10,12,14,16,18,20,22,24,26,28,30,32,34,36,38,40,42,44,46,48,50,52,-1,-1,54,56,58,60,-1,-1,-1,-1,-1,-1,-1,-1,-1,-1,-1,-1,-1,-1,-1,-1,-1,-1,-1,-1,-1,-1,-1,-1,-1,-1,-1,-1],"split_conditions":[5E-1,8.825E2,1.4911586E-1,5.87904E0,4.908021E0,4.161182E0,5.9962144E0,4.9046574E0,9.955E2,4.675E2,5.7809086E0,1.995E2,2.045E2,4.742584E0,8.578E3,9.945E2,2.25E1,4.395E2,8.115E2,7.425E2,4.5E0,1.125E2,2.745E2,6.1328125E0,2.15E1,4.7380266E0,4.775001E0,-1.3933499E-1,1.4822872E-1,2.5E0,5.9693174E0,5.998687E0,5.9978304E0,-1.4742443E-1,-8.692535E-2,1.3082025E-2,1.5166795E-1,-1.4225051E-1,-8.260694E-2,-6.8093434E-2,-1.4691101E-1,-4.5103382E-2,-9.564505E-2,2.2181949E-2,-9.653459E-2,-1.1610365E-1,1.4251627E-1,-1.5996899E-1,-9.276297E-2,-9.301691E-2,1.4185825E-1,-1.2092543E-1,-1.5360014E-1,-7.903414E-2,-1.5677677E-1,-1.0119935E-1,2.598943E-1,-1.4835995E-1,-1.4011894E-1,-1.5196985E-1,-7.4842185E-2],"split_indices":[1,0,0,2,2,2,2,2,0,0,2,0,0,2,0,0,5,0,0,0,5,0,0,2,5,2,2,0,0,6,2,2,2,0,0,0,0,0,0,0,0,0,0,0,0,0,0,0,0,0,0,0,0,0,0,0,0,0,0,0,0],"split_type":[0,0,0,0,0,0,0,0,0,0,0,0,0,0,0,0,0,0,0,0,0,0,0,0,0,0,0,0,0,0,0,0,0,0,0,0,0,0,0,0,0,0,0,0,0,0,0,0,0,0,0,0,0,0,0,0,0,0,0,0,0],"sum_hessian":[1.382056E5,9.4972445E4,4.3233152E4,8.2119555E4,1.2852891E4,1.6597688E4,6.5521867E4,3.697341E3,9.15555E3,3.6037288E3,1.2993959E4,6.319494E4,2.3269258E3,3.5809846E3,1.1635646E2,3.1163715E2,8.843913E3,1.1248674E3,2.4788616E3,9.337243E3,3.6567163E3,5.522258E4,7.9723613E3,1.5765088E3,7.5041705E2,2.9033691E3,6.776156E2,5.887235E0,1.1046922E2,2.9555234E2,1.6084816E1,8.434819E3,4.0909354E2,9.6208185E2,1.6278555E2,1.8538346E3,6.2502686E2,8.416088E3,9.211549E2,2.170802E3,1.4859146E3,4.8641727E4,6.5808525E3,6.0857837E3,1.8865776E3,1.5413379E3,3.51709E1,6.6191486E2,8.85022E1,2.8081672E3,9.52017E1,1.8945699E2,4.881586E2,1.4687434E2,1.4867798E2,1.8421426E0,1.4242674E1,6.167514E3,2.2673052E3,2.5173232E2,1.5736122E2],"tree_param":{"num_deleted":"0","num_feature":"10","num_nodes":"61","size_leaf_vector":"0"}},{"base_weights":[-2.25005E-3,-6.295521E-1,1.4227607E0,-5.4491407E-1,-1.2148026E0,-9.5049065E-1,-4.41418E-1,-7.9554474E-1,-1.3760703E0,-8.921218E-2,-1.1956222E0,-4.1691887E-1,-1.1395543E0,-8.502156E-1,2.7636427E-1,-5.668325E-1,-1.3930919E0,-1.254349E0,4.1267508E-1,-1.3960646E0,-1.0625888E0,-4.6188915E-1,-3.5910726E-2,-1.0641094E0,-1.4266038E0,-7.214788E-1,-1.2895759E0,1.3541768E0,-1.4424706E0,-1.4891673E0,4.8716354E-1,-1.4044214E0,-1.1582726E0,-1.4337689E0,-1.0239873E0,1.3025718E0,-7.7104727E-3,-1.4877573E0,-1.1750443E0,-2.8622746E-1,-1.1612599E0,-4.1426232E-1,-7.556512E-1,3.513487E-1,-1.0039762E0,-1.1563085E0,1.7920592E0,1.3232868E0,-1.537636E0,-8.046657E-1,1.257261E0,-8.6071444E-1,-1.3608296E0,-9.002789E-1,1.3948071E0,-1.4388038E0,1.1859761E0,-1.0995141E0,-1.4112649E0,-1.445715E0,-7.143165E-1],"categories":[],"categories_nodes":[],"categories_segments":[],"categories_sizes":[],"default_left":[1,1,0,1,1,1,1,1,1,1,1,1,1,1,1,1,1,1,1,1,1,1,1,1,1,1,1,1,0,0,1,1,1,0,0,0,0,0,0,0,0,0,0,0,0,0,0,0,0,0,0,0,0,0,0,0,0,0,0,0,0],"id":5,"left_children":[1,3,-1,5,7,9,11,13,15,17,19,21,23,25,27,29,31,33,35,37,39,41,43,45,47,49,51,53,-1,-1,55,57,59,-1,-1,-1,-1,-1,-1,-1,-1,-1,-1,-1,-1,-1,-1,-1,-1,-1,-1,-1,-1,-1,-1,-1,-1,-1,-1,-1,-1],"loss_changes":[1.19921836E5,4.613426E3,0E0,3.415625E3,7.945879E2,3.492832E3,1.1085029E3,1.9195435E2,1.1626172E2,2.1446045E3,3.419336E2,1.073291E3,4.607422E1,1.751477E2,2.974707E2,1.7254613E2,2.0512695E1,4.4167114E1,9.5898914E2,1.0230762E2,5.929844E2,7.8358105E2,2.4799446E3,4.6137256E2,1.4078876E2,3.9768506E2,2.0346802E1,1.028334E1,0E0,0E0,1.1373673E2,1.500293E1,4.8575623E1,0E0,0E0,0E0,0E0,0E0,0E0,0E0,0E0,0E0,0E0,0E0,0E0,0E0,0E0,0E0,0E0,0E0,0E0,0E0,0E0,0E0,0E0,0E0,0E0,0E0,0E0,0E0,0E0],"parents":[2147483647,0,0,1,1,3,3,4,4,5,5,6,6,7,7,8,8,9,9,10,10,11,11,12,12,13,13,14,14,15,15,16,16,17,17,18,18,19,19,20,20,21,21,22,22,23,23,24,24,25,25,26,26,27,27,30,30,31,31,32,32],"right_children":[2,4,-1,6,8,10,12,14,16,18,20,22,24,26,28,30,32,34,36,38,40,42,44,46,48,50,52,54,-1,-1,56,58,60,-1,-1,-1,-1,-1,-1,-1,-1,-1,-1,-1,-1,-1,-1,-1,-1,-1,-1,-1,-1,-1,-1,-1,-1,-1,-1,-1,-1],"split_conditions":[5E-1,9.275E2,1.4227608E-1,5.87904E0,4.9369125E0,4.145922E0,5.9965286E0,9.061E3,9.955E2,4.715E2,8.25E1,2.055E2,6.0023155E0,4.742584E0,9.428E3,9.755E2,2.25E1,1.35E1,5.405E2,5.784669E0,9.55E1,1.125E2,2.725E2,6.001719E0,3.15E1,4.7380266E0,2.5E0,4.8721895E0,-1.4424706E-1,-1.4891674E-1,5.9252157E0,5.0164847E0,5.9978256E0,-1.4337689E-1,-1.0239873E-1,1.3025717E-1,-7.7104726E-4,-1.4877574E-1,-1.1750443E-1,-2.8622746E-2,-1.1612599E-1,-4.1426234E-2,-7.556512E-2,3.513487E-2,-1.00397624E-1,-1.1563086E-1,1.7920592E-1,1.3232867E-1,-1.537636E-1,-8.046657E-2,1.257261E-1,-8.607145E-2,-1.3608296E-1,-9.002789E-2,1.3948071E-1,-1.4388038E-1,1.1859762E-1,-1.09951414E-1,-1.411265E-1,-1.445715E-1,-7.143165E-2],"split_indices":[1,0,0,2,2,2,2,0,0,0,0,0,2,2,0,0,5,5,0,2,0,0,0,2,0,2,5,2,0,0,2,2,2,0,0,0,0,0,0,0,0,0,0,0,0,0,0,0,0,0,0,0,0,0,0,0,0,0,0,0,0],"split_type":[0,0,0,0,0,0,0,0,0,0,0,0,0,0,0,0,0,0,0,0,0,0,0,0,0,0,0,0,0,0,0,0,0,0,0,0,0,0,0,0,0,0,0,0,0,0,0,0,0,0,0,0,0,0,0,0,0,0,0,0,0],"sum_hessian":[1.3415192E5,9.314795E4,4.1003977E4,8.138072E4,1.1767232E4,1.6543287E4,6.483743E4,3.270539E3,8.496693E3,3.6655637E3,1.2877724E4,6.2640824E4,2.1966052E3,3.1120227E3,1.5851651E2,1.7574527E2,8.320948E3,1.1031318E3,2.562432E3,5.1335205E3,7.744203E3,5.6027684E4,6.6131416E3,1.7431603E3,4.534449E2,2.408849E3,7.031735E2,9.755551E1,6.0961002E1,9.350643E1,8.2238846E1,7.933204E3,3.8774414E2,6.171969E2,4.859349E2,8.2144684E2,1.7409851E3,3.6242356E3,1.5092847E3,8.736979E2,6.870505E3,4.8213387E4,7.8142964E3,4.724012E3,1.8891299E3,1.6892261E3,5.3934235E1,1.7174438E1,4.3627045E2,2.3122354E3,9.661372E1,1.0204775E2,6.011258E2,1.3524853E0,9.6203026E1,2.1613068E1,6.0625774E1,1.7769398E2,7.75551E3,2.3398956E2,1.537546E2],"tree_param":{"num_deleted":"0","num_feature":"10","num_nodes":"61","size_leaf_vector":"0"}},{"base_weights":[6.352253E-3,-5.735106E-1,1.3662628E0,-4.9336582E-1,-1.2049562E0,-8.549276E-1,-3.9861673E-1,-8.1947094E-1,-1.3311647E0,-1.4184286E-1,-1.0816507E0,-3.742354E-1,-1.0723431E0,-9.198788E-1,4.6291372E-1,-1.3842051E0,-1.2216905E0,-1.2322141E0,2.4158868E-1,-1.103969E0,3.5362396E-1,-4.1098264E-1,-1.2603703E-1,-8.361891E-1,-1.1842802E0,-7.4835867E-1,-1.3355867E0,1.4003544E0,-8.0006385E-1,2.3554204E0,-1.243561E0,-1.0748234E0,-1.4593968E0,9.649036E-1,-1.2916946E-1,-1.2058413E0,-9.013529E-1,9.3403107E-1,-1.4418868E0,-3.6178547E-1,-8.046952E-1,1.02795735E-1,-9.2099804E-1,-1.0716981E0,-4.0040573E-1,-6.565742E-1,-1.240522E0,-9.249085E-1,1.4868689E-1,-1.1080604E0,-1.4231238E0,1.1784484E0,2.6775265E0,-1.3764256E0,1.5892191E0,-1.0092854E0,-1.3496922E0],"categories":[],"categories_nodes":[],"categories_segments":[],"categories_sizes":[],"default_left":[1,1,0,1,1,1,1,1,1,1,1,1,1,1,1,0,1,1,1,1,1,1,1,1,1,1,1,1,1,0,1,0,0,0,0,0,0,0,0,0,0,0,0,0,0,0,0,0,0,0,0,0,0,0,0,0,0],"id":6,"left_children":[1,3,-1,5,7,9,11,13,15,17,19,21,23,25,27,-1,29,31,33,35,37,39,41,43,45,47,49,51,53,-1,55,-1,-1,-1,-1,-1,-1,-1,-1,-1,-1,-1,-1,-1,-1,-1,-1,-1,-1,-1,-1,-1,-1,-1,-1,-1,-1],"loss_changes":[1.03087625E5,4.6375215E3,0E0,2.7857988E3,5.0106934E2,2.729918E3,1.0581709E3,3.2856213E2,4.344922E1,1.7039408E3,4.1081152E2,5.6719824E2,5.8490967E1,1.6753711E2,2.2099586E2,0E0,2.0209473E2,3.634424E1,8.088293E2,2.5933105E2,2.065826E2,1.0490205E3,1.4594342E3,7.418262E1,4.4421143E1,2.6550293E2,1.2148315E1,2.7157394E1,1.1201672E2,0E0,6.1568115E1,0E0,0E0,0E0,0E0,0E0,0E0,0E0,0E0,0E0,0E0,0E0,0E0,0E0,0E0,0E0,0E0,0E0,0E0,0E0,0E0,0E0,0E0,0E0,0E0,0E0,0E0],"parents":[2147483647,0,0,1,1,3,3,4,4,5,5,6,6,7,7,8,8,9,9,10,10,11,11,12,12,13,13,14,14,16,16,17,17,18,18,19,19,20,20,21,21,22,22,23,23,24,24,25,25,26,26,27,27,28,28,30,30],"right_children":[2,4,-1,6,8,10,12,14,16,18,20,22,24,26,28,-1,30,32,34,36,38,40,42,44,46,48,50,52,54,-1,56,-1,-1,-1,-1,-1,-1,-1,-1,-1,-1,-1,-1,-1,-1,-1,-1,-1,-1,-1,-1,-1,-1,-1,-1,-1,-1],"split_conditions":[5E-1,1.0495E3,1.3662629E-1,5.87904E0,4.9369125E0,4.1935654E0,5.9962144E0,4.9050803E0,5.9978366E0,4.675E2,1.0155E3,1.955E2,1.5E0,2.4905E3,4.9088097E0,-1.384205E-1,5.9978375E0,3.5E0,6.005E2,5.760887E0,4.415578E0,1.125E2,2.765E2,6.5E0,5.996896E0,2.191E3,1.5E0,4.9087396E0,4.9366837E0,2.3554204E-1,5.999524E0,-1.0748234E-1,-1.459397E-1,9.649036E-2,-1.2916947E-2,-1.2058413E-1,-9.013529E-2,9.340311E-2,-1.4418869E-1,-3.6178548E-2,-8.046952E-2,1.02795735E-2,-9.209981E-2,-1.0716981E-1,-4.0040575E-2,-6.565742E-2,-1.24052204E-1,-9.249085E-2,1.4868689E-2,-1.1080604E-1,-1.423124E-1,1.1784484E-1,2.6775265E-1,-1.3764256E-1,1.5892191E-1,-1.00928545E-1,-1.3496922E-1],"split_indices":[1,0,0,2,2,2,2,2,2,0,0,0,6,0,2,0,2,6,0,2,2,0,0,3,2,0,6,2,2,0,2,0,0,0,0,0,0,0,0,0,0,0,0,0,0,0,0,0,0,0,0,0,0,0,0,0,0],"split_type":[0,0,0,0,0,0,0,0,0,0,0,0,0,0,0,0,0,0,0,0,0,0,0,0,0,0,0,0,0,0,0,0,0,0,0,0,0,0,0,0,0,0,0,0,0,0,0,0,0,0,0,0,0,0,0,0,0],"sum_hessian":[1.30726695E5,9.164854E4,3.9078156E4,8.132795E4,1.0320582E4,1.6885398E4,6.4442555E4,2.5474036E3,7.773178E3,4.0738945E3,1.2811504E4,6.219341E4,2.249147E3,2.3626929E3,1.847109E2,5.2283794E3,2.5447988E3,1.0593079E3,3.0145867E3,1.2615564E4,1.9593932E2,5.417223E4,8.021178E3,7.25991E2,1.523156E3,1.6745695E3,6.8812335E2,1.0595638E2,7.8754524E1,1.4815974E1,2.529983E3,6.2916064E2,4.3014722E2,1.0210364E3,1.9935503E3,8.391496E3,4.2240684E3,1.4843637E2,4.7502945E1,4.8156637E4,6.015594E3,6.2290044E3,1.7921736E3,4.7034482E2,2.5564618E2,1.4792055E2,1.3752354E3,1.399165E3,2.7540436E2,1.9498268E2,4.9314066E2,9.1909935E1,1.4046451E1,6.379041E1,1.4964113E1,7.920691E2,1.7379138E3],"tree_param":{"num_deleted":"0","num_feature":"10","num_nodes":"57","size_leaf_vector":"0"}},{"base_weights":[1.1201971E-2,-5.2234006E-1,1.3193512E0,-4.528607E-1,-1.0876237E0,-8.136606E-1,-3.6373663E-1,-5.7282716E-1,-1.2697421E0,-2.707758E-1,-1.1072061E0,-5.06806E-1,-2.874866E-1,-6.5824515E-1,5.2757597E-1,-1.3121843E0,-1.1589665E0,-1.080802E0,-6.6011004E-2,-8.761342E-1,-1.2079973E0,-3.874666E-1,-1.2198285E0,-2.5292322E-1,-8.9443344E-1,-5.471455E-1,-1.3577967E0,1.3295689E0,-7.424039E-1,-1.3229887E0,-1.1968038E0,2.3570387E0,-1.2155099E0,-1.129958E0,1.3079163E0,9.189819E-1,-4.2105493E-1,-1.3468705E0,-5.854292E-1,-1.3554279E0,-1.0798367E0,-1.1392064E0,-3.6228403E-1,3.60807E-1,-1.3018754E0,-3.2106918E-1,1.036077E-1,-6.6462946E-1,-1.1993489E0,-5.7179564E-1,3.0627353E0,1.1637259E0,2.277293E0,-1.3229928E0,1.4901508E0,-1.2810905E0,-1.3352283E0,-1.3291062E0,-3.672028E-1,2.554394E0,-9.243488E-1,-8.697103E-1,-1.2979842E0],"categories":[],"categories_nodes":[],"categories_segments":[],"categories_sizes":[],"default_left":[1,1,0,1,1,1,1,1,1,1,1,1,1,1,1,1,1,1,1,1,1,1,1,1,1,1,0,1,1,1,1,1,1,0,0,0,0,0,0,0,0,0,0,0,0,0,0,0,0,0,0,0,0,0,0,0,0,0,0,0,0,0,0],"id":7,"left_children":[1,3,-1,5,7,9,11,13,15,17,19,21,23,25,27,29,31,33,35,37,39,41,43,45,47,49,-1,51,53,55,57,59,61,-1,-1,-1,-1,-1,-1,-1,-1,-1,-1,-1,-1,-1,-1,-1,-1,-1,-1,-1,-1,-1,-1,-1,-1,-1,-1,-1,-1,-1,-1],"loss_changes":[8.834868E4,3.5308242E3,0E0,2.5744863E3,9.218799E2,2.5272275E3,7.0034863E2,2.4223273E2,3.2651367E1,9.2338416E2,2.3868457E2,1.8990425E3,8.785508E2,1.848899E2,1.9035423E2,4.9589844E0,4.0483887E2,1.3338159E2,1.554932E3,4.2753955E2,1.3391406E2,3.6161987E2,4.154795E2,9.6300073E2,1.5732239E2,1.8530939E2,0E0,1.5317566E1,9.608452E1,7.451172E-1,4.9976685E1,2.3305618E1,5.564209E1,0E0,0E0,0E0,0E0,0E0,0E0,0E0,0E0,0E0,0E0,0E0,0E0,0E0,0E0,0E0,0E0,0E0,0E0,0E0,0E0,0E0,0E0,0E0,0E0,0E0,0E0,0E0,0E0,0E0,0E0],"parents":[2147483647,0,0,1,1,3,3,4,4,5,5,6,6,7,7,8,8,9,9,10,10,11,11,12,12,13,13,14,14,15,15,16,16,17,17,18,18,19,19,20,20,21,21,22,22,23,23,24,24,25,25,27,27,28,28,29,29,30,30,31,31,32,32],"right_children":[2,4,-1,6,8,10,12,14,16,18,20,22,24,26,28,30,32,34,36,38,40,42,44,46,48,50,-1,52,54,56,58,60,62,-1,-1,-1,-1,-1,-1,-1,-1,-1,-1,-1,-1,-1,-1,-1,-1,-1,-1,-1,-1,-1,-1,-1,-1,-1,-1,-1,-1,-1,-1],"split_conditions":[4.1666667E-6,1.0495E3,1.3193512E-1,5.862342E0,4.9369125E0,4.378541E0,9.15E1,4.9050803E0,5.998686E0,4.665E2,3.5E0,6.95E1,3.025E2,3.5985E3,4.9089546E0,6.5E0,5.9986873E0,4.3606997E0,5.965E2,5.7482634E0,9.35E1,2.55E1,5.896389E0,1.995E2,1.25E1,3.597E3,-1.3577966E-1,4.9087014E0,4.9366837E0,5.823953E0,5.9914875E0,1.6E1,5.999524E0,-1.129958E-1,1.3079163E-1,9.1898195E-2,-4.2105492E-2,-1.3468705E-1,-5.854292E-2,-1.355428E-1,-1.0798367E-1,-1.13920644E-1,-3.6228403E-2,3.60807E-2,-1.3018754E-1,-3.2106917E-2,1.036077E-2,-6.646295E-2,-1.19934894E-1,-5.7179566E-2,3.0627355E-1,1.16372585E-1,2.277293E-1,-1.3229929E-1,1.4901508E-1,-1.2810905E-1,-1.3352284E-1,-1.3291062E-1,-3.672028E-2,2.554394E-1,-9.2434876E-2,-8.697104E-2,-1.2979843E-1],"split_indices":[4,0,0,2,2,2,0,2,2,0,5,0,0,0,2,3,2,2,0,2,0,0,2,0,5,0,0,2,2,2,2,5,2,0,0,0,0,0,0,0,0,0,0,0,0,0,0,0,0,0,0,0,0,0,0,0,0,0,0,0,0,0,0],"split_type":[0,0,0,0,0,0,0,0,0,0,0,0,0,0,0,0,0,0,0,0,0,0,0,0,0,0,0,0,0,0,0,0,0,0,0,0,0,0,0,0,0,0,0,0,0,0,0,0,0,0,0,0,0,0,0,0,0,0,0,0,0,0,0],"sum_hessian":[1.2658066E5,8.991039E4,3.667027E4,8.0070664E4,9.839727E3,1.5859348E4,6.4211312E4,2.5724087E3,7.2673174E3,5.5665176E3,1.029283E4,2.2322162E4,4.1889152E4,2.387484E3,1.8492479E2,5.2463857E3,2.0209318E3,1.1223501E3,4.4441675E3,3.1290146E3,7.1638154E3,1.9123057E4,3.1991055E3,3.9633582E4,2.255569E3,2.0618174E3,3.2566644E2,1.13317696E2,7.160709E1,4.787605E3,4.5878085E2,3.1341711E1,1.9895901E3,1.100236E3,2.2114159E1,1.1770652E3,3.2671023E3,1.1932162E3,1.9357985E3,3.3270012E3,3.836814E3,6.1840625E2,1.850465E4,1.5769585E2,3.0414097E3,3.3273848E4,6.359737E3,1.2880165E3,9.675525E2,2.0486697E3,1.3147792E1,9.833746E1,1.4980236E1,5.7151836E1,1.445526E1,1.1062799E3,3.6813252E3,3.951598E2,6.3621075E1,2.9772621E1,1.5690898E0,3.8536603E2,1.604224E3],"tree_param":{"num_deleted":"0","num_feature":"10","num_nodes":"63","size_leaf_vector":"0"}},{"base_weights":[1.1777681E-2,-4.7803038E-1,1.2793145E0,-4.1205257E-1,-1.0371034E0,-7.1139234E-1,-3.3695608E-1,-5.81477E-1,-1.2164384E0,-1.662088E-1,-1.025242E0,-3.1566933E-1,-1.0640566E0,-6.017701E-1,3.765897E0,-1.2386421E0,-8.02585E-1,-1.0541693E0,1.8971592E-2,-7.5328356E-1,-1.1539615E0,-3.5512868E-1,-6.684482E-2,-8.674554E-1,-1.3855188E0,-1.0587103E0,-5.333197E-1,-1.2799655E0,-1.1340262E0,-1.2913253E0,-1.8323444E-1,-1.3507193E0,-7.481621E-1,6.839427E-1,-2.2747053E-1,-1.291747E0,-4.7748646E-1,-1.3045416E0,-1.0255678E0,-3.0352777E-1,-7.851837E-1,2.787475E-1,-5.4285496E-1,-9.4397414E-1,1.7403454E0,-1.4170721E-1,-1.4124085E0,3.0876486E0,-5.553598E-1,-1.2338754E0,-1.2932197E0,2.0380127E0,-1.1939031E0,1.0373597E0,-1.3249301E0],"categories":[],"categories_nodes":[],"categories_segments":[],"categories_sizes":[],"default_left":[1,1,0,1,1,1,1,1,1,1,1,1,1,1,0,1,1,1,1,1,1,1,1,1,0,1,1,1,1,0,1,0,0,0,0,0,0,0,0,0,0,0,0,0,0,0,0,0,0,0,0,0,0,0,0],"id":8,"left_children":[1,3,-1,5,7,9,11,13,15,17,19,21,23,25,-1,27,29,31,33,35,37,39,41,43,-1,45,47,49,51,-1,53,-1,-1,-1,-1,-1,-1,-1,-1,-1,-1,-1,-1,-1,-1,-1,-1,-1,-1,-1,-1,-1,-1,-1,-1],"loss_changes":[7.6239E4,3.2666602E3,0E0,1.780665E3,7.631631E2,2.7183838E3,9.799668E2,2.3537268E2,6.063965E1,9.547122E2,3.5210645E2,6.041714E2,1.12627075E2,8.172284E1,0E0,2.6060547E1,1.0400499E2,8.990747E1,7.8759674E2,4.80864E2,1.3094336E2,1.178416E3,1.3859739E3,2.2518762E2,0E0,1.106427E2,1.8448077E2,1.1865234E0,3.4635303E2,0E0,2.1466426E2,0E0,0E0,0E0,0E0,0E0,0E0,0E0,0E0,0E0,0E0,0E0,0E0,0E0,0E0,0E0,0E0,0E0,0E0,0E0,0E0,0E0,0E0,0E0,0E0],"parents":[2147483647,0,0,1,1,3,3,4,4,5,5,6,6,7,7,8,8,9,9,10,10,11,11,12,12,13,13,15,15,16,16,17,17,18,18,19,19,20,20,21,21,22,22,23,23,25,25,26,26,27,27,28,28,30,30],"right_children":[2,4,-1,6,8,10,12,14,16,18,20,22,24,26,-1,28,30,32,34,36,38,40,42,44,-1,46,48,50,52,-1,54,-1,-1,-1,-1,-1,-1,-1,-1,-1,-1,-1,-1,-1,-1,-1,-1,-1,-1,-1,-1,-1,-1,-1,-1],"split_conditions":[5E-1,1.0495E3,1.2793146E-1,5.87904E0,5.0164847E0,4.4359407E0,5.9971647E0,5.016348E0,2.25E1,4.395E2,3.5E0,1.955E2,1.065E2,4.4207153E0,3.7658972E-1,5.998687E0,5.9978256E0,1.25E1,5.965E2,5.7482634E0,9.35E1,1.125E2,2.225E2,6.1203127E0,-1.3855188E-1,5.5E0,4.420744E0,5.82395E0,5.9986873E0,-1.2913254E-1,5.9991684E0,-1.3507193E-1,-7.481621E-2,6.8394266E-2,-2.2747053E-2,-1.291747E-1,-4.7748648E-2,-1.3045417E-1,-1.0255678E-1,-3.0352777E-2,-7.8518376E-2,2.7874751E-2,-5.4285496E-2,-9.439742E-2,1.7403454E-1,-1.4170721E-2,-1.4124085E-1,3.0876487E-1,-5.553598E-2,-1.2338754E-1,-1.2932198E-1,2.0380127E-1,-1.1939031E-1,1.03735976E-1,-1.32493E-1],"split_indices":[1,0,0,2,2,2,2,2,5,0,5,0,0,2,0,2,2,5,0,2,0,0,0,2,0,5,2,2,2,0,2,0,0,0,0,0,0,0,0,0,0,0,0,0,0,0,0,0,0,0,0,0,0,0,0],"split_type":[0,0,0,0,0,0,0,0,0,0,0,0,0,0,0,0,0,0,0,0,0,0,0,0,0,0,0,0,0,0,0,0,0,0,0,0,0,0,0,0,0,0,0,0,0,0,0,0,0,0,0,0,0,0,0],"sum_hessian":[1.2279583E5,8.857056E4,3.4225266E4,7.922297E4,9.347593E3,1.5887164E4,6.3335805E4,2.6412803E3,6.706312E3,5.804969E3,1.0082195E4,6.1535707E4,1.8000988E3,2.629866E3,1.1414373E1,6.3629414E3,3.4337085E2,1.0008913E3,4.8040776E3,3.241151E3,6.8410444E3,5.311253E4,8.423174E3,1.1192695E3,6.8082916E2,3.4074652E2,2.2891194E3,4.5531885E3,1.8097527E3,1.9131549E2,1.5205534E2,5.0656644E2,4.9432486E2,1.2985215E3,3.5055562E3,1.0965582E3,2.1445925E3,3.1442793E3,3.6967651E3,4.742399E4,5.6885444E3,4.880357E3,3.5428167E3,1.0879838E3,3.1285854E1,9.523623E1,2.4551028E2,1.3007575E1,2.2761118E3,1.0379425E3,3.515246E3,3.29168E1,1.7768358E3,7.353258E1,7.8522766E1],"tree_param":{"num_deleted":"0","num_feature":"10","num_nodes":"55","size_leaf_vector":"0"}},{"base_weights":[2.0494093E-3,-4.4293952E-1,1.2451259E0,-3.7308148E-1,-9.547583E-1,-5.481226E-1,-2.8038022E-1,-8.3875245E-1,-1.0957763E0,-4.442279E-1,-1.0441496E0,-1.1712891E-1,-4.1371328E-1,-8.476966E-1,1.9098495E0,-1.0250764E0,-1.2635901E0,-1.0141212E0,-4.0090927E-1,-7.1673733E-1,-1.1553682E0,-8.299312E-2,-3.451252E-1,-4.422276E-1,3.9174253E-1,-8.7372386E-1,-3.8038516E-1,-1.0187064E0,2.6706648E0,-1.1017677E0,1.2681686E0,-6.627015E-1,-1.2161452E0,-2.5780505E-1,-6.392781E-1,-1.0979496E0,-3.711274E-1,-9.606583E-1,-1.2797747E0,-2.4764875E-1,-5.688857E-2,-4.6655285E-1,-2.792443E-2,-3.5856652E-1,-6.7982715E-1,4.6827492E-1,-1.3581513E0,-7.984582E-1,-1.1075401E0,-7.073272E-1,2.0829458E0,-1.1271591E0,-6.163431E-1,1.2975335E0,-7.423454E-1],"categories":[],"categories_nodes":[],"categories_segments":[],"categories_sizes":[],"default_left":[1,1,0,1,1,1,1,1,1,1,1,1,1,1,1,1,0,1,1,1,1,1,1,1,1,1,1,0,0,1,1,0,0,0,0,0,0,0,0,0,0,0,0,0,0,0,0,0,0,0,0,0,0,0,0],"id":9,"left_children":[1,3,-1,5,7,9,11,13,15,17,19,21,23,25,27,29,-1,31,33,35,37,39,41,43,45,47,49,-1,-1,51,53,-1,-1,-1,-1,-1,-1,-1,-1,-1,-1,-1,-1,-1,-1,-1,-1,-1,-1,-1,-1,-1,-1,-1,-1],"loss_changes":[6.5057875E4,3.0963086E3,0E0,1.2364502E3,1.6922754E2,1.3592744E3,1.0844788E3,1.4201245E2,5.4361816E1,5.3819824E2,1.6553516E2,1.7431268E2,6.300459E2,6.890967E1,4.4676514E1,5.8280493E2,0E0,1.0856714E2,6.915425E2,1.5256122E2,8.1336914E1,8.373738E1,1.12332825E2,5.2627783E2,1.2628609E2,9.400293E1,2.4478683E2,0E0,0E0,3.8740234E1,7.3065033E0,0E0,0E0,0E0,0E0,0E0,0E0,0E0,0E0,0E0,0E0,0E0,0E0,0E0,0E0,0E0,0E0,0E0,0E0,0E0,0E0,0E0,0E0,0E0,0E0],"parents":[2147483647,0,0,1,1,3,3,4,4,5,5,6,6,7,7,8,8,9,9,10,10,11,11,12,12,13,13,14,14,15,15,17,17,18,18,19,19,20,20,21,21,22,22,23,23,24,24,25,25,26,26,29,29,30,30],"right_children":[2,4,-1,6,8,10,12,14,16,18,20,22,24,26,28,30,-1,32,34,36,38,40,42,44,46,48,50,-1,-1,52,54,-1,-1,-1,-1,-1,-1,-1,-1,-1,-1,-1,-1,-1,-1,-1,-1,-1,-1,-1,-1,-1,-1,-1,-1],"split_conditions":[8.333333E-6,8.515E2,1.2451259E-1,9.05E1,2.2845E3,6.55E1,9.85E1,2.2835E3,9.419E3,3.95E1,3.5E0,5.5E0,8.115E2,2.25E1,5.5E0,9.2805E3,-1.2635902E-1,1.5E0,5.65E1,2.5E0,7.75E1,2.5E0,6.5E0,2.785E2,6.5E0,1.65E1,2.189E3,-1.0187065E-1,2.6706648E-1,2.25E1,6.5E0,-6.627015E-2,-1.21614516E-1,-2.5780505E-2,-6.3927814E-2,-1.0979497E-1,-3.711274E-2,-9.6065834E-2,-1.2797748E-1,-2.4764875E-2,-5.688857E-3,-4.6655286E-2,-2.792443E-3,-3.5856653E-2,-6.798272E-2,4.682749E-2,-1.3581513E-1,-7.984582E-2,-1.1075401E-1,-7.073272E-2,2.0829459E-1,-1.12715915E-1,-6.163431E-2,1.2975335E-1,-7.423454E-2],"split_indices":[4,0,0,0,0,0,0,0,0,0,5,6,0,5,6,0,0,6,0,5,0,5,3,0,3,5,0,0,0,5,3,0,0,0,0,0,0,0,0,0,0,0,0,0,0,0,0,0,0,0,0,0,0,0,0],"split_type":[0,0,0,0,0,0,0,0,0,0,0,0,0,0,0,0,0,0,0,0,0,0,0,0,0,0,0,0,0,0,0,0,0,0,0,0,0,0,0,0,0,0,0,0,0,0,0,0,0,0,0,0,0,0,0],"sum_hessian":[1.1761032E5,8.660767E4,3.1002645E4,7.620781E4,1.039986E4,2.6383967E4,4.9823848E4,5.7097715E3,4.690089E3,2.181635E4,4.5676177E3,2.2399754E4,2.7424094E4,5.691941E3,1.783043E1,3.3048608E3,1.385228E3,1.539571E3,2.0276777E4,1.1600457E3,3.407572E3,1.9483963E4,2.9157908E3,2.6486871E4,9.372227E2,5.3908257E3,3.011153E2,3.6070566E0,1.4223373E1,3.1984182E3,1.064427E2,5.635531E2,9.7601794E2,1.2671531E4,7.605246E3,5.505761E2,6.0946954E2,1.3318309E3,2.0757412E3,2.6651194E3,1.6818844E4,2.1082576E3,8.0753314E2,1.9591148E4,6.8957217E3,8.9865216E2,3.8570545E1,4.081427E3,1.3093989E3,2.664623E2,3.4652966E1,3.0381763E3,1.6024187E2,1.0525993E2,1.1827699E0],"tree_param":{"num_deleted":"0","num_feature":"10","num_nodes":"55","size_leaf_vector":"0"}},{"base_weights":[-2.8683198E-5,-4.1465345E-1,1.215957E0,-3.5186276E-1,-8.882072E-1,-7.172727E-1,-2.7579576E-1,-4.6124405E-1,-1.1149157E0,-3.652284E-2,-9.631852E-1,-2.5610116E-1,-9.4511425E-1,-5.0162584E-1,4.1358504E-1,-1.134187E0,-7.584828E-1,-1.0561099E0,3.23538E-1,-7.452651E-1,-1.0587864E0,-2.430785E-1,-8.600439E-1,-1.0396205E0,-5.4094493E-1,-4.0059114E-1,-1.0431741E0,1.2512931E0,-6.337573E-1,-7.8236616E-1,-1.1544542E0,-1.2458396E0,-1.5650448E-1,-9.890631E-2,-1.1119727E0,5.6469228E-2,1.2009408E0,-1.1916828E0,-4.6190464E-1,-1.113379E0,-2.7509898E-1,-2.831385E-1,2.0954098E-1,-1.2100755E0,-4.6665558E-1,-8.3227736E-1,-1.1635572E0,1.9699024E0,-8.385523E-1,-4.7919014E-1,1.4660062E0,-1.1458006E0,-3.4645092E-1,1.0145892E0,2.2012477E0,-1.2363482E0,1.5013953E0,-9.193858E-1,1.7467512E0,-1.1924571E0,-1.0537585E0,9.1723233E-1,-1.2550704E0],"categories":[],"categories_nodes":[],"categories_segments":[],"categories_sizes":[],"default_left":[1,1,0,1,1,1,1,1,1,1,1,1,1,1,1,1,1,1,1,1,1,1,1,1,1,1,1,1,1,1,1,0,1,0,0,0,0,0,0,0,0,0,0,0,0,0,0,0,0,0,0,0,0,0,0,0,0,0,0,0,0,0,0],"id":10,"left_children":[1,3,-1,5,7,9,11,13,15,17,19,21,23,25,27,29,31,33,35,37,39,41,43,45,47,49,51,53,55,57,59,-1,61,-1,-1,-1,-1,-1,-1,-1,-1,-1,-1,-1,-1,-1,-1,-1,-1,-1,-1,-1,-1,-1,-1,-1,-1,-1,-1,-1,-1,-1,-1],"loss_changes":[5.7361336E4,2.522461E3,0E0,2.0820166E3,9.608657E2,2.1606143E3,8.171172E2,1.2195734E2,4.36958E1,1.2581288E3,1.9674414E2,4.7353467E2,6.712146E1,1.7985455E2,1.3468916E2,4.2962402E1,9.830469E1,4.7715027E1,5.934262E2,3.65604E2,2.8155127E2,1.0692063E3,1.7445251E2,3.5909668E1,2.5414859E2,4.0831833E2,3.6599487E1,1.6908295E1,8.996884E1,1.188018E2,2.0994629E1,0E0,1.796809E2,0E0,0E0,0E0,0E0,0E0,0E0,0E0,0E0,0E0,0E0,0E0,0E0,0E0,0E0,0E0,0E0,0E0,0E0,0E0,0E0,0E0,0E0,0E0,0E0,0E0,0E0,0E0,0E0,0E0,0E0],"parents":[2147483647,0,0,1,1,3,3,4,4,5,5,6,6,7,7,8,8,9,9,10,10,11,11,12,12,13,13,14,14,15,15,16,16,17,17,18,18,19,19,20,20,21,21,22,22,23,23,24,24,25,25,26,26,27,27,28,28,29,29,30,30,32,32],"right_children":[2,4,-1,6,8,10,12,14,16,18,20,22,24,26,28,30,32,34,36,38,40,42,44,46,48,50,52,54,56,58,60,-1,62,-1,-1,-1,-1,-1,-1,-1,-1,-1,-1,-1,-1,-1,-1,-1,-1,-1,-1,-1,-1,-1,-1,-1,-1,-1,-1,-1,-1,-1,-1],"split_conditions":[4.1666667E-6,8.505E2,1.215957E-1,5.8623323E0,4.9369125E0,4.1935654E0,5.996173E0,4.9051204E0,2.25E1,4.715E2,3.5E0,3.025E2,6.0019383E0,4.742584E0,4.9088097E0,9.785E2,5.9978304E0,5E-1,8.115E2,5.754425E0,7.485E2,2.055E2,5.990885E0,4.15E1,6.0022993E0,4.7380266E0,4.882186E0,4.9087396E0,4.9366584E0,9.775E2,5.998687E0,-1.2458396E-1,5.9991684E0,-9.890631E-3,-1.1119727E-1,5.646923E-3,1.2009408E-1,-1.1916828E-1,-4.6190467E-2,-1.113379E-1,-2.7509898E-2,-2.8313851E-2,2.0954099E-2,-1.21007554E-1,-4.666556E-2,-8.322774E-2,-1.1635572E-1,1.9699024E-1,-8.3855234E-2,-4.7919016E-2,1.4660062E-1,-1.1458006E-1,-3.464509E-2,1.0145892E-1,2.2012477E-1,-1.23634815E-1,1.5013954E-1,-9.193858E-2,1.7467512E-1,-1.1924571E-1,-1.0537585E-1,9.172323E-2,-1.2550704E-1],"split_indices":[4,0,0,2,2,2,2,2,5,0,5,0,2,2,2,0,2,5,0,2,0,0,2,0,2,2,2,2,2,0,2,0,2,0,0,0,0,0,0,0,0,0,0,0,0,0,0,0,0,0,0,0,0,0,0,0,0,0,0,0,0,0,0],"split_type":[0,0,0,0,0,0,0,0,0,0,0,0,0,0,0,0,0,0,0,0,0,0,0,0,0,0,0,0,0,0,0,0,0,0,0,0,0,0,0,0,0,0,0,0,0,0,0,0,0,0,0,0,0,0,0,0,0,0,0,0,0,0,0],"sum_hessian":[1.1377004E5,8.484156E4,2.8928475E4,7.491056E4,9.930998E3,1.2905725E4,6.200484E4,3.445354E3,6.4856445E3,3.425154E3,9.48057E3,6.023385E4,1.7709908E3,3.2937427E3,1.5161133E2,6.1509014E3,3.347429E2,8.9339307E2,2.531761E3,2.893567E3,6.587004E3,5.8963832E4,1.2700193E3,1.434088E3,3.3690277E2,2.7773264E3,5.164161E2,8.412773E1,6.74836E1,3.3718985E2,5.8137114E3,1.8439148E2,1.5035143E2,4.9416534E1,8.4397656E2,1.9417765E3,5.899845E2,1.1222782E3,1.7712887E3,6.157635E3,4.2936874E2,5.4169797E4,4.794035E3,6.709452E2,5.9907404E2,5.3939966E2,8.9468835E2,3.5105587E1,3.0179718E2,2.6658171E3,1.1150944E2,4.4955295E2,6.686315E1,6.900221E1,1.5125516E1,5.2958427E1,1.4525169E1,3.2046457E2,1.6725279E1,4.2129067E3,1.600805E3,7.611843E1,7.423299E1],"tree_param":{"num_deleted":"0","num_feature":"10","num_nodes":"63","size_leaf_vector":"0"}},{"base_weights":[1.0179135E-3,-3.7680256E-1,1.1909142E0,-3.1769785E-1,-9.596096E-1,-4.665948E-1,-2.4241929E-1,-9.1398954E-1,-1.2087504E0,-3.7597698E-1,-1.0926236E0,-6.490683E-2,-3.8429594E-1,-9.436827E-1,1.0573716E0,-9.731608E-1,-3.360549E-1,-6.5812415E-1,-1.2302003E0,-1.4726521E-2,-1.9955207E-1,-5.1369196E-1,-2.946778E-1,-8.9046925E-1,-1.1626849E0,1.1209922E0,-8.994013E-1,-1.1382672E0,-5.7012695E-1,-2.1216057E-1,-5.18715E-1,-1.2831869E0,-1.5026008E-1,-1.3152854E0,-1.0615996E0,-2.401844E-3,-2.6452646E-1,-5.51035E-1,-1.4858712E-1,-2.6292327E-1,-7.429724E-1,6.821171E-2,-4.5943645E-1,-9.018276E-1,4.6376724E0,-8.407658E-1,-1.2110517E0,7.1749645E-1,1.2146307E0],"categories":[],"categories_nodes":[],"categories_segments":[],"categories_sizes":[],"default_left":[1,1,0,1,1,1,1,1,0,1,1,1,1,1,1,1,1,1,1,1,1,1,1,1,1,1,0,0,0,0,0,0,0,0,0,0,0,0,0,0,0,0,0,0,0,0,0,0,0],"id":11,"left_children":[1,3,-1,5,7,9,11,13,-1,15,17,19,21,23,25,27,29,31,33,35,37,39,41,43,45,47,-1,-1,-1,-1,-1,-1,-1,-1,-1,-1,-1,-1,-1,-1,-1,-1,-1,-1,-1,-1,-1,-1,-1],"loss_changes":[4.9498207E4,2.8783066E3,0E0,8.503428E2,8.634473E1,1.4449194E3,1.2692329E3,3.8191064E2,0E0,5.303125E2,1.917351E2,1.5126556E2,3.2466064E2,7.368115E1,1.3087898E1,9.21239E1,4.7206348E2,2.4639026E2,3.368213E1,5.021625E1,1.08802475E2,6.587185E2,9.896057E2,3.2832324E2,1.8445068E1,2.6960297E0,0E0,0E0,0E0,0E0,0E0,0E0,0E0,0E0,0E0,0E0,0E0,0E0,0E0,0E0,0E0,0E0,0E0,0E0,0E0,0E0,0E0,0E0,0E0],"parents":[2147483647,0,0,1,1,3,3,4,4,5,5,6,6,7,7,9,9,10,10,11,11,12,12,13,13,14,14,15,15,16,16,17,17,18,18,19,19,20,20,21,21,22,22,23,23,24,24,25,25],"right_children":[2,4,-1,6,8,10,12,14,-1,16,18,20,22,24,26,28,30,32,34,36,38,40,42,44,46,48,-1,-1,-1,-1,-1,-1,-1,-1,-1,-1,-1,-1,-1,-1,-1,-1,-1,-1,-1,-1,-1,-1,-1],"split_conditions":[5E-1,1.0755E3,1.19091414E-1,9.05E1,9.419E3,7.15E1,9.85E1,9.061E3,-1.2087504E-1,3.95E1,3.5E0,5E-1,1.955E2,3.8565E3,6.5E0,1.65E1,5.65E1,2.5E0,8.25E1,2.15E1,3.5E0,1.145E2,2.225E2,3.8555E3,2.5E0,9.274E3,-8.994013E-2,-1.13826714E-1,-5.7012696E-2,-2.1216057E-2,-5.1871505E-2,-1.283187E-1,-1.5026008E-2,-1.3152854E-1,-1.0615996E-1,-2.401844E-4,-2.6452646E-2,-5.51035E-2,-1.4858712E-2,-2.6292328E-2,-7.429724E-2,6.8211714E-3,-4.5943644E-2,-9.018276E-2,4.6376726E-1,-8.4076576E-2,-1.2110517E-1,7.174965E-2,1.21463075E-1],"split_indices":[1,0,0,0,0,0,0,0,0,0,5,8,0,0,3,5,0,5,0,5,5,0,0,0,5,0,0,0,0,0,0,0,0,0,0,0,0,0,0,0,0,0,0,0,0,0,0,0,0],"split_type":[0,0,0,0,0,0,0,0,0,0,0,0,0,0,0,0,0,0,0,0,0,0,0,0,0,0,0,0,0,0,0,0,0,0,0,0,0,0,0,0,0,0,0,0,0,0,0,0,0],"sum_hessian":[1.1009993E5,8.356631E4,2.6533615E4,7.587326E4,7.693051E3,2.5476646E4,5.0396613E4,6.5063433E3,1.1867074E3,2.22566E4,3.2200466E3,2.2387455E4,2.8009158E4,6.410311E3,9.603239E1,1.3931699E3,2.086343E4,7.7576953E2,2.444277E3,1.6310049E4,6.0774062E3,1.1459098E4,1.655006E4,5.161283E3,1.2490277E3,9.342207E1,2.6103132E0,9.8700885E2,4.0616116E2,1.2432738E4,8.430691E3,3.4707465E2,4.2869492E2,1.6199574E3,8.243196E2,1.5544139E4,7.659101E2,7.683844E2,5.309022E3,5.4741045E3,5.984993E3,5.1679556E3,1.1382105E4,5.1515356E3,9.747642E0,1.6554959E2,1.083478E3,1.9228287E1,7.419379E1],"tree_param":{"num_deleted":"0","num_feature":"10","num_nodes":"49","size_leaf_vector":"0"}},{"base_weights":[5.8282693E-3,-3.3415678E-1,1.1690407E0,-2.7205107E-1,-8.541391E-1,-6.160226E-1,-2.0559132E-1,-4.8251936E-1,-1.053445E0,7.8611165E-2,-8.665081E-1,-1.9400337E-1,-1.2320073E0,-5.441567E-1,1.1731844E0,-5.952322E-1,-1.0823098E0,-9.869849E-1,4.5428026E-1,-8.98035E-1,1.240893E-2,-2.3294121E-1,8.558919E-2,-1.320794E0,-7.1192986E-1,-1.3998218E0,-4.9409428E-1,-1.0789492E0,1.2543838E0,-8.5747427E-1,1.6474487E0,-1.144602E0,-9.1840595E-1,-5.6295365E-1,-1.2884281E0,2.0086782E-1,1.4247931E0,-9.119637E-1,4.6390107E-1,5.87476E-1,-1.3792944E0,-1.8849465E-1,-5.9612787E-1,2.076576E-1,-5.207984E-1,-1.3139408E0,9.1648275E-1,3.0360394E0,-5.1182646E-1,2.0837233E0,1.0934588E0,9.076398E-2,-1.020253E0,1.8929406E0,-1.2420423E0,-8.412413E-1,-1.1579214E0,2.245816E0,-1.0251966E0],"categories":[],"categories_nodes":[],"categories_segments":[],"categories_sizes":[],"default_left":[1,1,0,1,1,1,1,1,1,1,1,1,1,1,1,1,1,1,1,1,1,1,1,0,1,0,1,0,1,1,1,1,1,0,0,0,0,0,0,0,0,0,0,0,0,0,0,0,0,0,0,0,0,0,0,0,0,0,0],"id":12,"left_children":[1,3,-1,5,7,9,11,13,15,17,19,21,23,25,27,29,31,33,35,37,39,41,43,-1,45,-1,47,-1,49,51,53,55,57,-1,-1,-1,-1,-1,-1,-1,-1,-1,-1,-1,-1,-1,-1,-1,-1,-1,-1,-1,-1,-1,-1,-1,-1,-1,-1],"loss_changes":[4.2120617E4,2.6613457E3,0E0,1.6829683E3,6.507573E2,2.0743413E3,7.336824E2,3.140874E2,7.5043945E1,1.2656145E3,2.428003E2,6.642986E2,3.085962E1,1.2618512E2,2.1570648E1,2.0216957E2,5.3901367E1,1.0461163E2,5.7456396E2,1.6088184E2,2.4442477E2,8.644529E2,5.5227454E2,0E0,1.01778564E2,0E0,1.7680695E2,0E0,1.2024475E1,4.7366592E1,2.7943306E1,1.4768066E1,5.048684E2,0E0,0E0,0E0,0E0,0E0,0E0,0E0,0E0,0E0,0E0,0E0,0E0,0E0,0E0,0E0,0E0,0E0,0E0,0E0,0E0,0E0,0E0,0E0,0E0,0E0,0E0],"parents":[2147483647,0,0,1,1,3,3,4,4,5,5,6,6,7,7,8,8,9,9,10,10,11,11,12,12,13,13,14,14,15,15,16,16,17,17,18,18,19,19,20,20,21,21,22,22,24,24,26,26,28,28,29,29,30,30,31,31,32,32],"right_children":[2,4,-1,6,8,10,12,14,16,18,20,22,24,26,28,30,32,34,36,38,40,42,44,-1,46,-1,48,-1,50,52,54,56,58,-1,-1,-1,-1,-1,-1,-1,-1,-1,-1,-1,-1,-1,-1,-1,-1,-1,-1,-1,-1,-1,-1,-1,-1,-1,-1],"split_conditions":[4.1666667E-6,8.505E2,1.1690407E-1,5.848712E0,4.9088907E0,4.1434903E0,5.225E2,4.9046574E0,9.785E2,4.715E2,6.5E0,1.995E2,5.5E0,3.6815076E0,4.3895E3,9.755E2,5.9986835E0,2.475E2,8.075E2,8.435E2,3.5E0,1.125E2,2.745E2,-1.3207941E-1,6.5E0,-1.3998218E-1,3.681541E0,-1.0789492E-1,4.7545E3,5.5367923E0,5.932843E0,5.0164847E0,5.9986873E0,-5.6295365E-2,-1.2884282E-1,2.0086782E-2,1.4247932E-1,-9.119637E-2,4.639011E-2,5.87476E-2,-1.3792944E-1,-1.8849466E-2,-5.961279E-2,2.076576E-2,-5.2079838E-2,-1.3139407E-1,9.164827E-2,3.0360395E-1,-5.1182646E-2,2.0837234E-1,1.09345876E-1,9.076398E-3,-1.0202529E-1,1.8929407E-1,-1.2420423E-1,-8.412413E-2,-1.1579215E-1,2.245816E-1,-1.02519654E-1],"split_indices":[4,0,0,2,2,2,0,2,0,0,3,0,6,2,0,0,2,0,0,0,6,0,0,0,3,0,2,0,0,2,2,2,2,0,0,0,0,0,0,0,0,0,0,0,0,0,0,0,0,0,0,0,0,0,0,0,0,0,0],"split_type":[0,0,0,0,0,0,0,0,0,0,0,0,0,0,0,0,0,0,0,0,0,0,0,0,0,0,0,0,0,0,0,0,0,0,0,0,0,0,0,0,0,0,0,0,0,0,0,0,0,0,0,0,0,0,0,0,0,0,0],"sum_hessian":[1.06504445E5,8.24164E4,2.4088049E4,7.362437E4,8.792037E3,1.1920404E4,6.170396E4,3.0704294E3,5.7216074E3,3.159454E3,8.76095E3,6.1016293E4,6.8766705E2,2.9608755E3,1.09553955E2,3.4035062E2,5.381257E3,8.2309485E2,2.3363594E3,8.457555E3,3.0339526E2,5.355768E4,7.4586133E3,5.860739E2,1.01593155E2,1.6216658E2,2.798709E3,3.3848457E0,1.06169106E2,3.0527206E2,3.507854E1,3.8949766E3,1.4862803E3,3.4319705E2,4.7989783E2,1.8535757E3,4.827837E2,8.372261E3,8.5293846E1,2.1509396E2,8.8301315E1,4.7719336E4,5.838343E3,6.20931E3,1.2493031E3,7.431326E1,2.7279894E1,1.3137142E1,2.7855718E3,1.5311538E1,9.085757E1,4.4791218E1,2.6048087E2,3.2649517E1,2.4290237E0,1.6651996E2,3.7284565E3,4.7869526E1,1.4384108E3],"tree_param":{"num_deleted":"0","num_feature":"10","num_nodes":"59","size_leaf_vector":"0"}},{"base_weights":[-7.622308E-3,-3.3052093E-1,1.1490914E0,-2.828392E-1,-8.4128433E-1,1.122507E0,1.1516886E0,-5.0103694E-1,-2.0121832E-1,-3.5676375E-1,-1.0609483E0,1.5009889E-2,-6.311024E-1,-1.8008614E-1,-8.288592E-1,-3.8059592E-1,3.7573206E0,-1.1273589E0,-9.3278784E-1,-8.4328425E-1,2.1490236E-1,-9.492105E-1,-4.3805373E-1,-1.7320985E-1,-1.1350659E0,-4.801078E-1,-1.0075264E0,-1.2768028E0,-3.25632E-1,-1.145357E0,-9.4556516E-1,2.3268666E0,-9.644967E-1,-1.226386E0,-5.889117E-1,7.9654855E-1,-8.847341E-2,-1.0858785E0,-3.4783238E-1,-8.0407006E-1,-2.7755085E-1,-2.0194168E-1,9.4663695E-2,-1.3003674E0,6.284974E-1,9.273562E-3,-7.031894E-1,-1.1712054E0,-7.1225786E-1,3.3421295E0,-3.504496E-1,-1.0717219E0,-1.1659958E0,-1.1593015E0,9.831217E-1,-5.518317E-1,-1.1174904E0],"categories":[],"categories_nodes":[],"categories_segments":[],"categories_sizes":[],"default_left":[1,1,1,1,1,0,0,1,1,1,1,1,1,1,1,1,0,1,1,1,1,1,1,1,1,1,1,0,1,1,1,0,1,0,0,0,0,0,0,0,0,0,0,0,0,0,0,0,0,0,0,0,0,0,0,0,0],"id":13,"left_children":[1,3,5,7,9,-1,-1,11,13,15,17,19,21,23,25,27,-1,29,31,33,35,37,39,41,43,45,47,-1,49,51,53,-1,55,-1,-1,-1,-1,-1,-1,-1,-1,-1,-1,-1,-1,-1,-1,-1,-1,-1,-1,-1,-1,-1,-1,-1,-1],"loss_changes":[3.841193E4,1.9578115E3,2.578125E-1,1.3095386E3,7.301924E2,0E0,0E0,1.3436382E3,7.0969165E2,2.1152045E2,3.914258E1,6.9172565E2,9.8144824E2,3.3980652E2,1.0812109E2,1.0457028E2,0E0,9.079102E0,1.6944568E2,7.349786E1,5.7711194E2,4.9584424E2,5.8442554E2,3.9567883E2,1.0867096E2,6.4674774E1,5.4822144E1,0E0,1.8408498E2,3.038086E0,1.1883855E2,0E0,1.0057544E2,0E0,0E0,0E0,0E0,0E0,0E0,0E0,0E0,0E0,0E0,0E0,0E0,0E0,0E0,0E0,0E0,0E0,0E0,0E0,0E0,0E0,0E0,0E0,0E0],"parents":[2147483647,0,0,1,1,2,2,3,3,4,4,7,7,8,8,9,9,10,10,11,11,12,12,13,13,14,14,15,15,17,17,18,18,19,19,20,20,21,21,22,22,23,23,24,24,25,25,26,26,28,28,29,29,30,30,32,32],"right_children":[2,4,6,8,10,-1,-1,12,14,16,18,20,22,24,26,28,-1,30,32,34,36,38,40,42,44,46,48,-1,50,52,54,-1,56,-1,-1,-1,-1,-1,-1,-1,-1,-1,-1,-1,-1,-1,-1,-1,-1,-1,-1,-1,-1,-1,-1,-1,-1],"split_conditions":[5E-1,5.090953E-1,1.5E0,5.9438686E0,5.016686E0,1.122507E-1,1.1516886E-1,4.231432E0,5.9962153E0,5.016348E0,5.9978366E0,2.1466732E-1,5.760887E0,2.733636E-1,1.5E0,5.43177E-1,3.7573206E-1,6.5E0,5.9978375E0,3.524817E0,2.842508E-1,3.633014E-1,5E-1,9.7274825E-2,4.7075337E-1,1.9170951E-2,6.5E0,-1.2768029E-1,5.436503E-1,5.823953E0,5.9914875E0,2.3268667E-1,5.999204E0,-1.226386E-1,-5.8891173E-2,7.965486E-2,-8.847341E-3,-1.0858785E-1,-3.478324E-2,-8.040701E-2,-2.7755085E-2,-2.019417E-2,9.46637E-3,-1.3003674E-1,6.2849745E-2,9.273562E-4,-7.031894E-2,-1.1712054E-1,-7.1225785E-2,3.3421296E-1,-3.504496E-2,-1.0717219E-1,-1.1659958E-1,-1.15930155E-1,9.831217E-2,-5.5183172E-2,-1.11749046E-1],"split_indices":[1,9,1,2,2,0,0,2,2,2,2,9,2,9,6,9,0,3,2,2,9,9,7,9,9,9,3,0,9,2,2,0,2,0,0,0,0,0,0,0,0,0,0,0,0,0,0,0,0,0,0,0,0,0,0,0,0],"split_type":[0,0,0,0,0,0,0,0,0,0,0,0,0,0,0,0,0,0,0,0,0,0,0,0,0,0,0,0,0,0,0,0,0,0,0,0,0,0,0,0,0,0,0,0,0,0,0,0,0,0,0,0,0,0,0,0,0],"sum_hessian":[1.02840836E5,8.039824E4,2.2442594E4,7.353502E4,6.863221E3,2.0359913E3,2.0406604E4,2.001735E4,5.351767E4,2.1417378E3,4.7214834E3,4.0297651E3,1.5987585E4,5.177571E4,1.7419615E3,2.130305E3,1.1433006E1,3.1048198E3,1.6166636E3,7.606185E2,3.2691467E3,6.036554E3,9.951031E3,5.140674E4,3.6897058E2,5.9135223E2,1.1506093E3,1.2181628E2,2.0084885E3,2.820303E3,2.845169E2,1.4877526E1,1.601786E3,3.019862E2,4.586323E2,1.1200702E3,2.1490764E3,4.9180757E3,1.1184781E3,3.0322268E3,6.918804E3,4.6427246E4,4.979494E3,3.3759036E2,3.1380209E1,1.854603E2,4.0589194E2,7.383476E2,4.1226172E2,1.2600555E1,1.995888E3,6.2902075E2,2.1912822E3,2.5649152E2,2.8025387E1,4.3448105E2,1.167305E3],"tree_param":{"num_deleted":"0","num_feature":"10","num_nodes":"57","size_leaf_vector":"0"}},{"base_weights":[8.199189E-3,-2.8415963E-1,1.1326294E0,-2.3396948E-1,-8.5861665E-1,1.106046E0,1.1351966E0,-5.303414E-1,-1.7021723E-1,-4.7243735E-1,-1.035894E0,-1.15589425E-1,-7.9926604E-1,-1.5861543E-1,-8.921211E-1,2.1710141E-1,-5.9887636E-1,-1.0669059E0,-5.16464E-1,-8.1941974E-1,8.622354E-3,-5.063062E-1,-9.5544714E-1,-1.8520832E-1,9.373895E-2,-1.1030805E0,1.7044604E-1,-7.5444347E-1,1.2613412E0,-6.285718E-1,2.903846E0,-1.129305E0,-9.137934E-1,-1.1484128E0,1.2129408E-1,-1.208211E0,-4.333565E-1,7.051552E-1,-1.5099657E-1,-1.1597874E0,-2.3909739E-1,-9.668008E-1,3.857281E0,-1.4447878E-1,-4.5692155E-1,4.8576975E-1,-2.2735149E-1,-3.2782936E-1,-1.2576939E0,4.1726513E0,-1.4471743E-1,-1.2716123E0,-4.360554E-1,2.3867192E0,6.935206E-1,-1.0064472E0,-4.5271155E-1,-1.0593735E0,-1.1497169E0,1.962662E0,-9.967688E-1,9.7408944E-1,-1.1489137E0],"categories":[],"categories_nodes":[],"categories_segments":[],"categories_sizes":[],"default_left":[1,1,1,1,1,0,0,1,1,1,1,1,1,1,1,1,1,1,1,1,1,1,1,1,1,1,1,1,1,1,0,1,1,0,1,0,0,0,0,0,0,0,0,0,0,0,0,0,0,0,0,0,0,0,0,0,0,0,0,0,0,0,0],"id":14,"left_children":[1,3,5,7,9,-1,-1,11,13,15,17,19,21,23,25,27,29,31,33,35,37,39,41,43,45,47,49,51,53,55,-1,57,59,-1,61,-1,-1,-1,-1,-1,-1,-1,-1,-1,-1,-1,-1,-1,-1,-1,-1,-1,-1,-1,-1,-1,-1,-1,-1,-1,-1,-1,-1],"loss_changes":[3.2935195E4,2.2923281E3,1.5429688E-1,1.381574E3,4.368706E2,0E0,0E0,1.4437388E3,5.039049E2,1.7552878E2,6.99668E1,4.452609E2,3.588208E2,3.975077E2,2.1351422E2,3.1796225E2,1.7868579E2,3.8426758E1,1.0032256E2,1.14151245E2,4.8151935E2,4.7691528E2,2.8355176E2,5.929437E2,7.1098376E2,9.477966E1,2.005416E2,2.6202156E1,9.482024E1,1.1164209E2,0E0,2.9643555E0,2.8862048E2,0E0,1.3611449E2,0E0,0E0,0E0,0E0,0E0,0E0,0E0,0E0,0E0,0E0,0E0,0E0,0E0,0E0,0E0,0E0,0E0,0E0,0E0,0E0,0E0,0E0,0E0,0E0,0E0,0E0,0E0,0E0],"parents":[2147483647,0,0,1,1,2,2,3,3,4,4,7,7,8,8,9,9,10,10,11,11,12,12,13,13,14,14,15,15,16,16,17,17,18,18,19,19,20,20,21,21,22,22,23,23,24,24,25,25,26,26,27,27,28,28,29,29,31,31,32,32,34,34],"right_children":[2,4,6,8,10,-1,-1,12,14,16,18,20,22,24,26,28,30,32,34,36,38,40,42,44,46,48,50,52,54,56,-1,58,60,-1,62,-1,-1,-1,-1,-1,-1,-1,-1,-1,-1,-1,-1,-1,-1,-1,-1,-1,-1,-1,-1,-1,-1,-1,-1,-1,-1,-1,-1],"split_conditions":[5E-1,1.0755E3,1.5E0,5.8797064E0,5.0164847E0,1.106046E-1,1.1351966E-1,4.4359617E0,4.925E2,2.5E0,2.25E1,4.395E2,3.5E0,2.055E2,9.055E2,1.5E0,5.016348E0,5.998687E0,5.9978304E0,1.25E1,5.275E2,2.5E0,1.0745E3,1.115E2,2.185E2,5E-1,9.065E2,4.611801E0,4.4967527E0,9.5E0,2.9038462E-1,5.82395E0,5.9986873E0,-1.1484128E-1,5.999176E0,-1.20821096E-1,-4.333565E-2,7.051552E-2,-1.5099657E-2,-1.1597874E-1,-2.3909738E-2,-9.668008E-2,3.857281E-1,-1.4447878E-2,-4.5692157E-2,4.8576977E-2,-2.2735149E-2,-3.278294E-2,-1.2576939E-1,4.1726515E-1,-1.4471742E-2,-1.2716123E-1,-4.360554E-2,2.3867193E-1,6.935206E-2,-1.0064472E-1,-4.5271154E-2,-1.05937354E-1,-1.1497169E-1,1.962662E-1,-9.967688E-2,9.740894E-2,-1.1489137E-1],"split_indices":[1,0,1,2,2,0,0,2,0,5,5,0,5,0,0,5,2,2,2,5,0,5,0,0,0,6,0,2,2,5,0,2,2,0,2,0,0,0,0,0,0,0,0,0,0,0,0,0,0,0,0,0,0,0,0,0,0,0,0,0,0,0,0],"split_type":[0,0,0,0,0,0,0,0,0,0,0,0,0,0,0,0,0,0,0,0,0,0,0,0,0,0,0,0,0,0,0,0,0,0,0,0,0,0,0,0,0,0,0,0,0,0,0,0,0,0,0,0,0,0,0,0,0,0,0,0,0,0,0],"sum_hessian":[1.0018506E5,7.951216E4,2.0672904E4,7.312468E4,6.387473E3,1.8585802E3,1.8814324E4,1.294386E4,6.0180824E4,2.0108094E3,4.3766636E3,5.092038E3,7.851822E3,5.923015E4,9.506759E2,3.1147177E2,1.6993378E3,4.1290884E3,2.4757494E2,7.6299976E2,4.3290386E3,2.7318123E3,5.1200093E3,5.3583797E4,5.64635E3,7.9316486E2,1.5751105E2,1.6149593E2,1.4997585E2,1.6858658E3,1.3471921E1,2.929023E3,1.2000656E3,1.2395165E2,1.2362328E2,3.7909573E2,3.83904E2,8.0645856E2,3.52258E3,7.918752E2,1.9399371E3,5.108757E3,1.1252885E1,4.660003E4,6.9837656E3,2.5420984E3,3.1042517E3,1.3240253E2,6.607623E2,1.0604663E1,1.4690639E2,6.0397022E1,1.0109891E2,4.9220734E1,1.00755104E2,5.339121E2,1.1519536E3,6.737235E2,2.2552993E3,3.3011814E1,1.1670537E3,7.4104164E1,4.9519115E1],"tree_param":{"num_deleted":"0","num_feature":"10","num_nodes":"63","size_leaf_vector":"0"}},{"base_weights":[1.3811634E-2,-2.5937092E-1,1.1177691E0,-2.1571553E-1,-7.702598E-1,1.0914078E0,1.1203132E0,-8.9965016E-1,-2.043255E-1,-7.0789367E-1,-1.1385719E0,-9.378049E-1,1.1909045E0,-2.9973257E-1,-1.5778436E-1,-7.3310393E-1,9.9663234E-1,-3.80767E-1,-1.0515122E0,1.6924273E0,-1.0277855E0,-2.0431723E-1,-8.530907E-1,-5.4079816E-2,-2.561704E-1,-6.5846825E-1,-9.38812E-1,1.0453408E0,-7.299365E-1,-1.2406386E0,4.5115876E-1,-1.1078833E0,-2.8682268E-1,-8.155895E-1,1.9493761E0,-1.259162E-1,-3.2975256E-1,-1.0101373E0,-6.052437E-1,-2.2097563E-2,-2.702661E-1,-4.306042E-1,-1.5083387E-1,-6.7311215E-1,4.282567E0,-1.0265318E0,-7.217862E-1,-6.555558E-1,1.0781565E0],"categories":[],"categories_nodes":[],"categories_segments":[],"categories_sizes":[],"default_left":[1,1,1,1,1,0,0,1,1,1,0,1,1,1,1,1,1,1,1,1,0,1,1,1,1,1,1,1,0,0,0,0,0,0,0,0,0,0,0,0,0,0,0,0,0,0,0,0,0],"id":15,"left_children":[1,3,5,7,9,-1,-1,11,13,15,-1,17,19,21,23,25,27,29,31,33,-1,35,37,39,41,43,45,47,-1,-1,-1,-1,-1,-1,-1,-1,-1,-1,-1,-1,-1,-1,-1,-1,-1,-1,-1,-1,-1],"loss_changes":[2.9446957E4,1.7455518E3,7.6171875E-2,5.6157227E2,1.4072412E2,0E0,0E0,9.531598E1,3.1491626E2,2.2727124E2,0E0,7.309595E1,2.5783222E1,1.2276995E3,4.8644275E2,7.915088E1,7.2604218E0,1.4239647E2,4.1197266E1,1.3190964E1,0E0,1.9503864E2,1.3250342E2,1.6048892E2,4.4947632E2,2.7897412E2,2.5547485E1,4.923752E0,0E0,0E0,0E0,0E0,0E0,0E0,0E0,0E0,0E0,0E0,0E0,0E0,0E0,0E0,0E0,0E0,0E0,0E0,0E0,0E0,0E0],"parents":[2147483647,0,0,1,1,2,2,3,3,4,4,7,7,8,8,9,9,11,11,12,12,13,13,14,14,15,15,16,16,17,17,18,18,19,19,21,21,22,22,23,23,24,24,25,25,26,26,27,27],"right_children":[2,4,6,8,10,-1,-1,12,14,16,-1,18,20,22,24,26,28,30,32,34,-1,36,38,40,42,44,46,48,-1,-1,-1,-1,-1,-1,-1,-1,-1,-1,-1,-1,-1,-1,-1,-1,-1,-1,-1,-1,-1],"split_conditions":[5E-1,1.0495E3,1.5E0,3.95E1,9.4045E3,1.09140776E-1,1.1203132E-1,6.5E0,9.15E1,9.061E3,-1.1385719E-1,5E-1,1.5E0,6.95E1,1.025E2,2.7235E3,6.5E0,2.55E1,2.15E1,1.25E1,-1.02778554E-1,5.65E1,8.25E1,5.5E0,1.995E2,2.7225E3,4.6585E3,1.5E0,-7.299365E-2,-1.24063864E-1,4.5115877E-2,-1.1078834E-1,-2.8682267E-2,-8.155895E-2,1.9493762E-1,-1.259162E-2,-3.2975256E-2,-1.01013735E-1,-6.052437E-2,-2.2097563E-3,-2.7026609E-2,-4.306042E-2,-1.50833875E-2,-6.731122E-2,4.2825672E-1,-1.0265318E-1,-7.2178625E-2,-6.555558E-2,1.07815646E-1],"split_indices":[1,0,1,0,0,0,0,3,0,0,0,6,6,0,0,0,3,0,5,5,0,0,0,6,0,0,0,5,0,0,0,0,0,0,0,0,0,0,0,0,0,0,0,0,0,0,0,0,0],"split_type":[0,0,0,0,0,0,0,0,0,0,0,0,0,0,0,0,0,0,0,0,0,0,0,0,0,0,0,0,0,0,0,0,0,0,0,0,0,0,0,0,0,0,0,0,0,0,0,0,0],"sum_hessian":[9.763969E4,7.827157E4,1.9368123E4,7.21111E4,6.160465E3,1.7424819E3,1.762564E4,1.1799664E3,7.093114E4,5.2708716E3,8.8959314E2,1.1593584E3,2.0608034E1,2.3254697E4,4.767644E4,5.1946123E3,7.625937E1,1.972762E2,9.620823E2,1.7002016E1,3.606018E0,1.983579E4,3.4189075E3,2.3211611E4,2.446483E4,3.8147378E3,1.3798743E3,7.4550766E1,1.7086048E0,9.6767166E1,1.0050903E2,8.9561115E2,6.647112E1,1.3779583E0,1.5624058E1,1.2207636E4,7.628153E3,2.0909287E3,1.3279786E3,2.0221219E4,2.9903926E3,9.210106E3,1.5254723E4,3.8043267E3,1.0411224E1,9.800267E2,3.9984766E2,1.0519034E0,7.349886E1],"tree_param":{"num_deleted":"0","num_feature":"10","num_nodes":"49","size_leaf_vector":"0"}},{"base_weights":[1.5835697E-2,-2.2888961E-1,1.104388E0,-1.8765433E-1,-7.3066306E-1,1.0760696E0,1.1071875E0,-4.3064263E-1,-1.1577047E-1,-1.8851818E-1,-1.0007863E0,8.7861896E-2,-5.662789E-1,-1.04524806E-1,-1.0384809E0,-9.199574E-1,-1.1321541E-1,-1.034668E0,-4.532537E-1,-8.681076E-1,3.3157843E-1,-3.4480727E-1,-7.408794E-1,-1.3971545E-1,1.23933524E-1,-1.1206107E0,4.066511E-1,-1.2486639E0,5.231841E-1,3.6239082E-1,-2.9342183E-1,-1.0485911E0,-6.001945E-1,-1.1216961E0,1.840972E-1,2.118455E-1,-9.367232E-1,4.2839447E-1,-1.0390368E0,-1.3029605E-1,-9.843221E-1,-8.8609827E-1,-1.4681934E-1,-1.0368391E-1,-4.7125372E-1,3.0466977E-1,-2.1269433E-1,-1.217683E0,-8.6565626E-1,2.76634E0,-1.1688807E0,3.193848E0,-1.178309E0,1.6793193E-1,4.6404815E0,-1.2504247E0,-1.6765843E-1,-6.090133E-1,-1.0613339E0,-1.1275191E0,7.5568633E0,9.575777E-1,-1.1139965E0],"categories":[],"categories_nodes":[],"categories_segments":[],"categories_sizes":[],"default_left":[1,1,1,1,1,0,0,1,1,1,1,1,1,1,1,1,1,1,1,1,1,1,1,1,1,1,1,0,1,1,1,1,1,0,1,0,0,0,0,0,0,0,0,0,0,0,0,0,0,0,0,0,0,0,0,0,0,0,0,0,0,0,0],"id":16,"left_children":[1,3,5,7,9,-1,-1,11,13,15,17,19,21,23,25,27,29,31,33,35,37,39,41,43,45,47,49,-1,51,53,55,57,59,-1,61,-1,-1,-1,-1,-1,-1,-1,-1,-1,-1,-1,-1,-1,-1,-1,-1,-1,-1,-1,-1,-1,-1,-1,-1,-1,-1,-1,-1],"loss_changes":[2.531292E4,1.6050281E3,1.9140625E-1,1.2521365E3,8.625061E2,0E0,0E0,1.1510295E3,5.739608E2,1.0786623E2,7.246753E1,7.911191E2,5.0138086E2,4.3945355E2,7.9506775E1,8.738455E1,1.5253104E2,2.1763184E1,9.857415E1,5.1316467E1,3.5945816E2,7.846361E2,6.255762E2,5.657518E2,4.4396942E2,1.4549866E1,1.3911981E2,0E0,1.6109656E2,4.0613525E2,1.5508585E2,1.9437256E1,5.129923E2,0E0,1.20602974E2,0E0,0E0,0E0,0E0,0E0,0E0,0E0,0E0,0E0,0E0,0E0,0E0,0E0,0E0,0E0,0E0,0E0,0E0,0E0,0E0,0E0,0E0,0E0,0E0,0E0,0E0,0E0,0E0],"parents":[2147483647,0,0,1,1,2,2,3,3,4,4,7,7,8,8,9,9,10,10,11,11,12,12,13,13,14,14,15,15,16,16,17,17,18,18,19,19,20,20,21,21,22,22,23,23,24,24,25,25,26,26,28,28,29,29,30,30,31,31,32,32,34,34],"right_children":[2,4,6,8,10,-1,-1,12,14,16,18,20,22,24,26,28,30,32,34,36,38,40,42,44,46,48,50,-1,52,54,56,58,60,-1,62,-1,-1,-1,-1,-1,-1,-1,-1,-1,-1,-1,-1,-1,-1,-1,-1,-1,-1,-1,-1,-1,-1,-1,-1,-1,-1,-1,-1],"split_conditions":[5E-1,1.0395E3,1.5E0,5.936199E0,4.9369574E0,1.0760696E-1,1.1071875E-1,4.153455E0,5.395E2,1.1475E3,2.25E1,4.675E2,3.5E0,1.955E2,9.945E2,4.525611E0,1.4695E3,6.4912806E0,5.9978304E0,5E-1,9.155E2,9.55E1,7.065E2,1.125E2,2.225E2,5E-1,9.955E2,-1.2486639E-1,4.526726E0,1.4685E3,1.7045E3,5.016686E0,5.998E3,-1.12169616E-1,5.9991684E0,2.118455E-2,-9.367232E-2,4.283945E-2,-1.0390367E-1,-1.3029605E-2,-9.8432206E-2,-8.860983E-2,-1.4681934E-2,-1.0368391E-2,-4.7125373E-2,3.0466978E-2,-2.1269433E-2,-1.21768296E-1,-8.656563E-2,2.76634E-1,-1.1688807E-1,3.1938478E-1,-1.17830895E-1,1.6793193E-2,4.6404815E-1,-1.2504248E-1,-1.6765844E-2,-6.0901333E-2,-1.06133394E-1,-1.12751916E-1,7.5568634E-1,9.5757775E-2,-1.1139965E-1],"split_indices":[1,0,1,2,2,0,0,2,0,0,5,0,5,0,0,2,0,2,2,5,0,0,0,0,0,8,0,0,2,0,0,2,0,0,2,0,0,0,0,0,0,0,0,0,0,0,0,0,0,0,0,0,0,0,0,0,0,0,0,0,0,0,0],"split_type":[0,0,0,0,0,0,0,0,0,0,0,0,0,0,0,0,0,0,0,0,0,0,0,0,0,0,0,0,0,0,0,0,0,0,0,0,0,0,0,0,0,0,0,0,0,0,0,0,0,0,0,0,0,0,0,0,0,0,0,0,0,0,0],"sum_hessian":[9.501784E4,7.7577805E4,1.7440037E4,7.168793E4,5.8898745E3,1.6036798E3,1.5836358E4,1.6364886E4,5.5323047E4,1.9592677E3,3.9306067E3,3.3933354E3,1.297155E4,5.4658008E4,6.650389E2,1.8183466E2,1.7774331E3,3.700714E3,2.2989243E2,6.8883655E2,2.704499E3,5.719562E3,7.2519883E3,4.7362848E4,7.29516E3,6.2948834E2,3.5550537E1,1.4821115E2,3.362351E1,4.8813132E2,1.2893018E3,3.5844338E3,1.16280365E2,1.1183836E2,1.18054054E2,4.1026436E1,6.4781006E2,2.5267075E3,1.7779141E2,4.283844E3,1.4357178E3,5.827062E3,1.4249258E3,4.2721227E4,4.641623E3,4.746727E3,2.548433E3,4.531705E2,1.7631781E2,1.3930653E1,2.1619884E1,1.2743781E1,2.0879726E1,4.6790225E2,2.0229053E1,1.4871382E2,1.140588E3,1.0235534E2,3.4820786E3,1.1002915E2,6.251217E0,7.4139626E1,4.391443E1],"tree_param":{"num_deleted":"0","num_feature":"10","num_nodes":"63","size_leaf_vector":"0"}},{"base_weights":[2.0400617E-2,-2.0516545E-1,1.0929201E0,-1.6753276E-1,-6.8800086E-1,1.0629127E0,1.0958469E0,-9.52026E-1,-1.5568683E-1,-6.2016183E-1,-1.1123008E0,-9.891026E-1,1.0355524E0,-2.6377502E-1,-1.0495801E-1,-6.4849114E-1,1.1350358E0,-1.0356857E0,-3.7811396E-1,-9.7560704E-1,1.4270155E0,-1.8940987E-1,-1.0050954E0,-1.5807424E-2,-1.7657226E-1,-5.655691E-1,-8.6138374E-1,-1.1750088E0,-9.0817076E-1,2.645174E0,-1.2068311E0,-7.886457E-2,-3.56017E-1,-1.2737459E0,-6.974196E-1,-4.0172213E-3,-2.4725315E-1,-2.862474E-1,-9.4622895E-2,-7.2488403E-1,-3.5843682E-1,-9.845817E-1,-3.4591264E-1],"categories":[],"categories_nodes":[],"categories_segments":[],"categories_sizes":[],"default_left":[1,1,1,1,1,0,0,1,1,1,0,1,1,1,1,1,0,1,1,0,0,1,1,1,1,1,1,0,0,0,0,0,0,0,0,0,0,0,0,0,0,0,0],"id":17,"left_children":[1,3,5,7,9,-1,-1,11,13,15,-1,17,19,21,23,25,-1,27,29,-1,-1,31,33,35,37,39,41,-1,-1,-1,-1,-1,-1,-1,-1,-1,-1,-1,-1,-1,-1,-1,-1],"loss_changes":[2.2356268E4,1.3872378E3,2.4609375E-1,6.581068E2,1.5820923E2,0E0,0E0,7.865802E1,3.8259204E2,2.3750378E2,0E0,2.9057678E1,1.696524E1,1.2285344E3,3.0321484E2,8.224902E1,0E0,1.6002686E1,1.9078581E2,0E0,0E0,3.7306958E2,1.6705298E2,5.773307E1,2.3668274E2,1.1114014E2,8.296826E1,0E0,0E0,0E0,0E0,0E0,0E0,0E0,0E0,0E0,0E0,0E0,0E0,0E0,0E0,0E0,0E0],"parents":[2147483647,0,0,1,1,2,2,3,3,4,4,7,7,8,8,9,9,11,11,12,12,13,13,14,14,15,15,17,17,18,18,21,21,22,22,23,23,24,24,25,25,26,26],"right_children":[2,4,6,8,10,-1,-1,12,14,16,-1,18,20,22,24,26,-1,28,30,-1,-1,32,34,36,38,40,42,-1,-1,-1,-1,-1,-1,-1,-1,-1,-1,-1,-1,-1,-1,-1,-1],"split_conditions":[5E-1,1.0485E3,1.5E0,3.95E1,9.419E3,1.0629127E-1,1.0958469E-1,6.5E0,8.95E1,9.2825E3,-1.11230075E-1,2.15E1,1.45E1,7.85E1,9.65E1,1.65E1,1.13503575E-1,2.25E1,6.5E0,-9.7560704E-2,1.4270155E-1,5.65E1,8.25E1,2.15E1,1.995E2,9.5E0,2.25E1,-1.1750088E-1,-9.081708E-2,2.645174E-1,-1.2068311E-1,-7.886457E-3,-3.56017E-2,-1.2737459E-1,-6.974196E-2,-4.0172212E-4,-2.4725316E-2,-2.8624741E-2,-9.4622895E-3,-7.2488405E-2,-3.584368E-2,-9.845817E-2,-3.4591265E-2],"split_indices":[1,0,1,0,0,0,0,3,0,0,0,5,5,0,0,5,0,0,0,0,0,0,0,5,0,5,5,0,0,0,0,0,0,0,0,0,0,0,0,0,0,0,0],"split_type":[0,0,0,0,0,0,0,0,0,0,0,0,0,0,0,0,0,0,0,0,0,0,0,0,0,0,0,0,0,0,0,0,0,0,0,0,0,0,0,0,0,0,0],"sum_hessian":[9.2408375E4,7.63514E4,1.6056974E4,7.083202E4,5.5193735E3,1.4593185E3,1.4597655E4,1.0524797E3,6.977955E4,4.7606763E3,7.5869727E2,1.0336993E3,1.8780432E1,2.2287414E4,4.749213E4,4.6856787E3,7.499753E1,9.598252E2,7.387417E1,2.816799E0,1.5963634E1,2.0256635E4,2.0307782E3,2.1156373E4,2.6335758E4,3.3748328E3,1.3108462E3,4.5474973E2,5.0507544E2,1.5421666E1,5.8452503E1,1.2177938E4,8.078697E3,1.082469E3,9.4830927E2,2.0131842E4,1.0245297E3,1.1261577E4,1.5074182E4,1.906193E3,1.4686398E3,1.0572522E3,2.5359406E2],"tree_param":{"num_deleted":"0","num_feature":"10","num_nodes":"43","size_leaf_vector":"0"}},{"base_weights":[8.6594786E-4,-2.0652562E-1,1.0816866E0,-1.6810443E-1,-6.101433E-1,1.0442798E0,1.0852596E0,-4.6361172E-1,-1.19763255E-1,-2.1973418E-1,-8.940062E-1,7.065735E-2,-7.385367E-1,-1.0654465E-1,-6.5203136E-1,-8.0424213E-1,-2.7601885E-2,-7.532449E-1,-1.0165814E0,-1.5941323E-1,1.0561235E0,-7.886612E-1,-6.451711E-2,-1.3876277E-1,2.2830364E-1,-1.1379476E0,-3.273312E-1,-9.4983643E-1,9.5993793E-1,2.357138E-1,-3.0583668E-1,-7.8274894E-1,2.7370658E0,-1.043213E0,-4.3884975E-1,1.2369748E-1,-8.607651E-1,1.3208443E0,6.126127E-2,-9.38818E-1,-4.847599E-1,-1.296839E0,6.02253E-1,-9.956094E-2,-4.206283E-1,3.192949E0,2.1176794E-1,-5.904626E-1,-1.241899E0,5.9411988E-2,-9.980339E-1,-6.8672377E-1,-1.3024881E0,1.9296279E0,-1.243269E0,3.8902014E-1,-1.2372452E0,-1.0168773E0,-3.7742067E-2,9.3848586E-1,-8.0964583E-1,-1.0675526E0,-6.002765E-1,4.3549547E0,-1.1010357E0],"categories":[],"categories_nodes":[],"categories_segments":[],"categories_sizes":[],"default_left":[1,1,1,1,1,0,0,1,1,1,1,1,1,1,1,1,1,1,1,1,1,1,1,1,1,1,1,1,1,1,1,1,0,1,1,0,0,0,0,0,0,0,0,0,0,0,0,0,0,0,0,0,0,0,0,0,0,0,0,0,0,0,0,0,0],"id":18,"left_children":[1,3,5,7,9,-1,-1,11,13,15,17,19,21,23,25,27,29,31,33,35,37,39,41,43,45,47,49,51,53,55,57,59,-1,61,63,-1,-1,-1,-1,-1,-1,-1,-1,-1,-1,-1,-1,-1,-1,-1,-1,-1,-1,-1,-1,-1,-1,-1,-1,-1,-1,-1,-1,-1,-1],"loss_changes":[2.0124861E4,1.1680391E3,7.988281E-1,9.825023E2,7.25355E2,0E0,0E0,1.4203564E3,4.1584094E2,3.0965765E2,6.4633545E1,7.4522986E2,2.1564551E2,6.2231384E2,2.2560748E2,1.7612506E2,1.5219598E2,1.8422754E2,3.067163E1,5.2927844E2,1.6376093E2,2.7071313E2,3.6479196E2,5.813862E2,2.4753543E2,3.1894714E1,2.2312581E2,5.7621582E1,1.1456576E2,2.4150653E2,1.9249976E2,8.196936E1,0E0,2.0202148E1,2.932861E2,0E0,0E0,0E0,0E0,0E0,0E0,0E0,0E0,0E0,0E0,0E0,0E0,0E0,0E0,0E0,0E0,0E0,0E0,0E0,0E0,0E0,0E0,0E0,0E0,0E0,0E0,0E0,0E0,0E0,0E0],"parents":[2147483647,0,0,1,1,2,2,3,3,4,4,7,7,8,8,9,9,10,10,11,11,12,12,13,13,14,14,15,15,16,16,17,17,18,18,19,19,20,20,21,21,22,22,23,23,24,24,25,25,26,26,27,27,28,28,29,29,30,30,31,31,33,33,34,34],"right_children":[2,4,6,8,10,-1,-1,12,14,16,18,20,22,24,26,28,30,32,34,36,38,40,42,44,46,48,50,52,54,56,58,60,-1,62,64,-1,-1,-1,-1,-1,-1,-1,-1,-1,-1,-1,-1,-1,-1,-1,-1,-1,-1,-1,-1,-1,-1,-1,-1,-1,-1,-1,-1,-1,-1],"split_conditions":[5E-1,8.515E2,1.5E0,5.836936E0,4.9369125E0,1.04427986E-1,1.08525954E-1,4.1935654E0,3.025E2,9.775E2,2.2235E3,8.075E2,7.485E2,2.055E2,5.990885E0,2.25E1,4.611832E0,2.2225E3,6.456103E0,6.605E2,4.1460686E0,5.760887E0,1.05E1,1.125E2,5.8445015E0,3.355E2,5.996094E0,4.2476807E0,4.217345E0,2.05E1,4.7029057E0,5.016591E0,2.737066E-1,2.25E1,6.54002E0,1.2369748E-2,-8.607651E-2,1.3208443E-1,6.126127E-3,-9.38818E-2,-4.8475992E-2,-1.296839E-1,6.0225304E-2,-9.956094E-3,-4.206283E-2,3.192949E-1,2.1176795E-2,-5.9046265E-2,-1.24189906E-1,5.9411987E-3,-9.980339E-2,-6.867238E-2,-1.3024881E-1,1.929628E-1,-1.243269E-1,3.8902014E-2,-1.2372452E-1,-1.0168773E-1,-3.7742069E-3,9.3848586E-2,-8.096459E-2,-1.0675526E-1,-6.0027655E-2,4.3549547E-1,-1.1010357E-1],"split_indices":[1,0,1,2,2,0,0,2,0,0,0,0,0,0,2,5,2,0,2,0,2,2,5,0,2,0,2,2,2,5,2,2,0,5,2,0,0,0,0,0,0,0,0,0,0,0,0,0,0,0,0,0,0,0,0,0,0,0,0,0,0,0,0,0,0],"split_type":[0,0,0,0,0,0,0,0,0,0,0,0,0,0,0,0,0,0,0,0,0,0,0,0,0,0,0,0,0,0,0,0,0,0,0,0,0,0,0,0,0,0,0,0,0,0,0,0,0,0,0,0,0,0,0,0,0,0,0,0,0,0,0,0,0],"sum_hessian":[8.9779766E4,7.532664E4,1.4453125E4,6.878068E4,6.5459604E3,1.2857222E3,1.3167403E4,9.668569E3,5.911211E4,2.7565417E3,3.7894185E3,3.2851646E3,6.3834053E3,5.7680836E4,1.4312739E3,6.8115E2,2.0753916E3,1.7671859E3,2.0222325E3,2.664045E3,6.211196E2,5.9413945E3,4.4201065E2,5.2618613E4,5.062223E3,5.723072E2,8.589667E2,6.296481E2,5.1501995E1,1.0663617E3,1.00902997E3,1.7531421E3,1.4043823E1,1.9323518E3,8.9880806E1,1.8985085E3,7.655365E2,4.9032294E2,1.3079666E2,3.9751794E3,1.966215E3,1.5485791E2,2.8715274E2,4.619515E4,6.4234644E3,2.7013098E1,5.03521E3,9.2390564E1,4.7991663E2,5.45392E2,3.1357465E2,3.622909E2,2.6735718E2,3.5848354E1,1.565364E1,9.665034E2,9.98583E1,2.755153E2,7.335147E2,2.6452524E1,1.7266896E3,1.830362E3,1.0198968E2,1.0231881E1,7.9648926E1],"tree_param":{"num_deleted":"0","num_feature":"10","num_nodes":"65","size_leaf_vector":"0"}},{"base_weights":[1.5380648E-3,-1.8786857E-1,1.0725502E0,-1.5833889E-1,-7.6638293E-1,1.0329252E0,1.07657E0,-1.3027775E-1,-3.624321E-1,-6.969201E-1,-1.0911711E0,-2.544756E-1,-5.615775E-2,-1.0109613E0,-2.4035199E-1,-7.522199E-1,1.0615277E0,-1.6401064E-1,-7.261909E-1,-8.924317E-2,1.5671855E-1,-9.127554E-1,-1.1870697E0,1.7450722E-1,-3.454365E-1,-9.3147266E-1,-6.3206166E-1,1.101922E0,-7.0125955E-1,-7.613523E-1,-1.3088475E-1,-7.7236223E-1,-2.1428213E-1,-2.2662722E-2,-3.2577956E-1,5.825156E-1,7.4139446E-2,-9.6422607E-1,-3.198828E-1,-4.5448485E-1,3.9870274E-1,-3.6583897E-1,1.6204319E0,-4.265524E-1,-1.0729365E0,-4.6443278E-1,-8.8601035E-1,9.28459E-1,1.2659163E0],"categories":[],"categories_nodes":[],"categories_segments":[],"categories_sizes":[],"default_left":[1,1,1,1,1,0,0,1,1,1,0,1,1,1,1,1,1,1,1,1,1,1,0,1,1,1,1,1,0,0,0,0,0,0,0,0,0,0,0,0,0,0,0,0,0,0,0,0,0],"id":19,"left_children":[1,3,5,7,9,-1,-1,11,13,15,-1,17,19,21,23,25,27,29,31,33,35,37,-1,39,41,43,45,47,-1,-1,-1,-1,-1,-1,-1,-1,-1,-1,-1,-1,-1,-1,-1,-1,-1,-1,-1,-1,-1],"loss_changes":[1.7776787E4,1.2719636E3,9.84375E-1,4.0570752E2,8.082031E1,0E0,0E0,5.7336536E2,6.7771765E2,2.9074585E2,0E0,9.932749E2,2.7475488E2,2.237268E1,3.1428754E2,6.168799E1,7.275673E0,3.864317E2,8.836572E1,5.316991E2,1.8447168E2,2.6393738E1,0E0,2.057025E2,2.3127344E2,8.227374E1,7.3409485E1,1.3754272E0,0E0,0E0,0E0,0E0,0E0,0E0,0E0,0E0,0E0,0E0,0E0,0E0,0E0,0E0,0E0,0E0,0E0,0E0,0E0,0E0,0E0],"parents":[2147483647,0,0,1,1,2,2,3,3,4,4,7,7,8,8,9,9,11,11,12,12,13,13,14,14,15,15,16,16,17,17,18,18,19,19,20,20,21,21,23,23,24,24,25,25,26,26,27,27],"right_children":[2,4,6,8,10,-1,-1,12,14,16,-1,18,20,22,24,26,28,30,32,34,36,38,-1,40,42,44,46,48,-1,-1,-1,-1,-1,-1,-1,-1,-1,-1,-1,-1,-1,-1,-1,-1,-1,-1,-1,-1,-1],"split_conditions":[5E-1,1.4695E3,1.5E0,2.955E2,9.419E3,1.03292525E-1,1.0765701E-1,9.15E1,4.265E2,9.0625E3,-1.0911711E-1,6.55E1,2.075E2,1.45E1,5.405E2,9.5E0,6.5E0,3.95E1,8.95E1,1.125E2,2.5E0,1.35E1,-1.18706964E-1,4.665E2,1.4615E3,1.8475E3,1.75E1,1.55E1,-7.012596E-2,-7.613523E-2,-1.3088475E-2,-7.723623E-2,-2.1428213E-2,-2.2662722E-3,-3.2577958E-2,5.825156E-2,7.4139447E-3,-9.6422605E-2,-3.198828E-2,-4.5448486E-2,3.9870273E-2,-3.6583897E-2,1.620432E-1,-4.265524E-2,-1.0729366E-1,-4.644328E-2,-8.860104E-2,9.28459E-2,1.2659164E-1],"split_indices":[1,0,1,0,0,0,0,0,0,0,0,0,0,5,0,5,3,0,0,0,5,5,0,0,0,0,5,5,0,0,0,0,0,0,0,0,0,0,0,0,0,0,0,0,0,0,0,0,0],"split_type":[0,0,0,0,0,0,0,0,0,0,0,0,0,0,0,0,0,0,0,0,0,0,0,0,0,0,0,0,0,0,0,0,0,0,0,0,0,0,0,0,0,0,0,0,0,0,0,0,0],"sum_hessian":[8.76302E4,7.446247E4,1.3167732E4,7.084741E4,3.6150598E3,1.2365339E3,1.1931199E4,6.228533E4,8.56208E3,2.9807163E3,6.3434344E2,2.3277828E4,3.90075E4,1.3552533E3,7.2068267E3,2.8903914E3,9.0325E1,1.9533137E4,3.7446914E3,3.376093E4,5.246573E3,8.740349E2,4.8121832E2,1.45642E3,5.7504062E3,1.1572488E3,1.7331426E3,8.866806E1,1.6569303E0,1.0251511E3,1.8507984E4,3.4344175E3,3.102739E2,2.6346102E4,7.414826E3,8.512542E2,4.395319E3,8.0364E2,7.039492E1,3.8243942E2,1.0739806E3,5.6921455E3,5.826115E1,2.541474E2,9.031014E2,1.0457095E3,6.874331E2,4.632738E1,4.2340683E1],"tree_param":{"num_deleted":"0","num_feature":"10","num_nodes":"49","size_leaf_vector":"0"}},{"base_weights":[8.465537E-3,-1.6337283E-1,1.0639147E0,-1.302485E-1,-6.5273523E-1,1.0221639E0,1.0681301E0,-3.929176E-1,-7.983896E-2,-1.3894382E-1,-9.7430414E-1,1.0547333E0,9.9201775E-1,-2.135625E-2,-6.6642773E-1,-6.435531E-2,-7.923727E-1,-1.2048029E0,1.1255212E-2,-8.2826513E-1,-1.0836133E0,6.8019843E-1,1.0409617E0,-6.8306404E-1,7.908672E-2,-3.4730956E-1,-8.5406107E-1,6.4549303E-1,-7.170257E-2,-5.777386E-1,-1.188408E0,1.0573312E0,-1.2811835E-1,-8.6996484E-1,2.468091E0,7.220658E-1,-9.8027244E-2,-1.160433E0,-2.4059479E-1,6.1359847E-1,-1.3994229E-1,-1.0495883E0,-9.1691054E-2,-1.1022317E0,-6.6730475E-1,9.0457493E-1,-1.4322044E0,-7.262422E-2,5.049935E0,-7.461927E-1,8.5733044E-1,1.6576545E0,-1.1974516E0,-1.5813008E-1,2.5989213E0,-1.1050123E0,-6.1885035E-1,5.9620684E-1,9.868218E-1],"categories":[],"categories_nodes":[],"categories_segments":[],"categories_sizes":[],"default_left":[1,1,1,1,1,1,0,1,1,1,1,0,1,1,1,1,1,0,1,1,0,1,0,1,1,1,1,1,1,1,0,1,1,1,0,1,0,0,0,0,0,0,0,0,0,0,0,0,0,0,0,0,0,0,0,0,0,0,0],"id":20,"left_children":[1,3,5,7,9,11,-1,13,15,17,19,-1,21,23,25,27,29,-1,31,33,-1,35,-1,37,39,41,43,45,47,49,-1,51,53,55,-1,57,-1,-1,-1,-1,-1,-1,-1,-1,-1,-1,-1,-1,-1,-1,-1,-1,-1,-1,-1,-1,-1,-1,-1],"loss_changes":[1.5557487E4,1.1956937E3,1.0214844E0,9.1483606E2,7.725144E2,5.79834E-2,0E0,1.1305356E3,6.3950757E2,2.88397E2,4.5015625E1,0E0,8.462402E0,3.1362234E2,3.8338232E2,2.959597E2,1.04106995E2,0E0,2.3047313E2,1.719696E2,0E0,2.8209152E0,0E0,1.3107227E2,4.7973727E2,4.2612155E2,1.8625269E2,3.1423163E2,2.654508E2,1.9438898E2,0E0,2.5355629E2,1.1458352E2,7.13703E1,0E0,2.0846062E0,0E0,0E0,0E0,0E0,0E0,0E0,0E0,0E0,0E0,0E0,0E0,0E0,0E0,0E0,0E0,0E0,0E0,0E0,0E0,0E0,0E0,0E0,0E0],"parents":[2147483647,0,0,1,1,2,2,3,3,4,4,5,5,7,7,8,8,9,9,10,10,12,12,13,13,14,14,15,15,16,16,18,18,19,19,21,21,23,23,24,24,25,25,26,26,27,27,28,28,29,29,31,31,32,32,33,33,35,35],"right_children":[2,4,6,8,10,12,-1,14,16,18,20,-1,22,24,26,28,30,-1,32,34,-1,36,-1,38,40,42,44,46,48,50,-1,52,54,56,-1,58,-1,-1,-1,-1,-1,-1,-1,-1,-1,-1,-1,-1,-1,-1,-1,-1,-1,-1,-1,-1,-1,-1,-1],"split_conditions":[5E-1,1.0495E3,1.5E0,5.879835E0,5.0164847E0,8.9E1,1.0681301E-1,4.4300175E0,5.99716E0,1.2345E3,2.2235E3,1.0547333E-1,1.09E2,4.395E2,3.5E0,5.899025E0,1.065E2,-1.2048029E-1,1.3405E3,2.2225E3,-1.08361326E-1,6.0285773E0,1.04096174E-1,1.25E1,5.965E2,5.7482634E0,9.35E1,2.395E2,5.997155E0,9.45E1,-1.18840806E-1,1.45E1,5.016348E0,1.4615E3,2.4680911E-1,6.0145993E0,-9.802724E-3,-1.1604331E-1,-2.405948E-2,6.135985E-2,-1.3994229E-2,-1.0495883E-1,-9.169105E-3,-1.10223174E-1,-6.673048E-2,9.045749E-2,-1.4322044E-1,-7.2624222E-3,5.049935E-1,-7.461927E-2,8.573305E-2,1.6576545E-1,-1.1974516E-1,-1.5813008E-2,2.5989214E-1,-1.1050123E-1,-6.1885037E-2,5.9620686E-2,9.868218E-2],"split_indices":[1,0,1,2,2,0,0,2,2,0,0,0,0,0,5,2,0,0,0,0,0,2,0,5,0,2,0,0,2,0,0,5,2,0,0,2,0,0,0,0,0,0,0,0,0,0,0,0,0,0,0,0,0,0,0,0,0,0,0],"split_type":[0,0,0,0,0,0,0,0,0,0,0,0,0,0,0,0,0,0,0,0,0,0,0,0,0,0,0,0,0,0,0,0,0,0,0,0,0,0,0,0,0,0,0,0,0,0,0,0,0,0,0,0,0,0,0,0,0,0,0],"sum_hessian":[8.577724E4,7.376789E4,1.2009354E4,6.9092375E4,4.6755103E3,1.1236709E3,1.0885683E4,1.1123636E4,5.7968742E4,1.800372E3,2.8751382E3,5.237894E2,5.998815E2,4.716875E3,6.4067603E3,5.6736914E4,1.2318265E3,2.2150217E2,1.5788698E3,1.2344576E3,1.6406805E3,8.340576E1,5.164757E2,6.2086707E2,4.096008E3,2.3732678E3,4.0334927E3,5.80348E2,5.6156566E4,8.0046674E2,4.3135977E2,1.8485371E2,1.3940161E3,1.2197634E3,1.4694227E1,7.921621E1,4.1895504E0,2.978748E2,3.2299228E2,1.1900483E3,2.9059595E3,6.3248663E2,1.7407812E3,1.7298647E3,2.303628E3,5.1650604E2,6.384196E1,5.614745E4,9.11805E0,7.168053E2,8.3661446E1,1.4619495E2,3.8658764E1,1.3797733E3,1.4242727E1,6.2828125E2,5.9148224E2,5.5896294E1,2.3319918E1],"tree_param":{"num_deleted":"0","num_feature":"10","num_nodes":"59","size_leaf_vector":"0"}},{"base_weights":[6.809557E-3,-1.1827195E-1,1.0057628E0,-1.6920276E-1,2.375256E-1,1.0431579E0,-1.1063467E0,-1.4884582E-1,-7.7382463E-1,1.0398546E0,7.1449794E-2,1.0486356E0,6.27963E-2,-3.3732238E-1,-8.860253E-2,-5.6792444E-1,-9.6634126E-1,1.0156821E0,4.387165E0,-7.4427703E-4,4.6864572E-1,2.3257918E0,1.0451298E0,-1.074556E0,1.026132E0,-3.806703E-2,-4.6131366E-1,-6.746927E-2,-1.0082682E0,-6.2413394E-1,6.2061343E0,-7.601026E-1,-1.105527E0,1.0396581E0,-4.7725764E-1,3.1331517E-2,-9.3617165E-1,7.5020194E-1,-7.948802E-2,3.5738869E0,8.244511E-1,-1.0120376E0,1.0460488E0,-9.359195E-1,8.273137E-2,-1.8544644E-1,-6.506254E-1,-1.0444276E-1,1.6670291E-1,3.8737854E-1,-1.0553937E0,-7.797517E-1,2.6513454E-1,-8.88725E-1,2.8684514E0,-1.1892544E0,-1.0735807E0,1.9929873E0,1.0203552E0,1.4689112E-1,-9.982473E-1,9.833571E-3,3.7335548E0,-1.484441E0,-3.8987577E-2,6.38594E-1,2.3121133E0,2.9918628E0,-2.0981865E-1,-7.7484953E-1,1.0464203E0],"categories":[],"categories_nodes":[],"categories_segments":[],"categories_sizes":[],"default_left":[1,1,1,1,1,1,0,1,1,1,1,1,1,1,1,1,1,1,0,1,1,1,1,0,0,1,1,1,1,1,0,1,1,1,1,1,1,1,1,0,0,0,1,0,0,0,0,0,0,0,0,0,0,0,0,0,0,0,0,0,0,0,0,0,0,0,0,0,0,0,0],"id":21,"left_children":[1,3,5,7,9,11,-1,13,15,17,19,21,23,25,27,29,31,33,-1,35,37,39,41,-1,-1,43,45,47,49,51,-1,53,55,57,59,61,63,65,67,-1,-1,-1,69,-1,-1,-1,-1,-1,-1,-1,-1,-1,-1,-1,-1,-1,-1,-1,-1,-1,-1,-1,-1,-1,-1,-1,-1,-1,-1,-1,-1],"loss_changes":[1.0477452E4,1.350453E3,7.3814355E2,8.022678E2,1.2434017E3,4.917383E1,0E0,7.160781E2,8.361182E1,1.25031006E2,2.2173868E2,3.839453E1,5.8088345E1,5.667876E2,9.2883044E2,3.9543362E2,3.0615723E1,5.741516E1,0E0,1.9639209E2,1.8360962E2,4.2296463E1,1.8251953E1,0E0,0E0,4.8555634E2,5.639365E2,4.0453802E2,7.101538E1,1.414703E2,0E0,2.101203E2,4.6740723E-1,2.677185E1,8.5423155E0,5.0364398E2,1.06684555E2,1.3551013E2,1.6254745E2,0E0,0E0,0E0,6.963867E0,0E0,0E0,0E0,0E0,0E0,0E0,0E0,0E0,0E0,0E0,0E0,0E0,0E0,0E0,0E0,0E0,0E0,0E0,0E0,0E0,0E0,0E0,0E0,0E0,0E0,0E0,0E0,0E0],"parents":[2147483647,0,0,1,1,2,2,3,3,4,4,5,5,7,7,8,8,9,9,10,10,11,11,12,12,13,13,14,14,15,15,16,16,17,17,19,19,20,20,21,21,22,22,25,25,26,26,27,27,28,28,29,29,31,31,32,32,33,33,34,34,35,35,36,36,37,37,38,38,42,42],"right_children":[2,4,6,8,10,12,-1,14,16,18,20,22,24,26,28,30,32,34,-1,36,38,40,42,-1,-1,44,46,48,50,52,-1,54,56,58,60,62,64,66,68,-1,-1,-1,70,-1,-1,-1,-1,-1,-1,-1,-1,-1,-1,-1,-1,-1,-1,-1,-1,-1,-1,-1,-1,-1,-1,-1,-1,-1,-1,-1,-1],"split_conditions":[6.00587E0,6.5E0,6.72163E0,5.9956145E0,5.754471E0,6.5965996E0,-1.1063468E-1,5.9268255E0,5.999524E0,5.754425E0,5.99253E0,6.006221E0,3.773E3,4.326669E0,5.225E2,5.9995236E0,6.65E1,5.727084E0,4.387165E-1,5.9915705E0,5.9962473E0,1.5E0,6.0067387E0,-1.07455604E-1,1.026132E-1,4.395E2,3.5E0,1.995E2,5.9323645E0,2.15E1,6.2061346E-1,6.55E1,5.615E2,1.395E2,1.722E3,5.9914427E0,4.5E0,5.996139E0,4.1E1,3.573887E-1,8.244511E-2,-1.0120376E-1,2.7E1,-9.359195E-2,8.273138E-3,-1.8544644E-2,-6.5062545E-2,-1.0444276E-2,1.6670292E-2,3.8737856E-2,-1.05539374E-1,-7.797518E-2,2.6513455E-2,-8.88725E-2,2.8684515E-1,-1.18925445E-1,-1.07358076E-1,1.9929872E-1,1.0203552E-1,1.4689112E-2,-9.9824734E-2,9.833571E-4,3.7335548E-1,-1.484441E-1,-3.8987577E-3,6.3859396E-2,2.3121133E-1,2.991863E-1,-2.0981865E-2,-7.748496E-2,1.0464203E-1],"split_indices":[2,3,2,2,2,2,0,2,2,2,2,2,0,2,0,2,0,2,0,2,2,6,2,0,0,0,5,0,2,5,0,0,0,0,0,2,6,2,0,0,0,0,0,0,0,0,0,0,0,0,0,0,0,0,0,0,0,0,0,0,0,0,0,0,0,0,0,0,0,0,0],"split_type":[0,0,0,0,0,0,0,0,0,0,0,0,0,0,0,0,0,0,0,0,0,0,0,0,0,0,0,0,0,0,0,0,0,0,0,0,0,0,0,0,0,0,0,0,0,0,0,0,0,0,0,0,0,0,0,0,0,0,0,0,0,0,0,0,0,0,0,0,0,0,0],"sum_hessian":[8.385081E4,7.452076E4,9.330054E3,6.5189676E4,9.331082E3,9.168235E3,1.6181833E2,6.306751E4,2.1221655E3,1.5993241E3,7.731758E3,9.117225E3,5.1010773E1,1.5274686E4,4.7792824E4,1.0273477E3,1.0948179E3,1.5891515E3,1.0172587E1,6.5434272E3,1.1883308E3,2.3144823E1,9.09408E3,2.333963E1,2.7671143E1,4.4751455E3,1.079954E4,4.6720297E4,1.0725259E3,1.01979346E3,7.554132E0,4.4375085E2,6.5106696E2,1.5643325E3,2.4818956E1,6.3274263E3,2.1600087E2,7.8482587E2,4.035049E2,1.1884518E1,1.1260305E1,3.5690596E0,9.090511E3,5.2989233E2,3.945253E3,4.395844E3,6.403696E3,4.0349984E4,6.370314E3,3.4796265E1,1.0377296E3,8.680176E2,1.5177588E2,4.2928882E2,1.4462042E1,1.6980432E2,4.8126266E2,2.9016647E1,1.5353159E3,1.1618263E1,1.3200694E1,6.2918936E3,3.55329E1,1.3366414E2,8.233674E1,7.338003E2,5.1025604E1,1.553169E1,3.8797324E2,1.4299942E0,9.089081E3],"tree_param":{"num_deleted":"0","num_feature":"10","num_nodes":"71","size_leaf_vector":"0"}},{"base_weights":[1.8949067E-2,-1.2410461E-1,1.0502107E0,-9.7885974E-2,-5.542347E-1,1.005793E0,1.054956E0,-8.913652E-1,-9.2215866E-2,-4.0635088E-1,-7.915013E-1,-3.7215456E-1,-1.1564949E0,-4.2218197E-2,-1.6430224E-1,-5.3046316E-1,2.1884309E-1,-6.694299E-1,-1.0682371E0,-1.1061684E0,7.950206E-1,-1.7298539E-1,1.889532E-2,-1.341711E-1,-4.456229E-1,-1.0037047E0,-3.9616755E-1,-1.5077149E-2,1.7009379E0,-7.652216E-1,9.868197E-1,-1.0911515E0,1.8940829E0,-6.695875E-2,-4.4241476E-1,7.8651175E-2,-9.029565E-2,-1.4349501E-1,1.7953613E0,-4.6382466E-1,2.8809E0,-1.1260507E0,-4.71407E-1,6.399692E-1,-5.3805363E-1,-1.0983441E0,2.13798E-1,1.8945546E0,-8.979283E-1,-6.128657E-1,-9.7845095E-1,1.0413479E0,-6.7324466E-1],"categories":[],"categories_nodes":[],"categories_segments":[],"categories_sizes":[],"default_left":[1,1,1,1,1,0,0,1,1,1,1,1,0,1,1,1,1,1,0,0,1,1,1,1,1,1,1,1,1,1,1,0,0,0,0,0,0,0,0,0,0,0,0,0,0,0,0,0,0,0,0,0,0],"id":22,"left_children":[1,3,5,7,9,-1,-1,11,13,15,17,19,-1,21,23,25,27,29,-1,-1,31,33,35,37,39,41,43,45,47,49,51,-1,-1,-1,-1,-1,-1,-1,-1,-1,-1,-1,-1,-1,-1,-1,-1,-1,-1,-1,-1,-1,-1],"loss_changes":[1.2162033E4,8.1640234E2,1.0556641E0,3.0693372E2,1.4561743E2,0E0,0E0,6.620364E1,2.4419641E2,1.9909091E2,5.3198303E1,1.423233E2,0E0,3.197408E2,2.351477E2,1.3559888E2,1.475253E2,1.7688068E2,0E0,0E0,1.3541048E2,3.6399167E2,1.7791963E2,4.5119843E2,1.6385107E2,3.0231384E1,2.4563464E2,9.158433E1,3.088797E1,3.3510986E1,6.23473E0,0E0,0E0,0E0,0E0,0E0,0E0,0E0,0E0,0E0,0E0,0E0,0E0,0E0,0E0,0E0,0E0,0E0,0E0,0E0,0E0,0E0,0E0],"parents":[2147483647,0,0,1,1,2,2,3,3,4,4,7,7,8,8,9,9,10,10,11,11,13,13,14,14,15,15,16,16,17,17,20,20,21,21,22,22,23,23,24,24,25,25,26,26,27,27,28,28,29,29,30,30],"right_children":[2,4,6,8,10,-1,-1,12,14,16,18,20,-1,22,24,26,28,30,-1,-1,32,34,36,38,40,42,44,46,48,50,52,-1,-1,-1,-1,-1,-1,-1,-1,-1,-1,-1,-1,-1,-1,-1,-1,-1,-1,-1,-1,-1,-1],"split_conditions":[5E-1,1.0755E3,1.5E0,2.55E1,2.4905E3,1.005793E-1,1.05495594E-1,9.5E0,3.5E0,5.5E0,9.419E3,5E-1,-1.15649484E-1,9.15E1,3.025E2,1.2685E3,2.3875E3,9.0625E3,-1.06823705E-1,-1.1061684E-1,5.5E0,6.05E1,5E-1,2.885E2,1.0745E3,4.5E0,1.3405E3,1.2325E3,2.451E3,3.5E0,6.5E0,-1.09115146E-1,1.8940829E-1,-6.695875E-3,-4.4241477E-2,7.865118E-3,-9.029565E-3,-1.4349501E-2,1.7953613E-1,-4.638247E-2,2.8809E-1,-1.1260507E-1,-4.71407E-2,6.3996926E-2,-5.3805362E-2,-1.0983441E-1,2.13798E-2,1.8945546E-1,-8.979283E-2,-6.128657E-2,-9.78451E-2,1.0413479E-1,-6.732447E-2],"split_indices":[1,0,1,0,0,0,0,0,6,6,0,7,0,0,0,0,0,0,0,0,0,0,7,0,0,6,0,0,0,6,3,0,0,0,0,0,0,0,0,0,0,0,0,0,0,0,0,0,0,0,0,0,0],"split_type":[0,0,0,0,0,0,0,0,0,0,0,0,0,0,0,0,0,0,0,0,0,0,0,0,0,0,0,0,0,0,0,0,0,0,0,0,0,0,0,0,0,0,0,0,0,0,0,0,0,0,0,0,0],"sum_hessian":[8.243817E4,7.239643E4,1.0041746E4,6.823819E4,4.158241E3,9.897766E2,9.05197E3,4.8305414E2,6.775513E4,2.5632983E3,1.5949426E3,1.640988E2,3.1895532E2,4.0007984E4,2.7747148E4,2.1388496E3,4.2444873E2,1.1091171E3,4.858256E2,1.0077538E2,6.332341E1,1.2741857E4,2.7266127E4,2.506411E4,2.6830403E3,4.7136E2,1.6674896E3,3.674445E2,5.7004234E1,1.0489854E3,6.0131676E1,2.3316189E1,4.0007225E1,9.144525E3,3.5973325E3,1.762238E4,9.643745E3,2.4944498E4,1.1961142E2,2.6692954E3,1.3745037E1,3.823608E2,8.8999176E1,2.0041672E2,1.4670729E3,6.343021E1,3.0401428E2,5.3304066E1,3.7001698E0,6.1408545E2,4.3489993E2,5.85802E1,1.5514774E0],"tree_param":{"num_deleted":"0","num_feature":"10","num_nodes":"53","size_leaf_vector":"0"}},{"base_weights":[5.9326678E-3,-1.2631688E-1,1.0429357E0,-8.53574E-2,-3.4612978E-1,1.0124375E0,1.0491956E0,-6.697269E-1,-5.7363067E-2,-2.9757787E-2,-7.7101666E-1,9.481308E-1,1.032786E0,-8.168019E-1,8.320686E-1,-8.330894E-2,2.2744754E-1,-1.0088153E0,6.695323E-2,-9.785904E-1,-5.253074E-1,7.3195606E-1,1.0197554E0,-1.0280696E0,-5.6149E-1,-1.8640417E-1,4.001681E0,-5.8254167E-2,-2.681453E-1,1.1139776E0,1.7810959E-1,-1.1152614E0,1.5112382E0,4.403737E0,5.0545268E-2,-1.1346803E0,-9.1763663E-1,1.7023076E0,-6.116535E-1,4.7720107E-1,8.2492465E-1,-6.994766E-1,-1.071263E0,-1.7768578E-1,-1.0515873E0,2.1426423E0,-1.1621002E0,1.5550877E0,5.3901253E0,-4.9915403E-2,-5.772298E-1,-3.3020484E-1,4.5626852E-1,1.9782805E0,-1.382468E0,3.912124E-1,-2.2327946E-1,8.119146E0,-1.057665E0,4.698437E0,-6.369469E-1,4.3443936E-1,-5.2283145E-2,-1.1865505E0,-1.0714207E0,-6.3663375E-1,-1.0029906E0,5.6919508E-2,3.7957313E0,-4.5423838E-1,-9.849835E-1,-3.133133E-1,8.9858395E-1,8.565647E-1,1.4059818E-1],"categories":[],"categories_nodes":[],"categories_segments":[],"categories_sizes":[],"default_left":[1,1,1,1,1,1,0,1,1,1,1,1,0,1,1,1,1,1,1,1,1,1,0,1,1,1,1,1,1,1,1,0,1,1,1,1,1,1,1,1,1,0,0,0,0,0,0,0,0,0,0,0,0,0,0,0,0,0,0,0,0,0,0,0,0,0,0,0,0,0,0,0,0,0,0],"id":23,"left_children":[1,3,5,7,9,11,-1,13,15,17,19,21,-1,23,25,27,29,31,33,35,37,39,-1,41,43,45,47,49,51,53,55,-1,57,59,61,63,65,67,69,71,73,-1,-1,-1,-1,-1,-1,-1,-1,-1,-1,-1,-1,-1,-1,-1,-1,-1,-1,-1,-1,-1,-1,-1,-1,-1,-1,-1,-1,-1,-1,-1,-1,-1,-1],"loss_changes":[1.1083655E4,6.4531006E2,6.826172E-1,9.8837726E2,1.5133021E3,1.0950928E0,0E0,6.1074646E2,4.261004E2,6.111761E2,2.445498E2,5.342407E0,0E0,1.3514258E2,7.9765344E2,2.4471475E2,2.103806E2,1.5734564E2,4.1781494E2,2.3728271E1,4.2468158E2,2.0081787E0,0E0,1.8775146E1,2.145357E2,4.2921796E2,1.9569696E2,2.0137332E2,2.837354E2,5.4996423E2,3.902874E2,0E0,4.1500604E2,3.5868805E1,2.3109749E2,1.1139526E0,4.439319E1,2.8378577E2,1.2420148E2,1.01035595E1,1.4585457E0,0E0,0E0,0E0,0E0,0E0,0E0,0E0,0E0,0E0,0E0,0E0,0E0,0E0,0E0,0E0,0E0,0E0,0E0,0E0,0E0,0E0,0E0,0E0,0E0,0E0,0E0,0E0,0E0,0E0,0E0,0E0,0E0,0E0,0E0],"parents":[2147483647,0,0,1,1,2,2,3,3,4,4,5,5,7,7,8,8,9,9,10,10,11,11,13,13,14,14,15,15,16,16,17,17,18,18,19,19,20,20,21,21,23,23,24,24,25,25,26,26,27,27,28,28,29,29,30,30,32,32,33,33,34,34,35,35,36,36,37,37,38,38,39,39,40,40],"right_children":[2,4,6,8,10,12,-1,14,16,18,20,22,-1,24,26,28,30,32,34,36,38,40,-1,42,44,46,48,50,52,54,56,-1,58,60,62,64,66,68,70,72,74,-1,-1,-1,-1,-1,-1,-1,-1,-1,-1,-1,-1,-1,-1,-1,-1,-1,-1,-1,-1,-1,-1,-1,-1,-1,-1,-1,-1,-1,-1,-1,-1,-1,-1],"split_conditions":[4.1666667E-6,2.785E2,1.8045153E-2,5.7809086E0,4.9369125E0,1.365E2,1.0491957E-1,2.435E2,2.055E2,4.395E2,5.9908895E0,1.1160715E-2,1.032786E-1,6.75E1,5.628135E0,1.125E2,5.8983407E0,4.600168E0,4.405E2,1.5E0,5.9915714E0,9.95E1,1.0197554E-1,5.2300797E0,1.895E2,2.485E2,2.655E2,5.996219E0,6.5E0,2.405E2,2.225E2,-1.1152615E-1,4.600216E0,2.5E0,5.965E2,1.0485E3,2.5E0,6.5E0,5.999524E0,6.0145993E0,6.0263224E0,-6.994766E-2,-1.07126296E-1,-1.7768579E-2,-1.0515874E-1,2.1426423E-1,-1.1621002E-1,1.5550877E-1,5.3901255E-1,-4.99154E-3,-5.7722982E-2,-3.3020485E-2,4.5626853E-2,1.9782805E-1,-1.382468E-1,3.912124E-2,-2.2327946E-2,8.119146E-1,-1.057665E-1,4.6984372E-1,-6.369469E-2,4.3443937E-2,-5.2283145E-3,-1.1865505E-1,-1.0714207E-1,-6.366338E-2,-1.0029906E-1,5.6919507E-3,3.7957314E-1,-4.542384E-2,-9.849835E-2,-3.133133E-2,8.98584E-2,8.565647E-2,1.4059818E-2],"split_indices":[4,0,4,2,2,0,0,0,0,0,2,4,0,0,2,0,2,2,0,6,2,0,0,2,0,0,0,2,3,0,0,0,2,6,0,0,6,3,2,2,2,0,0,0,0,0,0,0,0,0,0,0,0,0,0,0,0,0,0,0,0,0,0,0,0,0,0,0,0,0,0,0,0,0,0],"split_type":[0,0,0,0,0,0,0,0,0,0,0,0,0,0,0,0,0,0,0,0,0,0,0,0,0,0,0,0,0,0,0,0,0,0,0,0,0,0,0,0,0,0,0,0,0,0,0,0,0,0,0,0,0,0,0,0,0,0,0,0,0,0,0,0,0,0,0,0,0,0,0,0,0,0,0],"sum_hessian":[8.081617E4,7.167616E4,9.14002E3,6.0419164E4,1.125699E4,1.5842574E3,7.5557617E3,2.7610261E3,5.7658137E4,6.4530786E3,4.8039116E3,3.9224725E2,1.1920103E3,2.515165E3,2.4586095E2,5.2844758E4,4.813381E3,5.7928046E2,5.8737983E3,2.6024192E3,2.2014922E3,1.00410736E2,2.9183652E2,1.3746398E3,1.1405253E3,1.8678395E2,5.9076996E1,4.653782E4,6.306938E3,2.5261873E2,4.560762E3,5.563384E2,2.2942081E1,2.1131552E1,5.852667E3,7.259081E2,1.8765112E3,8.145094E1,2.1200413E3,2.8485884E1,7.192485E1,1.6170021E2,1.2129396E3,6.403882E2,5.0013712E2,5.47932E1,1.3199074E2,2.215589E1,3.692111E1,4.5802965E4,7.3485394E2,5.809767E3,4.9717084E2,1.878055E2,6.4813225E1,2.9791282E3,1.5816338E3,5.817461E0,1.712462E1,2.0028498E1,1.103054E0,1.2357942E3,4.6168726E3,3.8910272E2,3.3680533E2,4.3916135E2,1.4373499E3,4.6180897E1,3.5270046E1,1.4928118E3,6.272295E2,9.993862E0,1.8492022E1,6.8505775E1,3.4190736E0],"tree_param":{"num_deleted":"0","num_feature":"10","num_nodes":"75","size_leaf_vector":"0"}},{"base_weights":[-6.499823E-4,-1.241181E-1,1.0368432E0,-1.0580088E-1,-5.694155E-1,9.8064446E-1,1.0429417E0,-2.900834E-1,-7.386855E-2,1.5638547E-1,-7.926316E-1,1.0196475E0,9.460499E-1,6.0434684E-2,-6.2680894E-1,-6.0315132E-2,-6.266503E-1,-3.537443E-1,1.2159723E0,-4.375001E-1,-8.891658E-1,6.6162616E-1,1.0094318E0,-1.5010294E-1,3.5229018E-1,-6.4719355E-1,3.2239764E0,-5.045047E-2,-4.205546E-1,-6.9254434E-1,2.1790082E0,1.2058588E-1,-8.8416225E-1,2.3458166E0,6.794904E-1,-9.112891E-1,3.1817824E-1,-1.0159594E0,-5.5491143E-1,9.169133E-1,5.237865E-1,1.2990892E-1,-5.732213E-1,8.670827E-1,6.316213E-2,-7.831662E-1,-3.897997E-1,-8.214925E-2,2.0412135E-1,-8.2105327E-1,1.986529E-1,-4.407751E-1,-9.584507E-1,-5.0813794E-1,2.260675E0,5.6751597E-1,-1.1733078E0,3.3205724E0,-1.1346525E0,-1.1815917E0,1.4384081E0,-3.846599E-1,-1.1253941E0,1.2710211E0,-5.161145E-1,-7.7036494E-1,-1.0643662E0,3.1430047E0,-7.8453535E-1,9.7992307E-1,1.9954932E-1,-9.3602103E-1,6.3469833E-1],"categories":[],"categories_nodes":[],"categories_segments":[],"categories_sizes":[],"default_left":[1,1,1,1,1,1,0,1,1,1,1,0,1,1,1,1,1,1,1,1,1,1,0,1,1,1,0,1,1,1,0,1,1,1,1,1,1,1,1,1,1,0,0,0,0,0,0,0,0,0,0,0,0,0,0,0,0,0,0,0,0,0,0,0,0,0,0,0,0,0,0,0,0],"id":24,"left_children":[1,3,5,7,9,11,-1,13,15,17,19,-1,21,23,25,27,29,31,33,35,37,39,-1,41,43,45,-1,47,49,51,-1,53,55,57,59,61,63,65,67,69,71,-1,-1,-1,-1,-1,-1,-1,-1,-1,-1,-1,-1,-1,-1,-1,-1,-1,-1,-1,-1,-1,-1,-1,-1,-1,-1,-1,-1,-1,-1,-1,-1],"loss_changes":[1.01501E4,5.775132E2,1.8652344E0,4.002119E2,4.533426E2,1.7102051E-1,0E0,1.1855757E3,4.342821E2,3.565402E2,7.296289E1,0E0,7.622986E0,3.0251596E2,4.0423718E2,2.0105899E2,2.5797552E2,1.12188934E2,1.2832034E2,1.6472446E2,7.069495E1,2.5710335E0,0E0,3.3895276E2,3.0702142E2,1.7808203E2,0E0,4.44469E2,3.7414624E2,9.036835E1,0E0,3.1877246E2,8.899347E1,2.3648993E2,2.0894695E2,3.1425262E1,1.4194025E2,1.3657471E1,3.9697168E2,1.1185017E0,1.008872E1,0E0,0E0,0E0,0E0,0E0,0E0,0E0,0E0,0E0,0E0,0E0,0E0,0E0,0E0,0E0,0E0,0E0,0E0,0E0,0E0,0E0,0E0,0E0,0E0,0E0,0E0,0E0,0E0,0E0,0E0,0E0,0E0],"parents":[2147483647,0,0,1,1,2,2,3,3,4,4,5,5,7,7,8,8,9,9,10,10,12,12,13,13,14,14,15,15,16,16,17,17,18,18,19,19,20,20,21,21,23,23,24,24,25,25,27,27,28,28,29,29,31,31,32,32,33,33,34,34,35,35,36,36,37,37,38,38,39,39,40,40],"right_children":[2,4,6,8,10,12,-1,14,16,18,20,-1,22,24,26,28,30,32,34,36,38,40,-1,42,44,46,-1,48,50,52,-1,54,56,58,60,62,64,66,68,70,72,-1,-1,-1,-1,-1,-1,-1,-1,-1,-1,-1,-1,-1,-1,-1,-1,-1,-1,-1,-1,-1,-1,-1,-1,-1,-1,-1,-1,-1,-1,-1,-1],"split_conditions":[5E-1,1.4695E3,1.5E0,5.836944E0,4.742584E0,8.9E1,1.0429417E-1,4.445049E0,5.9965286E0,4.7029057E0,5.0164847E0,1.0196475E-1,1.14E2,7.895E2,1.4685E3,2.765E2,1.4615E3,4.611832E0,4.713213E0,4.9046564E0,5.9991465E0,5.977994E0,1.00943185E-1,6.005E2,4.1089287E0,5.760887E0,3.2239765E-1,1.995E2,5.9929476E0,1.065E2,2.1790083E-1,4.5956984E0,2.5E0,2.306E3,4.7294207E0,4.7750053E0,4.9088097E0,1.8055E3,5.999204E0,1.05E2,5.990223E0,1.2990892E-2,-5.7322133E-2,8.670827E-2,6.3162134E-3,-7.831662E-2,-3.8979974E-2,-8.214925E-3,2.0412136E-2,-8.210533E-2,1.986529E-2,-4.4077512E-2,-9.5845066E-2,-5.0813794E-2,2.260675E-1,5.6751598E-2,-1.1733078E-1,3.3205724E-1,-1.1346525E-1,-1.18159175E-1,1.4384082E-1,-3.8465988E-2,-1.1253941E-1,1.2710212E-1,-5.161145E-2,-7.703649E-2,-1.06436625E-1,3.1430048E-1,-7.845353E-2,9.799231E-2,1.9954933E-2,-9.3602106E-2,6.3469835E-2],"split_indices":[1,0,1,2,2,0,0,2,2,2,2,0,0,0,0,0,0,2,2,2,2,2,0,0,2,2,0,0,2,0,0,2,5,0,2,2,2,0,2,0,2,0,0,0,0,0,0,0,0,0,0,0,0,0,0,0,0,0,0,0,0,0,0,0,0,0,0,0,0,0,0,0,0],"split_type":[0,0,0,0,0,0,0,0,0,0,0,0,0,0,0,0,0,0,0,0,0,0,0,0,0,0,0,0,0,0,0,0,0,0,0,0,0,0,0,0,0,0,0,0,0,0,0,0,0,0,0,0,0,0,0,0,0,0,0,0,0,0,0,0,0,0,0,0,0,0,0,0,0],"sum_hessian":[7.923539E4,7.08095E4,8.425889E3,6.801304E4,2.796464E3,8.4068494E2,7.585204E3,1.0043514E4,5.7969523E4,6.578204E2,2.1386438E3,3.817798E2,4.5890512E2,4.9213755E3,5.1221387E3,5.6583293E4,1.3862325E3,4.444902E2,2.1333018E2,4.582731E2,1.6803707E3,8.5712555E1,3.7319257E2,2.8592595E3,2.062116E3,5.095994E3,2.6144403E1,5.5076246E4,1.5070468E3,1.3551583E3,3.1074284E1,2.3505933E2,2.094309E2,6.759688E1,1.457333E2,2.8154587E2,1.7672723E2,1.2167706E3,4.6360004E2,2.8071144E1,5.7641415E1,1.7210161E3,1.1382434E3,7.409161E2,1.3212001E3,3.3331555E3,1.7628385E3,4.8978246E4,6.0979976E3,9.149428E2,5.9210394E2,6.9744806E2,6.577102E2,1.8227301E2,5.278632E1,3.4625935E1,1.7480496E2,5.284329E1,1.4753586E1,4.205226E1,1.03681046E2,8.218758E1,1.9935828E2,8.225762E1,9.446962E1,2.0312439E2,1.0136463E3,2.6362629E1,4.372374E2,2.546814E1,2.6030056E0,3.544877E0,5.4096535E1],"tree_param":{"num_deleted":"0","num_feature":"10","num_nodes":"73","size_leaf_vector":"0"}},{"base_weights":[5.031144E-4,-1.1099696E-1,1.0311676E0,-2.6627845E-1,-6.699286E-2,9.6784717E-1,1.0380023E0,5.6937598E-2,-3.5472172E-1,-4.8323665E-2,-5.4094595E-1,9.2336947E-1,1.0198742E0,-3.790643E-1,3.2600838E-1,-1.5258095E-1,-5.0882834E-1,1.9684111E0,-5.0386086E-2,-6.741663E-1,-1.9486226E-1,9.854065E-1,5.586112E-1,-5.3263146E-2,-1.0598793E0,3.060911E-1,3.35389E0,-4.7149122E-1,4.5676947E-2,-2.827732E-1,-6.6066325E-1,-1.2512134E0,2.2891748E0,-8.330028E-2,7.848296E-2,-7.817108E-1,5.7119265E-2,1.0805959E-1,-1.0763547E0,-6.5407676E-1,6.3311344E-1,-3.0414283E-1,5.725633E-1,5.7256925E-1,-1.1898082E0,-3.8325246E-2,4.11762E-1,-9.8752517E-1,-1.5689254E-1,9.7393E-2,-8.152227E-1,-3.037919E-1,1.0310067E1,-7.611538E-1,-4.100768E-1,2.6222882E0,-1.1958395E0,-1.4646975E-2,-1.4216383E-1,3.3319283E-2,2.8822896E-1,-1.6733664E-1,-8.4383625E-1,1.4294277E0,-3.750274E-1,-1.2156116E0,4.6967253E-1,6.802479E-1,-1.6007568E-1],"categories":[],"categories_nodes":[],"categories_segments":[],"categories_sizes":[],"default_left":[1,1,1,1,1,1,0,1,1,1,1,1,0,1,1,1,1,1,1,1,1,0,1,1,1,1,0,1,1,1,1,0,1,1,1,1,1,1,0,0,1,0,0,0,0,0,0,0,0,0,0,0,0,0,0,0,0,0,0,0,0,0,0,0,0,0,0,0,0],"id":25,"left_children":[1,3,5,7,9,11,-1,13,15,17,19,21,-1,23,25,27,29,31,33,35,37,-1,39,41,43,45,-1,47,49,51,53,-1,55,57,59,61,63,65,-1,-1,67,-1,-1,-1,-1,-1,-1,-1,-1,-1,-1,-1,-1,-1,-1,-1,-1,-1,-1,-1,-1,-1,-1,-1,-1,-1,-1,-1,-1],"loss_changes":[8.933982E3,4.7933368E2,2.2792969E0,4.4281934E2,4.8365213E2,8.034668E-1,0E0,3.9064355E2,3.7878723E2,2.1885114E2,9.53764E1,8.888977E0,0E0,2.8182132E2,1.23145935E2,3.327542E2,2.366615E2,5.837822E1,2.2286134E2,1.176463E2,1.5423492E2,0E0,6.100937E0,1.3528659E2,8.7909515E1,7.4502945E1,0E0,3.2737375E2,1.4460112E2,6.2083936E2,1.0361694E2,0E0,6.0295776E1,1.6912695E2,1.0125176E2,4.961841E1,1.1478218E2,2.0661624E2,0E0,0E0,2.3449287E0,0E0,0E0,0E0,0E0,0E0,0E0,0E0,0E0,0E0,0E0,0E0,0E0,0E0,0E0,0E0,0E0,0E0,0E0,0E0,0E0,0E0,0E0,0E0,0E0,0E0,0E0,0E0,0E0],"parents":[2147483647,0,0,1,1,2,2,3,3,4,4,5,5,7,7,8,8,9,9,10,10,11,11,13,13,14,14,15,15,16,16,17,17,18,18,19,19,20,20,22,22,23,23,24,24,25,25,27,27,28,28,29,29,30,30,32,32,33,33,34,34,35,35,36,36,37,37,40,40],"right_children":[2,4,6,8,10,12,-1,14,16,18,20,22,-1,24,26,28,30,32,34,36,38,-1,40,42,44,46,-1,48,50,52,54,-1,56,58,60,62,64,66,-1,-1,68,-1,-1,-1,-1,-1,-1,-1,-1,-1,-1,-1,-1,-1,-1,-1,-1,-1,-1,-1,-1,-1,-1,-1,-1,-1,-1,-1,-1],"split_conditions":[5E-1,5.933817E0,1.5E0,4.187435E0,5.9961543E0,1.127153E-2,1.0380023E-1,3.8977623E0,3.5E0,5.9338284E0,6.5E0,9.616274E-3,1.0198742E-1,3.5E0,4.1874228E0,1.5E0,4.9592876E0,1.5E0,5.9848175E0,2.15E1,6.497511E0,9.8540656E-2,5E-1,1.85E1,5E-1,1.5E0,3.35389E-1,5.9089375E0,5.927088E0,4.959175E0,5.862342E0,-1.2512134E-1,3.5E0,5.962268E0,6.5E0,5.996528E0,5E-1,5.999975E0,-1.07635476E-1,-6.540768E-2,2.15E1,-3.0414283E-2,5.725633E-2,5.7256926E-2,-1.18980825E-1,-3.8325246E-3,4.11762E-2,-9.875252E-2,-1.5689254E-2,9.7393E-3,-8.152227E-2,-3.0379191E-2,1.0310067E0,-7.6115385E-2,-4.100768E-2,2.6222882E-1,-1.1958396E-1,-1.4646975E-3,-1.4216383E-2,3.3319283E-3,2.8822897E-2,-1.6733665E-2,-8.438363E-2,1.4294277E-1,-3.750274E-2,-1.2156116E-1,4.6967253E-2,6.802479E-2,-1.6007569E-2],"split_indices":[1,2,1,2,2,4,0,2,5,2,3,4,0,6,2,5,2,6,2,5,2,0,6,5,5,6,0,2,2,2,2,0,6,2,3,2,6,2,0,0,5,0,0,0,0,0,0,0,0,0,0,0,0,0,0,0,0,0,0,0,0,0,0,0,0,0,0,0,0],"split_type":[0,0,0,0,0,0,0,0,0,0,0,0,0,0,0,0,0,0,0,0,0,0,0,0,0,0,0,0,0,0,0,0,0,0,0,0,0,0,0,0,0,0,0,0,0,0,0,0,0,0,0,0,0,0,0,0,0,0,0,0,0,0,0,0,0,0,0,0,0],