{"learner":{"attributes":{"best_iteration":"299","best_ntree_limit":"300","scikit_learn":"{\"use_label_encoder\": false, \"n_estimators\": 300, \"objective\": \"binary:logistic\", \"max_depth\": 6, \"max_leaves\": null, \"max_bin\": null, \"grow_policy\": null, \"learning_rate\": 0.1, \"verbosity\": null, \"booster\": null, \"tree_method\": null, \"gamma\": null, \"min_child_weight\": null, \"max_delta_step\": null, \"subsample\": 0.8, \"sampling_method\": null, \"colsample_bytree\": 0.8, \"colsample_bylevel\": null, \"colsample_bynode\": null, \"reg_alpha\": null, \"reg_lambda\": null, \"scale_pos_weight\": null, \"base_score\": null, \"missing\": NaN, \"num_parallel_tree\": null, \"random_state\": 42, \"n_jobs\": -1, \"monotone_constraints\": null, \"interaction_constraints\": null, \"importance_type\": null, \"gpu_id\": null, \"validate_parameters\": null, \"predictor\": null, \"enable_categorical\": false, \"max_cat_to_onehot\": null, \"eval_metric\": \"logloss\", \"early_stopping_rounds\": null, \"callbacks\": null, \"classes_\": [0, 1], \"n_classes_\": 2, \"_estimator_type\": \"classifier\"}"},"feature_names":["num_logs","num_errors","avg_severity","max_severity","error_ratio","hour","dayofweek","is_night","is_weekend","log_intensity"],"feature_types":["int","int","float","int","float","int","int","int","int","float"],"gradient_booster":{"model":{"gbtree_model_param":{"num_parallel_tree":"1","num_trees":"300","size_leaf_vector":"0"},"tree_info":[0,0,0,0,0,0,0,0,0,0,0,0,0,0,0,0,0,0,0,0,0,0,0,0,0,0,0,0,0,0,0,0,0,0,0,0,0,0,0,0,0,0,0,0,0,0,0,0,0,0,0,0,0,0,0,0,0,0,0,0,0,0,0,0,0,0,0,0,0,0,0,0,0,0,0,0,0,0,0,0,0,0,0,0,0,0,0,0,0,0,0,0,0,0,0,0,0,0,0,0,0,0,0,0,0,0,0,0,0,0,0,0,0,0,0,0,0,0,0,0,0,0,0,0,0,0,0,0,0,0,0,0,0,0,0,0,0,0,0,0,0,0,0,0,0,0,0,0,0,0,0,0,0,0,0,0,0,0,0,0,0,0,0,0,0,0,0,0,0,0,0,0,0,0,0,0,0,0,0,0,0,0,0,0,0,0,0,0,0,0,0,0,0,0,0,0,0,0,0,0,0,0,0,0,0,0,0,0,0,0,0,0,0,0,0,0,0,0,0,0,0,0,0,0,0,0,0,0,0,0,0,0,0,0,0,0,0,0,0,0,0,0,0,0,0,0,0,0,0,0,0,0,0,0,0,0,0,0,0,0,0,0,0,0,0,0,0,0,0,0,0,0,0,0,0,0,0,0,0,0,0,0,0,0,0,0,0,0,0,0,0,0,0,0,0,0,0,0,0,0],"trees":[{"base_weights":[-1.9365383E0,-1.9880229E0,1.795022E0,1.2610441E0,1.9072257E0,1.75E0,1.1219512E0,5E-1,1.9104745E0,1.5384616E0,9.55414E-1,-0E0,1.0204082E0,2.2222222E-1,-2.2222222E-1,1.0638298E0,-0E0],"categories":[],"categories_nodes":[],"categories_segments":[],"categories_sizes":[],"default_left":[1,0,1,1,1,0,1,0,0,0,1,1,1,0,0,0,0],"id":0,"left_children":[1,-1,3,5,7,-1,9,-1,-1,-1,11,13,15,-1,-1,-1,-1],"loss_changes":[4.816992E3,0E0,1.8055542E1,2.2702255E0,3.260498E-1,0E0,2.0850677E0,0E0,0E0,0E0,2.4372787E0,2.2222222E-1,1.6283112E0,0E0,0E0,0E0,0E0],"parents":[2147483647,0,0,2,2,3,3,4,4,6,6,10,10,11,11,12,12],"right_children":[2,-1,4,6,8,-1,10,-1,-1,-1,12,14,16,-1,-1,-1,-1],"split_conditions":[5E-1,-1.9880229E-1,2.5E0,5E-1,3.8902884E0,1.75E-1,1.895E2,5E-2,1.9104746E-1,1.5384616E-1,2.77E2,1.99E2,6.000287E0,2.2222223E-2,-2.2222223E-2,1.0638298E-1,-0E0],"split_indices":[1,0,1,6,2,0,0,0,0,0,0,0,2,0,0,0,0],"split_type":[0,0,0,0,0,0,0,0,0,0,0,0,0,0,0,0,0],"sum_hessian":[2.50535E4,2.4713E4,3.405E2,6.125E1,2.7925E2,1.1E1,5.025E1,1E0,2.7825E2,1.2E1,3.825E1,2.5E0,3.575E1,1.25E0,1.25E0,3.425E1,1.5E0],"tree_param":{"num_deleted":"0","num_feature":"10","num_nodes":"17","size_leaf_vector":"0"}},{"base_weights":[-1.760676E0,-1.8069551E0,1.6339018E0,1.2457509E0,1.7559546E0,1.4160838E0,6.598672E-1,1.5653121E0,1.184966E0,-4.8690644E-1,8.627178E-1,1.4069039E0,7.877569E-1,-1.2710395E0,6.012986E-1,1.1770058E0,8.0620825E-2,3.5921264E-1,1.4828489E0,-7.3236257E-1,1.0170181E0,1.3505389E-1,1.2782754E0,-5.432902E-1,7.25796E-1],"categories":[],"categories_nodes":[],"categories_segments":[],"categories_sizes":[],"default_left":[1,0,1,1,0,1,1,0,1,1,1,1,1,0,0,1,1,0,0,0,0,0,0,0,0],"id":1,"left_children":[1,-1,3,5,-1,7,9,-1,11,13,15,17,19,-1,-1,21,23,-1,-1,-1,-1,-1,-1,-1,-1],"loss_changes":[3.89525E3,0E0,1.3624451E1,7.3770905E0,0E0,3.4052277E-1,5.2195845E0,0E0,1.4561424E0,3.955836E0,4.302993E0,8.510132E-1,5.1707606E0,0E0,0E0,1.1663342E0,2.8909755E0,0E0,0E0,0E0,0E0,0E0,0E0,0E0,0E0],"parents":[2147483647,0,0,2,2,3,3,5,5,6,6,8,8,9,9,10,10,11,11,12,12,15,15,16,16],"right_children":[2,-1,4,6,-1,8,10,-1,12,14,16,18,20,-1,-1,22,24,-1,-1,-1,-1,-1,-1,-1,-1],"split_conditions":[5E-1,-1.8069552E-1,1.0387497E-2,5.989764E0,1.7559546E-1,1.05E1,5.9912786E0,1.5653121E-1,5.964076E0,4.13E2,7.4685975E-3,2.76E2,5.968173E0,-1.2710395E-1,6.012986E-2,1.675E2,8.632501E-3,3.5921264E-2,1.482849E-1,-7.323626E-2,1.0170181E-1,1.3505389E-2,1.2782754E-1,-5.432902E-2,7.25796E-2],"split_indices":[1,0,4,2,0,5,2,0,2,0,4,0,2,0,0,0,4,0,0,0,0,0,0,0,0],"split_type":[0,0,0,0,0,0,0,0,0,0,0,0,0,0,0,0,0,0,0,0,0,0,0,0,0],"sum_hessian":[2.477521E4,2.444245E4,3.327625E2,8.228555E1,2.5047694E2,6.2653423E1,1.9632126E1,3.456359E1,2.8089832E1,2.7402682E0,1.689186E1,1.6390032E1,1.1699799E1,1.4949965E0,1.2452717E0,1.1689473E1,5.202385E0,1.4950562E0,1.4894977E1,1.2457025E0,1.0454097E1,1.2422018E0,1.0447271E1,2.7250588E0,2.4773262E0],"tree_param":{"num_deleted":"0","num_feature":"10","num_nodes":"25","size_leaf_vector":"0"}},{"base_weights":[-1.6273274E0,-1.6707591E0,1.5022396E0,1.1249088E0,1.6378921E0,1.2737532E0,8.4298074E-1,1.366942E0,9.032554E-1,1.6677973E-1,1.1367401E0,1.152983E0,5.2861863E-1,6.6442066E-1,-7.01652E-1,1.2326163E0,-3.3939752E-1,1.4902732E0,-4.658758E-2,-1.2960996E-1,1.2731223E0,2.5570643E-1,9.23548E-1,1.8254256E-1,-1.4077722E0,6.622553E-1,1.404854E0],"categories":[],"categories_nodes":[],"categories_segments":[],"categories_sizes":[],"default_left":[1,0,1,1,0,1,1,0,1,1,1,1,1,1,1,1,0,0,0,0,0,0,0,0,0,0,0],"id":2,"left_children":[1,-1,3,5,-1,7,9,-1,11,13,15,17,19,21,23,25,-1,-1,-1,-1,-1,-1,-1,-1,-1,-1,-1],"loss_changes":[3.2892383E3,0E0,1.5126343E1,2.738945E0,0E0,7.508011E-1,6.6338844E0,0E0,7.47591E-1,5.4686785E0,3.7832127E0,3.248392E0,3.9131222E0,5.97584E-1,3.1933537E0,1.2840385E0,0E0,0E0,0E0,0E0,0E0,0E0,0E0,0E0,0E0,0E0,0E0],"parents":[2147483647,0,0,2,2,3,3,5,5,6,6,8,8,9,9,10,10,11,11,12,12,13,13,14,14,15,15],"right_children":[2,-1,4,6,-1,8,10,-1,12,14,16,18,20,22,24,26,-1,-1,-1,-1,-1,-1,-1,-1,-1,-1,-1],"split_conditions":[5E-1,-1.6707592E-1,6.5E0,3.16E2,1.6378921E-1,1.65E1,6.355E2,1.3669421E-1,2.5E0,5.44E2,6.0214424E0,6.0181003E0,6.098468E-3,7.5E0,1.7069818E-3,7.77981E-4,-3.3939753E-2,1.4902733E-1,-4.658758E-3,-1.2960996E-2,1.2731223E-1,2.5570644E-2,9.23548E-2,1.8254256E-2,-1.4077722E-1,6.622553E-2,1.404854E-1],"split_indices":[1,0,1,0,0,5,0,0,6,0,2,2,4,5,4,4,0,0,0,0,0,0,0,0,0,0,0],"split_type":[0,0,0,0,0,0,0,0,0,0,0,0,0,0,0,0,0,0,0,0,0,0,0,0,0,0,0],"sum_hessian":[2.4179969E4,2.3849455E4,3.305131E2,8.985769E1,2.406554E2,5.650682E1,3.335087E1,4.300146E1,1.350536E1,1.057535E1,2.2775518E1,6.856987E0,6.648373E0,6.8722405E0,3.703109E0,2.1541363E1,1.2341545E0,5.162951E0,1.6940358E0,3.9669952E0,2.681378E0,3.4373705E0,3.4348698E0,1.9734571E0,1.7296519E0,6.120032E0,1.5421331E1],"tree_param":{"num_deleted":"0","num_feature":"10","num_nodes":"27","size_leaf_vector":"0"}},{"base_weights":[-1.525185E0,-1.5653611E0,1.3994375E0,1.0590032E0,1.5256253E0,1.074515E0,-5.2428544E-2,9.897999E-1,1.356505E0,1.1924387E0,4.8898673E-1,1.0579314E0,1.4410919E0,-8.093469E-1,6.038332E-1],"categories":[],"categories_nodes":[],"categories_segments":[],"categories_sizes":[],"default_left":[1,0,1,1,0,1,0,1,0,1,1,0,0,0,0],"id":3,"left_children":[1,-1,3,5,-1,7,-1,9,-1,11,13,-1,-1,-1,-1],"loss_changes":[2.7373164E3,0E0,1.1957764E1,1.5858078E0,0E0,7.4858093E-1,0E0,6.62397E0,0E0,1.4315796E-1,3.791832E0,0E0,0E0,0E0,0E0],"parents":[2147483647,0,0,2,2,3,3,5,5,7,7,9,9,10,10],"right_children":[2,-1,4,6,-1,8,-1,10,-1,12,14,-1,-1,-1,-1],"split_conditions":[5E-1,-1.5653612E-1,6.5E0,6.1069355E0,1.5256254E-1,1.15943E-2,-5.2428544E-3,5.989764E0,1.356505E-1,5.979434E0,2.7107012E-2,1.0579314E-1,1.4410919E-1,-8.0934696E-2,6.038332E-2],"split_indices":[1,0,1,2,0,4,0,2,0,2,9,0,0,0,0],"split_type":[0,0,0,0,0,0,0,0,0,0,0,0,0,0,0],"sum_hessian":[2.3276684E4,2.2961717E4,3.14965E2,8.7715324E1,2.2724966E2,8.654073E1,1.1745943E0,7.0016525E1,1.6524208E1,4.8864136E1,2.1152388E1,3.5120556E1,1.3743579E1,1.2275693E0,1.9924818E1],"tree_param":{"num_deleted":"0","num_feature":"10","num_nodes":"15","size_leaf_vector":"0"}},{"base_weights":[-1.4417876E0,-1.4806993E0,1.311662E0,8.9530706E-1,1.4056485E0,1.2306961E0,7.410397E-1,1.2088498E0,1.4574058E0,-3.8655E-1,8.239006E-1,7.444268E-1,1.3700873E0,-6.240759E-1,5.0260205E-2,1.0144144E0,5.66384E-1,1.1326815E0,1.2572736E-1,7.2089386E-1,8.0800585E-2,5.321743E-1,1.2552235E0,-3.0701494E-1,8.0109024E-1],"categories":[],"categories_nodes":[],"categories_segments":[],"categories_sizes":[],"default_left":[1,0,1,1,1,0,1,1,0,1,1,1,0,0,0,0,1,1,1,0,0,0,0,0,0],"id":4,"left_children":[1,-1,3,5,7,-1,9,11,-1,13,15,17,-1,-1,-1,-1,19,21,23,-1,-1,-1,-1,-1,-1],"loss_changes":[2.3841562E3,0E0,1.0886658E1,2.1878624E0,7.99469E-1,0E0,4.3875237E0,3.3400345E0,0E0,4.1129982E-1,1.4314632E0,3.9879694E0,0E0,0E0,0E0,0E0,1.4161148E0,1.0025406E-1,2.5123088E0,0E0,0E0,0E0,0E0,0E0,0E0],"parents":[2147483647,0,0,2,2,3,3,4,4,6,6,7,7,9,9,10,10,11,11,16,16,17,17,18,18],"right_children":[2,-1,4,6,8,-1,10,12,-1,14,16,18,-1,-1,-1,-1,20,22,24,-1,-1,-1,-1,-1,-1],"split_conditions":[5E-1,-1.4806993E-1,2.5E0,1.895E2,6.0419893E0,1.2306961E-1,2.77E2,6.765E2,1.4574058E-1,4.5E0,2.5E0,4.5E0,1.3700873E-1,-6.240759E-2,5.0260206E-3,1.0144144E-1,5.987692E0,1.925E2,4.5E0,7.208939E-2,8.080059E-3,5.321743E-2,1.2552236E-1,-3.0701494E-2,8.010902E-2],"split_indices":[1,0,1,0,2,0,0,0,0,6,6,1,0,0,0,0,2,0,6,0,0,0,0,0,0],"split_type":[0,0,0,0,0,0,0,0,0,0,0,0,0,0,0,0,0,0,0,0,0,0,0,0,0],"sum_hessian":[2.2233285E4,2.192392E4,3.093662E2,5.8912617E1,2.5045358E2,1.6362219E1,4.2550396E1,5.722422E1,1.9322937E2,2.6618793E0,3.988852E1,1.6194653E1,4.1029568E1,1.4465642E0,1.2153151E0,2.1237524E1,1.8650993E1,9.439993E0,6.75466E0,1.3781277E1,4.869716E0,2.5053785E0,6.934614E0,4.4492116E0,2.3054485E0],"tree_param":{"num_deleted":"0","num_feature":"10","num_nodes":"25","size_leaf_vector":"0"}},{"base_weights":[-1.3751206E0,-1.4120696E0,1.2522966E0,8.923246E-1,1.3719237E0,9.47802E-1,-1.7168808E-1,8.2556623E-1,1.221508E0,-9.322466E-1,9.202072E-1,8.6654174E-1,-5.3645897E-1,1.2947303E0,6.3924456E-1,9.2626154E-1,-1.896061E-1,-1.9729754E-1,9.902234E-1],"categories":[],"categories_nodes":[],"categories_segments":[],"categories_sizes":[],"default_left":[1,0,1,1,0,1,1,1,1,0,0,1,0,0,1,0,0,0,0],"id":5,"left_children":[1,-1,3,5,-1,7,9,11,13,-1,-1,15,-1,-1,17,-1,-1,-1,-1],"loss_changes":[2.0409492E3,0E0,1.1342468E1,4.6282806E0,0E0,1.402298E0,4.6742616E0,3.4169312E0,3.186226E-2,0E0,0E0,3.4385605E0,0E0,0E0,1.4365183E0,0E0,0E0,0E0,0E0],"parents":[2147483647,0,0,2,2,3,3,5,5,6,6,7,7,8,8,11,11,14,14],"right_children":[2,-1,4,6,-1,8,10,12,14,-1,-1,16,-1,-1,18,-1,-1,-1,-1],"split_conditions":[5E-1,-1.4120696E-1,9.853519E-3,6.012066E0,1.3719237E-1,1.5985E3,3.5E0,1.4555E3,4.7634165E-3,-9.322467E-2,9.202072E-2,6.8657817E-3,-5.3645898E-2,1.2947303E-1,1.15E1,9.2626154E-2,-1.896061E-2,-1.9729754E-2,9.9022344E-2],"split_indices":[1,0,4,2,0,0,6,0,4,0,0,4,0,0,1,0,0,0,0],"split_type":[0,0,0,0,0,0,0,0,0,0,0,0,0,0,0,0,0,0,0],"sum_hessian":[2.100405E4,2.0713227E4,2.9082452E2,7.465077E1,2.1617375E2,7.105519E1,3.595581E0,5.189527E1,1.9159918E1,2.205532E0,1.3900487E0,5.0732796E1,1.1624744E0,1.5932693E1,3.2272248E0,4.8134045E1,2.5987532E0,1.0832391E0,2.1439857E0],"tree_param":{"num_deleted":"0","num_feature":"10","num_nodes":"19","size_leaf_vector":"0"}},{"base_weights":[-1.3186746E0,-1.3549826E0,1.1810731E0,8.0873704E-1,1.3237885E0,8.7405384E-1,1.62463E-2,7.282049E-1,1.1413065E0,-5.731723E-1,6.5392524E-1,8.8078684E-1,3.8318402E-1,2.753654E-1,1.1692355E0,-1.0838397E0,5.4059695E-2,-1.6691511E-2,9.4594145E-1,1.1479468E-2,9.301112E-1,-2.743277E-1,7.2023636E-1,1.2580546E0,6.2151164E-1],"categories":[],"categories_nodes":[],"categories_segments":[],"categories_sizes":[],"default_left":[1,0,1,1,0,1,1,1,1,1,1,1,1,0,1,0,0,0,0,0,0,0,0,0,0],"id":6,"left_children":[1,-1,3,5,-1,7,9,11,13,15,17,19,21,-1,23,-1,-1,-1,-1,-1,-1,-1,-1,-1,-1],"loss_changes":[1.791582E3,0E0,1.3961517E1,4.176304E0,0E0,2.0834084E0,3.0746932E0,2.3545074E0,2.7386093E-1,1.424946E0,7.829472E-1,1.476593E0,4.064808E0,0E0,3.6418152E-1,0E0,0E0,0E0,0E0,0E0,0E0,0E0,0E0,0E0,0E0],"parents":[2147483647,0,0,2,2,3,3,5,5,6,6,7,7,8,8,9,9,10,10,11,11,12,12,14,14],"right_children":[2,-1,4,6,-1,8,10,12,14,16,18,20,22,-1,24,-1,-1,-1,-1,-1,-1,-1,-1,-1,-1],"split_conditions":[5E-1,-1.3549827E-1,1.15943E-2,6.0122366E0,1.3237886E-1,2.5E0,2.5E0,3.395E2,4.190695E-4,6.365E2,8.233374E-3,5.891103E0,6.355E2,2.7536541E-2,7.509171E-3,-1.0838397E-1,5.4059695E-3,-1.6691511E-3,9.459414E-2,1.1479468E-3,9.3011126E-2,-2.743277E-2,7.202364E-2,1.2580547E-1,6.2151164E-2],"split_indices":[1,0,4,2,0,1,6,0,4,0,4,2,0,0,4,0,0,0,0,0,0,0,0,0,0],"split_type":[0,0,0,0,0,0,0,0,0,0,0,0,0,0,0,0,0,0,0,0,0,0,0,0,0],"sum_hessian":[1.972093E4,1.9439043E4,2.8188812E2,7.99556E1,2.0193254E2,7.377238E1,6.1832137E0,5.0136143E1,2.3636236E1,3.2657647E0,2.9174492E0,3.3686005E1,1.6450138E1,1.07782E0,2.2558416E1,1.3988798E0,1.866885E0,1.171025E0,1.7464242E0,1.8749046E0,3.1811102E1,5.63793E0,1.0812208E1,1.829484E1,4.2635756E0],"tree_param":{"num_deleted":"0","num_feature":"10","num_nodes":"25","size_leaf_vector":"0"}},{"base_weights":[-1.2717263E0,-1.2965481E0,7.6774056E-3,-1.3076713E0,-1.2601017E0,7.988999E-1,-1.2771182E0,5.812737E-1,-1.274942E0,-9.670022E-1,8.7841725E-1,-1.3100469E0,5.7614285E-1,-3.191872E-1,7.5911677E-1,-8.984341E-1,-1.2790858E0,-1.1757181E0,4.4924563E-1,6.261106E-1,1.2441715E0,3.424887E-1,-5.23635E-1,8.405346E-1,-6.9590986E-1,-1.070345E0,-3.543307E-2,-9.1535383E-1,-1.2835027E0,9.7848654E-1,3.1585863E-1,7.802788E-3,1.260531E0,2.1738788E-1,-8.4334135E-1,1.0390441E0,2.135843E-1,-5.0702006E-1,-1.1075358E0,7.226545E-1,-5.625575E-1,-1.1860031E0,-3.825672E-1,-1.2891693E0,-1.1651554E0,6.446452E-1,1.0661929E0,3.5471812E-1,-9.6570003E-1],"categories":[],"categories_nodes":[],"categories_segments":[],"categories_sizes":[],"default_left":[1,1,1,0,1,1,1,1,1,1,1,0,0,1,1,1,1,0,0,1,1,0,1,1,0,1,1,1,1,1,1,0,0,0,0,0,0,0,0,0,0,0,0,0,0,0,0,0,0],"id":7,"left_children":[1,3,5,-1,7,9,11,13,15,17,19,-1,-1,21,23,25,27,-1,-1,29,31,-1,33,35,-1,37,39,41,43,45,47,-1,-1,-1,-1,-1,-1,-1,-1,-1,-1,-1,-1,-1,-1,-1,-1,-1,-1],"loss_changes":[5.892012E2,5.7304688E0,3.60976E2,0E0,1.17785645E2,3.1707245E1,9.01384E0,5.836116E0,5.4804688E0,3.4678583E0,1.8674942E1,0E0,0E0,1.0539191E0,4.0755787E0,7.3232384E0,5.5742188E0,0E0,0E0,1.3549561E1,1.7102814E0,0E0,1.4471045E0,3.3072777E0,0E0,3.0456924E-1,4.1133738E0,7.31641E0,1.2792969E0,1.0365868E0,3.7732444E0,0E0,0E0,0E0,0E0,0E0,0E0,0E0,0E0,0E0,0E0,0E0,0E0,0E0,0E0,0E0,0E0,0E0,0E0],"parents":[2147483647,0,0,1,1,2,2,4,4,5,5,6,6,7,7,8,8,9,9,10,10,13,13,14,14,15,15,16,16,19,19,20,20,22,22,23,23,25,25,26,26,27,27,28,28,29,29,30,30],"right_children":[2,4,6,-1,8,10,12,14,16,18,20,-1,-1,22,24,26,28,-1,-1,30,32,-1,34,36,-1,38,40,42,44,46,48,-1,-1,-1,-1,-1,-1,-1,-1,-1,-1,-1,-1,-1,-1,-1,-1,-1,-1],"split_conditions":[6.001631E0,6.5E0,6.569605E0,-1.3076714E-1,5.085652E0,1.49E2,8.8765E3,1.6055E3,1.805E2,6.04747E0,2.727E3,-1.3100469E-1,5.7614285E-2,3.8592412E0,3.25285E4,1.705E2,5.6928015E0,-1.1757181E-1,4.4924565E-2,5.945E2,6.189228E0,3.424887E-2,7.5E0,4.769519E0,-6.9590986E-2,5.878544E0,4.5E0,2.851E3,5.9866295E0,6.0428314E0,6.4841747E0,7.802788E-4,1.260531E-1,2.1738788E-2,-8.4334135E-2,1.0390442E-1,2.135843E-2,-5.0702006E-2,-1.1075359E-1,7.226545E-2,-5.6255754E-2,-1.1860031E-1,-3.825672E-2,-1.2891693E-1,-1.1651554E-1,6.4464524E-2,1.0661929E-1,3.5471812E-2,-9.657001E-2],"split_indices":[2,3,2,0,2,0,0,0,0,2,0,0,0,2,0,0,2,0,0,0,2,0,5,2,0,2,5,0,2,2,2,0,0,0,0,0,0,0,0,0,0,0,0,0,0,0,0,0,0],"split_type":[0,0,0,0,0,0,0,0,0,0,0,0,0,0,0,0,0,0,0,0,0,0,0,0,0,0,0,0,0,0,0,0,0,0,0,0,0,0,0,0,0,0,0,0,0,0,0,0,0],"sum_hessian":[1.8552035E4,1.8198941E4,3.5309225E2,1.391674E4,4.2822017E3,2.18754E2,1.3433826E2,3.393062E1,4.248271E3,8.944985E0,2.0980902E2,1.32281E2,2.0572503E0,5.465047E0,2.8465572E1,4.8617126E1,4.199654E3,7.944083E0,1.0009027E0,1.2576496E2,8.404405E1,1.1306423E0,4.3344045E0,2.7357096E1,1.1084766E0,4.03409E1,8.276223E0,5.288506E1,4.146769E3,5.787652E1,6.788844E1,1.1168244E0,8.292723E1,1.4028604E0,2.9315443E0,2.0278933E1,7.0781627E0,3.4046068E0,3.6936295E1,3.2423205E0,5.033902E0,3.4256916E1,1.8628143E1,3.9478472E3,1.9892175E2,1.3778964E1,4.4097557E1,6.659244E1,1.2960054E0],"tree_param":{"num_deleted":"0","num_feature":"10","num_nodes":"49","size_leaf_vector":"0"}},{"base_weights":[-1.231534E0,-1.2669139E0,1.0988877E0,7.839305E-1,1.2196118E0,9.2310274E-1,3.5696626E-1,1.052313E0,1.2823871E0,1.2840566E-1,9.55859E-1,4.2602453E-2,7.857433E-1,3.293143E-1,1.0743716E0,2.6872674E-1,1.2894207E0,8.1421316E-1,-6.8662095E-1,9.8096246E-1,-4.217199E-2,-7.6000327E-1,3.1174418E-1,1.1705846E0,-4.2212093E-1,7.3204225E-1,-2.3127781E-1,1.087409E0,2.4765913E-1,8.642623E-1,1.1999128E0,6.296441E-1,-5.645801E-1],"categories":[],"categories_nodes":[],"categories_segments":[],"categories_sizes":[],"default_left":[1,0,1,1,1,1,1,1,1,1,1,1,1,1,1,0,0,0,0,1,0,0,1,0,0,0,0,0,0,0,0,0,0],"id":8,"left_children":[1,-1,3,5,7,9,11,13,15,17,19,21,23,25,27,-1,-1,-1,-1,29,-1,-1,31,-1,-1,-1,-1,-1,-1,-1,-1,-1,-1],"loss_changes":[1.4285078E3,0E0,8.906433E0,4.1076584E0,6.0092163E-1,1.3268318E0,2.6606393E0,5.4320526E-1,5.8366394E-1,2.4369082E0,1.3773994E0,2.95645E0,4.3976665E0,8.708093E-1,3.1420135E-1,0E0,0E0,0E0,0E0,2.9314804E-1,0E0,0E0,3.179518E0,0E0,0E0,0E0,0E0,0E0,0E0,0E0,0E0,0E0,0E0],"parents":[2147483647,0,0,2,2,3,3,4,4,5,5,6,6,7,7,8,8,9,9,10,10,11,11,12,12,13,13,14,14,19,19,22,22],"right_children":[2,-1,4,6,8,10,12,14,16,18,20,22,24,26,28,-1,-1,-1,-1,30,-1,-1,32,-1,-1,-1,-1,-1,-1,-1,-1,-1,-1],"split_conditions":[2.0990523E-5,-1.2669139E-1,1.0620794E-2,5.989764E0,6E2,3.9486933E-4,6.355E2,5.8918295E0,1.231714E-2,1.6520129E-4,9.469332E-3,5.9912786E0,6.0238714E0,1.5443098E-2,5.95E2,2.6872674E-2,1.2894207E-1,8.1421316E-2,-6.86621E-2,1.5725E3,-4.217199E-3,-7.6000325E-2,5.87E2,1.17058456E-1,-4.2212095E-2,7.320423E-2,-2.3127781E-2,1.087409E-1,2.4765914E-2,8.642623E-2,1.1999128E-1,6.296441E-2,-5.6458008E-2],"split_indices":[4,0,4,2,0,4,0,2,4,4,4,2,2,4,0,0,0,0,0,0,0,0,0,0,0,0,0,0,0,0,0,0,0],"split_type":[0,0,0,0,0,0,0,0,0,0,0,0,0,0,0,0,0,0,0,0,0,0,0,0,0,0,0,0,0,0,0,0,0],"sum_hessian":[1.7307855E4,1.704947E4,2.5838434E2,7.367278E1,1.8471156E2,5.468559E1,1.8987198E1,5.524489E1,1.2946667E2,2.359599E0,5.232599E1,1.158953E1,7.3976674E0,2.1072166E0,5.3137672E1,1.1623207E0,1.2830435E2,1.2819201E0,1.077679E0,5.1058807E1,1.2671804E0,2.4524105E0,9.13712E0,5.6335945E0,1.7640728E0,1.04829E0,1.0589266E0,5.2002243E1,1.135429E0,3.6533695E1,1.4525111E1,6.9113994E0,2.2257206E0],"tree_param":{"num_deleted":"0","num_feature":"10","num_nodes":"33","size_leaf_vector":"0"}},{"base_weights":[-1.1964105E0,-1.2312613E0,1.0447534E0,6.880483E-1,1.1844039E0,8.733809E-1,1.2989119E-1,1.0263014E0,1.2361549E0,1.051529E0,6.1320275E-1,-2.507924E-1,6.380906E-1,3.058647E-1,1.0830873E0,2.6865932E-1,8.490831E-1,4.8304543E-1,-4.4907752E-1,9.7333294E-1,-3.9222214E-1,7.93206E-1,-9.7932264E-2,1.1013553E0,1.434149E-1,1.0293323E0,-1.2154339E-1,9.5544374E-1,-3.762444E-2,-9.770142E-1,2.7553476E-2,1.1792783E0,2.6291677E-1,3.9100254E-1,-5.827831E-1,1.1200497E0,2.2274944E-1],"categories":[],"categories_nodes":[],"categories_segments":[],"categories_sizes":[],"default_left":[1,0,1,1,1,1,1,1,0,0,1,1,1,1,1,1,1,0,1,1,0,0,1,1,0,0,0,0,0,0,0,0,0,0,0,0,0],"id":9,"left_children":[1,-1,3,5,7,9,11,13,-1,-1,15,17,19,21,23,25,27,-1,29,31,-1,-1,33,35,-1,-1,-1,-1,-1,-1,-1,-1,-1,-1,-1,-1,-1],"loss_changes":[1.2545898E3,0E0,1.14513855E1,7.3001175E0,1.678772E-1,1.840847E0,3.8434498E0,1.6810532E0,0E0,0E0,1.7382135E0,1.9052981E0,3.295657E0,1.0591303E0,6.179695E-1,3.4777806E0,1.346798E0,0E0,2.455952E0,6.6322994E-1,0E0,0E0,1.0854535E0,4.7631836E-1,0E0,0E0,0E0,0E0,0E0,0E0,0E0,0E0,0E0,0E0,0E0,0E0,0E0],"parents":[2147483647,0,0,2,2,3,3,4,4,5,5,6,6,7,7,10,10,11,11,12,12,13,13,14,14,15,15,16,16,18,18,19,19,22,22,23,23],"right_children":[2,-1,4,6,8,10,12,14,-1,-1,16,18,20,22,24,26,28,-1,30,32,-1,-1,34,36,-1,-1,-1,-1,-1,-1,-1,-1,-1,-1,-1,-1,-1],"split_conditions":[5E-1,-1.2312613E-1,1.0620794E-2,5.989764E0,2.55E1,1.05E1,1.026194E-1,5.9891253E0,1.23615496E-1,1.05152905E-1,3.442351E-3,2.503321E-3,6.023988E0,5.833626E0,2.45E1,4.3113174E0,3.2576817E-1,4.8304543E-2,1.05E1,7.4856337E-3,-3.9222214E-2,7.93206E-2,7.5E0,6.260809E0,1.434149E-2,1.0293323E-1,-1.215434E-2,9.5544375E-2,-3.7624442E-3,-9.770142E-2,2.7553476E-3,1.1792783E-1,2.6291678E-2,3.9100256E-2,-5.827831E-2,1.1200497E-1,2.2274945E-2],"split_indices":[1,0,4,2,1,5,9,2,0,0,4,4,2,2,1,2,9,0,5,4,0,0,5,2,0,0,0,0,0,0,0,0,0,0,0,0,0],"split_type":[0,0,0,0,0,0,0,0,0,0,0,0,0,0,0,0,0,0,0,0,0,0,0,0,0,0,0,0,0,0,0,0,0,0,0,0,0],"sum_hessian":[1.6045133E4,1.579989E4,2.452423E2,7.066689E1,1.745754E2,5.2627502E1,1.8039392E1,4.8188404E1,1.26386986E2,2.943281E1,2.3194693E1,1.0603213E1,7.43618E0,3.9873734E0,4.420103E1,1.029543E1,1.2899262E1,1.9500633E0,8.65315E0,5.6523323E0,1.7838478E0,1.3697989E0,2.6175745E0,4.318933E1,1.0116997E0,2.935309E0,7.3601217E0,1.1448496E1,1.4507656E0,3.6074984E0,5.0456514E0,3.8703568E0,1.7819755E0,1.399673E0,1.2179015E0,4.2020447E1,1.1688837E0],"tree_param":{"num_deleted":"0","num_feature":"10","num_nodes":"37","size_leaf_vector":"0"}},{"base_weights":[-1.1659695E0,-1.2009652E0,1.0067773E0,6.9535893E-1,1.1560391E0,7.2332484E-1,-6.598933E-1,1.0735605E0,6.4223135E-1,1.1976824E0,-2.0084542E-1,5.084025E-1,9.957872E-1,5.983829E-1,-2.0648584E-1,1.0827137E0,2.7103227E-1],"categories":[],"categories_nodes":[],"categories_segments":[],"categories_sizes":[],"default_left":[1,0,1,1,0,1,0,1,1,0,0,1,1,0,0,0,0],"id":10,"left_children":[1,-1,3,5,-1,7,-1,9,11,-1,-1,13,15,-1,-1,-1,-1],"loss_changes":[1.1348867E3,0E0,1.0207062E1,3.481327E0,0E0,1.5296822E0,0E0,2.3286963E0,2.6134377E0,0E0,0E0,3.331626E0,7.8141403E-1,0E0,0E0,0E0,0E0],"parents":[2147483647,0,0,2,2,3,3,5,5,7,7,8,8,11,11,12,12],"right_children":[2,-1,4,6,-1,8,-1,10,12,-1,-1,14,16,-1,-1,-1,-1],"split_conditions":[5E-1,-1.2009652E-1,6.5E0,6.1069355E0,1.1560392E-1,5E-1,-6.598933E-2,4.5E0,6.0013704E0,1.1976824E-1,-2.0084543E-2,5.9946647E0,1.95E1,5.983829E-2,-2.0648584E-2,1.08271375E-1,2.7103228E-2],"split_indices":[1,0,1,2,0,6,0,1,2,0,0,2,5,0,0,0,0],"split_type":[0,0,0,0,0,0,0,0,0,0,0,0,0,0,0,0,0],"sum_hessian":[1.4908607E4,1.4672727E4,2.3588127E2,7.825968E1,1.5762158E2,7.713428E1,1.125402E0,1.2200941E1,6.493334E1,1.1172945E1,1.0279958E0,4.8872124E1,1.6061216E1,4.3553215E1,5.3189106E0,1.3900141E1,2.161075E0],"tree_param":{"num_deleted":"0","num_feature":"10","num_nodes":"17","size_leaf_vector":"0"}},{"base_weights":[-1.1390762E0,-1.1732976E0,9.91427E-1,6.0993856E-1,1.1052557E0,8.5949314E-1,4.3844447E-1,5.13338E-1,1.1192247E0,1.1133488E0,6.999369E-1,8.913405E-1,3.1010747E-1,7.7350146E-1,-3.4605172E-1,2.6870465E-1,1.1236942E0,8.832129E-1,-4.2179567E-1,3.8000473E-1,1.0658767E0,-2.4777693E-1,4.8554805E-1,2.2104988E-1,8.9246345E-1,9.667673E-1,1.9465473E-1,8.0356866E-1,-2.825698E-1,2.019416E-1,-4.2593774E-1,5.8351123E-1,5.210504E-2],"categories":[],"categories_nodes":[],"categories_segments":[],"categories_sizes":[],"default_left":[1,0,1,1,1,1,1,1,1,0,1,1,1,1,0,0,0,1,0,1,0,1,1,0,0,0,0,0,0,0,0,0,0],"id":11,"left_children":[1,-1,3,5,7,9,11,13,15,-1,17,19,21,23,-1,-1,-1,25,-1,27,-1,29,31,-1,-1,-1,-1,-1,-1,-1,-1,-1,-1],"loss_changes":[1.00424414E3,0E0,8.794006E0,1.8631039E0,8.038025E-1,4.200363E-2,1.6452794E0,1.5399739E0,3.1391907E-1,0E0,3.4858909E0,1.9886303E-1,2.791884E0,1.10114336E-1,0E0,0E0,0E0,5.793028E-1,0E0,1.1464446E0,0E0,6.6227955E-1,8.65674E-1,0E0,0E0,0E0,0E0,0E0,0E0,0E0,0E0,0E0,0E0],"parents":[2147483647,0,0,2,2,3,3,4,4,5,5,6,6,7,7,8,8,10,10,11,11,12,12,13,13,17,17,19,19,21,21,22,22],"right_children":[2,-1,4,6,8,10,12,14,16,-1,18,20,22,24,-1,-1,-1,26,-1,28,-1,30,32,-1,-1,-1,-1,-1,-1,-1,-1,-1,-1],"split_conditions":[5E-1,-1.1732977E-1,2.5E0,7.5E0,1.925E2,1.895E2,5E-1,1.865E2,4.190695E-4,1.1133488E-1,3.6055818E-3,3.4305418E-3,1.5E0,1.6668726E-2,-3.460517E-2,2.6870465E-2,1.1236942E-1,5.5E0,-4.2179566E-2,1.65E1,1.0658767E-1,1.05E1,5.5E0,2.2104988E-2,8.924635E-2,9.667673E-2,1.9465474E-2,8.0356866E-2,-2.825698E-2,2.019416E-2,-4.2593773E-2,5.8351126E-2,5.210504E-3],"split_indices":[1,0,1,5,0,0,6,0,4,0,4,4,6,4,0,0,0,6,0,5,0,5,6,0,0,0,0,0,0,0,0,0,0],"split_type":[0,0,0,0,0,0,0,0,0,0,0,0,0,0,0,0,0,0,0,0,0,0,0,0,0,0,0,0,0,0,0,0,0],"sum_hessian":[1.3757008E4,1.353997E4,2.1703789E2,5.1338646E1,1.6569925E2,1.9276337E1,3.206231E1,4.6905456E0,1.610087E2,5.132573E0,1.4143763E1,5.766665E0,2.6295643E1,3.6772661E0,1.0132793E0,1.1611928E0,1.598475E2,1.23401785E1,1.8035842E0,2.2759824E0,3.4906826E0,6.192324E0,2.010332E1,1.1579552E0,2.519311E0,1.0644461E1,1.695718E0,1.2586E0,1.0173824E0,1.7191976E0,4.473127E0,1.6114931E1,3.9883873E0],"tree_param":{"num_deleted":"0","num_feature":"10","num_nodes":"33","size_leaf_vector":"0"}},{"base_weights":[-1.1162987E0,-1.1501807E0,9.2892194E-1,6.1690086E-1,1.097409E0,5.147946E-1,8.415248E-1,1.2479915E-1,1.1107442E0,9.2854905E-1,3.7792847E-1,5.011569E-1,1.1113843E0,1.0532784E0,-1.5470701E-1,5.55777E-1,-4.475028E-2,6.6346633E-1,-1.0617376E-1,1.0031998E0,3.2740128E-1,-7.8904694E-1,3.5738224E-1,-5.444554E-2,8.7229055E-1,2.902867E-1,-4.3388313E-1],"categories":[],"categories_nodes":[],"categories_segments":[],"categories_sizes":[],"default_left":[1,0,1,1,1,1,1,0,0,1,1,1,0,0,0,1,1,1,1,0,0,0,0,0,0,0,0],"id":12,"left_children":[1,-1,3,5,7,9,11,-1,-1,13,15,17,-1,-1,-1,19,21,23,25,-1,-1,-1,-1,-1,-1,-1,-1],"loss_changes":[8.8131836E2,0E0,1.0234879E1,1.2884254E0,1.5928497E0,2.7173185E0,1.452981E0,0E0,0E0,1.8898907E0,3.2122102E0,1.2039027E0,0E0,0E0,0E0,2.7285585E0,4.317371E0,1.4284492E0,5.530029E-1,0E0,0E0,0E0,0E0,0E0,0E0,0E0,0E0],"parents":[2147483647,0,0,2,2,3,3,4,4,5,5,6,6,9,9,10,10,11,11,15,15,16,16,17,17,18,18],"right_children":[2,-1,4,6,8,10,12,-1,-1,14,16,18,-1,-1,-1,20,22,24,26,-1,-1,-1,-1,-1,-1,-1,-1],"split_conditions":[5E-1,-1.1501807E-1,6.5E0,4.5E0,4.080474E0,5E-1,1.5E0,1.2479915E-2,1.11074425E-1,6.023347E0,1.35E1,1.65E1,1.11138426E-1,1.05327845E-1,-1.5470701E-2,5.9461656E0,5.9705257E0,5.9511585E0,5.5E0,1.0031998E-1,3.2740127E-2,-7.8904696E-2,3.5738226E-2,-5.444554E-3,8.722906E-2,2.9028669E-2,-4.3388315E-2],"split_indices":[1,0,1,6,2,6,1,0,0,2,5,5,0,0,0,2,2,2,6,0,0,0,0,0,0,0,0],"split_type":[0,0,0,0,0,0,0,0,0,0,0,0,0,0,0,0,0,0,0,0,0,0,0,0,0,0,0],"sum_hessian":[1.2701691E4,1.2495129E4,2.065623E2,7.406424E1,1.3249808E2,5.318154E1,2.0882694E1,1.9321793E0,1.3056589E2,1.1781376E1,4.140017E1,1.0498398E1,1.0384296E1,1.0589718E1,1.1916581E0,2.8917707E1,1.248246E1,8.2114525E0,2.2869446E0,8.625763E0,2.0291945E1,4.040972E0,8.441488E0,2.0168946E0,6.194558E0,1.0865902E0,1.2003545E0],"tree_param":{"num_deleted":"0","num_feature":"10","num_nodes":"27","size_leaf_vector":"0"}},{"base_weights":[-1.0949366E0,-1.1291525E0,9.0320295E-1,5.80946E-1,1.0800222E0,6.3852566E-1,1.7786181E-1,9.481709E-1,1.1546389E0,5.1340497E-1,1.0405524E0,-4.0639988E-1,5.449038E-1,9.832956E-1,-3.988751E-1,9.269924E-1,4.168219E-1,-7.120889E-1,2.540162E-1,9.0707755E-1,2.837282E-2,9.9939996E-1,1.114305E-1,2.4580158E-1,6.795684E-1,-7.946431E-1,7.7665776E-1],"categories":[],"categories_nodes":[],"categories_segments":[],"categories_sizes":[],"default_left":[1,0,1,1,1,1,1,1,0,1,0,1,1,1,0,0,1,0,0,0,1,0,0,0,0,0,0],"id":13,"left_children":[1,-1,3,5,7,9,11,13,-1,15,-1,17,19,21,-1,-1,23,-1,-1,-1,25,-1,-1,-1,-1,-1,-1],"loss_changes":[8.026709E2,0E0,1.0652634E1,1.5644817E0,1.5133667E-1,2.6286182E0,2.4566724E0,2.822628E0,0E0,1.6079712E0,0E0,1.1083995E0,1.2517478E0,5.955963E-1,0E0,0E0,1.733356E0,0E0,0E0,0E0,2.986272E0,0E0,0E0,0E0,0E0,0E0,0E0],"parents":[2147483647,0,0,2,2,3,3,4,4,5,5,6,6,7,7,9,9,11,11,12,12,13,13,16,16,20,20],"right_children":[2,-1,4,6,8,10,12,14,-1,16,-1,18,20,22,-1,-1,24,-1,-1,-1,26,-1,-1,-1,-1,-1,-1],"split_conditions":[5E-1,-1.12915255E-1,6.5E0,4.5E0,1.9635E3,2.5E0,1.5E0,1.932E3,1.1546389E-1,5E-1,1.0405524E-1,6.695E2,5.755E2,1.755E2,-3.988751E-2,9.2699245E-2,5E-1,-7.120889E-2,2.540162E-2,9.070776E-2,6.69E2,9.9939995E-2,1.114305E-2,2.4580158E-2,6.795684E-2,-7.946431E-2,7.7665776E-2],"split_indices":[1,0,1,1,0,1,6,0,0,6,0,0,0,1,0,0,7,0,0,0,0,0,0,0,0,0,0],"split_type":[0,0,0,0,0,0,0,0,0,0,0,0,0,0,0,0,0,0,0,0,0,0,0,0,0,0,0],"sum_hessian":[1.1724515E4,1.1527554E4,1.969614E2,7.130038E1,1.2566101E2,6.187726E1,9.4231205E0,5.0367146E1,7.529387E1,4.8927006E1,1.2950251E1,3.5943553E0,5.828766E0,4.935035E1,1.0167936E0,7.6349216E0,4.1292084E1,2.403566E0,1.1907895E0,2.9818795E0,2.8468862E0,4.83117E1,1.0386499E0,2.6184343E1,1.510774E1,1.3262411E0,1.520645E0],"tree_param":{"num_deleted":"0","num_feature":"10","num_nodes":"27","size_leaf_vector":"0"}},{"base_weights":[-1.0761164E0,-1.1095933E0,8.4582704E-1,4.911631E-1,1.0399667E0,5.680829E-1,-3.3502093E-1,9.032511E-1,1.1320282E0,4.5147622E-1,8.902876E-1,-6.6288406E-1,6.350442E-1,9.3669724E-1,-4.0996024E-1,4.9525622E-1,-7.8600734E-1,9.3678695E-1,1.4452204E-1,-9.842009E-1,2.7947038E-1,2.2912481E-1,9.9446595E-1,4.1197142E-1,9.0170705E-1,4.150025E-1,1.0865505E0,-1.302066E0,-1.05689265E-1,7.6631373E-1,-2.521841E-1],"categories":[],"categories_nodes":[],"categories_segments":[],"categories_sizes":[],"default_left":[1,0,1,1,1,1,1,1,0,1,1,1,0,1,0,1,0,1,0,1,0,1,0,0,0,0,0,0,0,0,0],"id":14,"left_children":[1,-1,3,5,7,9,11,13,-1,15,17,19,-1,21,-1,23,-1,25,-1,27,-1,29,-1,-1,-1,-1,-1,-1,-1,-1,-1],"loss_changes":[6.9386523E2,0E0,1.2223434E1,4.4684486E0,4.7053528E-1,1.9258327E0,2.4446375E0,2.6979828E0,0E0,2.9638424E0,3.9986324E-1,1.8631492E0,0E0,1.8845787E0,0E0,1.2029781E0,0E0,6.7018986E-1,0E0,1.0163355E0,0E0,1.5377868E0,0E0,0E0,0E0,0E0,0E0,0E0,0E0,0E0,0E0],"parents":[2147483647,0,0,2,2,3,3,4,4,5,5,6,6,7,7,9,9,10,10,11,11,13,13,15,15,17,17,19,19,21,21],"right_children":[2,-1,4,6,8,10,12,14,-1,16,18,20,-1,22,-1,24,-1,26,-1,28,-1,30,-1,-1,-1,-1,-1,-1,-1,-1,-1],"split_conditions":[5E-1,-1.1095933E-1,1.2217695E-2,6.0122366E0,1.9735E3,1.5985E3,1.1645449E-2,6.4378767E0,1.13202825E-1,1.477E3,2.85E1,6.78E2,6.350442E-2,6.0122805E0,-4.0996026E-2,5.996331E0,-7.8600734E-2,7.77981E-4,1.4452204E-2,2.5E0,2.7947038E-2,5.833626E0,9.9446595E-2,4.1197143E-2,9.0170704E-2,4.150025E-2,1.0865505E-1,-1.302066E-1,-1.0568927E-2,7.6631375E-2,-2.521841E-2],"split_indices":[1,0,4,2,0,0,4,2,0,0,1,0,0,2,0,2,0,4,0,6,0,2,0,0,0,0,0,0,0,0,0],"split_type":[0,0,0,0,0,0,0,0,0,0,0,0,0,0,0,0,0,0,0,0,0,0,0,0,0,0,0,0,0,0,0],"sum_hessian":[1.0768686E4,1.0584741E4,1.8394444E2,6.631918E1,1.1762525E2,6.0956394E1,5.3627915E0,5.168381E1,6.594144E1,4.6521397E1,1.4434999E1,4.2447944E0,1.1179974E0,5.0679764E1,1.0040495E0,4.551108E1,1.0103143E0,1.3346676E1,1.088323E0,3.132345E0,1.1124495E0,4.2002125E0,4.647955E1,3.9442585E1,6.068497E0,3.8174658E0,9.529211E0,1.9460819E0,1.186263E0,1.7050551E0,2.4951575E0],"tree_param":{"num_deleted":"0","num_feature":"10","num_nodes":"31","size_leaf_vector":"0"}},{"base_weights":[-1.0593673E0,-1.0937052E0,8.435964E-1,5.1152486E-1,1.0104864E0,6.026952E-1,-1.4675388E-1,6.605863E-1,1.0444065E0,7.1472275E-1,2.309196E-1,-4.614836E-1,5.110067E-1,8.25561E-1,-8.5807E-2,8.5800195E-1,5.5882454E-1,5.7660684E-2,7.194553E-1,2.3368758E-1,-6.453943E-1,1.2298358E-1,6.470247E-1,9.809121E-1,-2.2045697E-1,-7.964696E-1,6.3010335E-1,-9.049167E-2,9.2838E-1,-5.1703066E-1,8.2846236E-1,-1.1428963E-1,7.1790224E-1,-9.6295905E-1,6.810063E-2],"categories":[],"categories_nodes":[],"categories_segments":[],"categories_sizes":[],"default_left":[1,0,1,1,1,1,1,1,0,1,1,1,1,1,1,1,1,1,0,0,1,0,0,0,0,0,0,0,0,0,0,0,0,0,0],"id":15,"left_children":[1,-1,3,5,7,9,11,13,-1,15,17,19,21,23,25,27,29,31,-1,-1,33,-1,-1,-1,-1,-1,-1,-1,-1,-1,-1,-1,-1,-1,-1],"loss_changes":[6.4761426E2,0E0,9.235863E0,3.7425718E0,6.879654E-1,2.0704842E0,1.9356353E0,1.6692643E0,0E0,4.3118858E-1,1.135575E0,9.2803156E-1,8.572161E-2,1.9591146E0,2.1582365E0,1.3774529E0,6.9242516E0,1.3708969E0,0E0,0E0,1.2150552E0,0E0,0E0,0E0,0E0,0E0,0E0,0E0,0E0,0E0,0E0,0E0,0E0,0E0,0E0],"parents":[2147483647,0,0,2,2,3,3,4,4,5,5,6,6,7,7,9,9,10,10,11,11,12,12,13,13,14,14,15,15,16,16,17,17,20,20],"right_children":[2,-1,4,6,8,10,12,14,-1,16,18,20,22,24,26,28,30,32,-1,-1,34,-1,-1,-1,-1,-1,-1,-1,-1,-1,-1,-1,-1,-1,-1],"split_conditions":[5E-1,-1.0937052E-1,1.0620794E-2,6.8657817E-3,2.085E2,1.65E1,6.755E2,2.618447E-2,1.0444065E-1,3.82E2,5.3089885E-3,2.745E2,5.976225E0,1.95E1,3.1271204E-2,5.8912983E0,6.205E2,1.8435E3,7.194553E-2,2.336876E-2,8.838594E-3,1.2298359E-2,6.470247E-2,9.809121E-2,-2.2045698E-2,-7.964697E-2,6.3010335E-2,-9.049167E-3,9.2838004E-2,-5.1703066E-2,8.284624E-2,-1.1428962E-2,7.1790226E-2,-9.629591E-2,6.810063E-3],"split_indices":[1,0,4,4,0,5,0,4,0,0,4,0,2,5,4,2,0,0,0,0,4,0,0,0,0,0,0,0,0,0,0,0,0,0,0],"split_type":[0,0,0,0,0,0,0,0,0,0,0,0,0,0,0,0,0,0,0,0,0,0,0,0,0,0,0,0,0,0,0,0,0,0,0],"sum_hessian":[9.895775E3,9.720794E3,1.7498085E2,5.9886288E1,1.1509456E2,5.2675293E1,7.2109947E0,1.1980976E1,1.0311359E2,3.9769157E1,1.29061365E1,5.07911E0,2.1318848E0,9.725328E0,2.255648E0,1.8376509E1,2.1392649E1,1.0352615E1,2.5535216E0,1.0059656E0,4.0731444E0,1.0475824E0,1.0843024E0,8.521922E0,1.2034057E0,1.0755022E0,1.1801456E0,1.2496067E0,1.7126902E1,4.103235E0,1.7289413E1,8.869563E0,1.4830515E0,2.5766733E0,1.4964712E0],"tree_param":{"num_deleted":"0","num_feature":"10","num_nodes":"35","size_leaf_vector":"0"}},{"base_weights":[-1.0442303E0,-1.0774397E0,7.7950215E-1,5.212151E-1,1.0469182E0,4.3865946E-1,8.3641106E-1,4.7677445E-1,-4.1819495E-1,9.79042E-1,2.6917493E-1,7.168384E-1,3.3720082E-1,-7.222777E-1,1.3093759E-1,1.0459411E0,2.6193357E-1,-6.873578E-1,8.1387734E-1,4.9980858E-1,9.926805E-1,3.7957695E-1,-5.5363435E-1],"categories":[],"categories_nodes":[],"categories_segments":[],"categories_sizes":[],"default_left":[1,0,1,1,0,1,1,1,1,1,1,1,1,0,0,0,0,0,0,0,0,0,0],"id":16,"left_children":[1,-1,3,5,-1,7,9,11,13,15,17,19,21,-1,-1,-1,-1,-1,-1,-1,-1,-1,-1],"loss_changes":[5.501455E2,0E0,1.0697662E1,1.8395824E0,0E0,2.4626083E0,1.0711594E0,1.9970112E0,6.763407E-1,3.402481E-1,3.0050466E0,9.212446E-1,1.87638E0,0E0,0E0,0E0,0E0,0E0,0E0,0E0,0E0,0E0,0E0],"parents":[2147483647,0,0,2,2,3,3,5,5,6,6,7,7,8,8,9,9,10,10,11,11,12,12],"right_children":[2,-1,4,6,-1,8,10,12,14,16,18,20,22,-1,-1,-1,-1,-1,-1,-1,-1,-1,-1],"split_conditions":[2.0990523E-5,-1.0774397E-1,4.1551992E-2,6.033947E0,1.0469182E-1,6.023988E0,6.106823E0,7.5E0,1.1564171E-2,1.95E1,1.05E1,6.275E2,2.0316921E-2,-7.222777E-2,1.3093759E-2,1.0459411E-1,2.6193356E-2,-6.873578E-2,8.1387736E-2,4.998086E-2,9.926805E-2,3.7957694E-2,-5.5363435E-2],"split_indices":[4,0,4,2,0,2,2,5,4,5,5,0,4,0,0,0,0,0,0,0,0,0,0],"split_type":[0,0,0,0,0,0,0,0,0,0,0,0,0,0,0,0,0,0,0,0,0,0,0],"sum_hessian":[9.068686E3,8.906903E3,1.6178146E2,8.379555E1,7.798591E1,6.82986E1,1.5496948E1,6.581458E1,2.4840188E0,1.1803087E1,3.6938608E0,2.267614E1,4.313844E1,1.3957912E0,1.0882276E0,1.0376508E1,1.4265795E0,1.2452409E0,2.4486198E0,1.42647295E1,8.411411E0,4.1727417E1,1.411023E0],"tree_param":{"num_deleted":"0","num_feature":"10","num_nodes":"23","size_leaf_vector":"0"}},{"base_weights":[-1.0309137E0,-1.0630844E0,7.2617275E-1,-1.0633504E0,-1.6003081E-1,3.451249E-1,9.577805E-1,6.662304E-1,-8.0560344E-1,8.4351164E-1,2.3703429E-1,7.0645154E-1,1.0499308E0,9.847291E-1,1.8069112E-1,8.8779405E-2,5.72032E-1,2.0837137E-1,9.5795053E-1,3.336937E-1,-2.8625607E-1,9.105724E-2,9.114804E-1,-4.5274876E-2,5.010291E-1,1.0047199E0,1.2281113E-1,5.127216E-1,2.4992708E-2,-1.2949476E0,-5.1192634E-2,6.1880183E-1,-1.2198322E0,1.385647E-1,9.989857E-1,5.8697236E-1,-6.164313E-1,7.4226487E-1,1.1327252E-1],"categories":[],"categories_nodes":[],"categories_segments":[],"categories_sizes":[],"default_left":[1,1,1,0,1,1,1,0,0,1,1,1,0,0,0,1,1,1,1,1,1,1,1,1,1,0,0,0,0,0,0,0,0,0,0,0,0,0,0],"id":17,"left_children":[1,3,5,-1,7,9,11,-1,-1,13,15,17,-1,-1,-1,19,21,23,25,27,29,31,33,35,37,-1,-1,-1,-1,-1,-1,-1,-1,-1,-1,-1,-1,-1,-1],"loss_changes":[4.7146582E2,1.7939453E0,1.2934975E1,0E0,2.4490833E0,2.9454174E0,1.410408E0,0E0,0E0,7.595172E-1,2.40126E0,3.3062315E0,0E0,0E0,0E0,3.3478792E0,2.3599205E0,8.146007E-1,5.921211E-1,1.1965263E0,3.3780847E0,5.8063374E0,4.4735384E-1,2.756771E0,3.8699937E-1,0E0,0E0,0E0,0E0,0E0,0E0,0E0,0E0,0E0,0E0,0E0,0E0,0E0,0E0],"parents":[2147483647,0,0,1,1,2,2,4,4,5,5,6,6,9,9,10,10,11,11,15,15,16,16,17,17,18,18,19,19,20,20,21,21,22,22,23,23,24,24],"right_children":[2,4,6,-1,8,10,12,-1,-1,14,16,18,-1,-1,-1,20,22,24,26,28,30,32,34,36,38,-1,-1,-1,-1,-1,-1,-1,-1,-1,-1,-1,-1,-1,-1],"split_conditions":[3.9416656E-4,5.336559E-5,1.2217695E-2,-1.06335044E-1,1.5676762E-4,5E-1,5.995E2,6.662304E-2,-8.056035E-2,1.65E1,4.5E0,1.5E0,1.0499308E-1,9.8472916E-2,1.8069113E-2,4.792623E-3,2.93E2,4.2251147E-2,5.835E2,2.5E0,5.4200944E-3,2.855E2,1.4062395E-3,2.618447E-2,6.7407556E-2,1.0047199E-1,1.2281113E-2,5.127216E-2,2.499271E-3,-1.2949477E-1,-5.1192637E-3,6.1880182E-2,-1.2198322E-1,1.3856471E-2,9.989857E-2,5.8697235E-2,-6.164313E-2,7.422649E-2,1.1327252E-2],"split_indices":[4,4,4,0,4,6,0,0,0,5,6,6,0,0,0,4,0,4,0,6,4,0,4,4,4,0,0,0,0,0,0,0,0,0,0,0,0,0,0],"split_type":[0,0,0,0,0,0,0,0,0,0,0,0,0,0,0,0,0,0,0,0,0,0,0,0,0,0,0,0,0,0,0,0,0,0,0,0,0,0,0],"sum_hessian":[8.325909E3,8.1765977E3,1.4931146E2,8.1740127E3,2.5851598E0,5.7386925E1,9.192454E1,1.119862E0,1.4652978E0,9.0152855E0,4.837164E1,2.6987024E1,6.4937515E1,7.031518E0,1.9837673E0,3.4408848E1,1.3962791E1,9.668199E0,1.7318825E1,2.0882143E1,1.3526704E1,6.3018136E0,7.6609783E0,5.632132E0,4.036067E0,1.6208088E1,1.1107377E0,1.2798745E1,8.083398E0,1.7043142E0,1.182239E1,4.869413E0,1.4324007E0,1.0418686E0,6.6191096E0,2.6599658E0,2.972166E0,1.9245119E0,2.1115553E0],"tree_param":{"num_deleted":"0","num_feature":"10","num_nodes":"39","size_leaf_vector":"0"}},{"base_weights":[-1.0173817E0,-1.0501311E0,7.3800486E-1,-1.0504134E0,-1.6326523E-1,3.9617938E-1,9.387359E-1,6.952564E-1,-9.263619E-1,9.754613E-1,2.715386E-1,6.9402385E-1,1.0343285E0,3.4559804E-1,1.0598928E0,6.2455263E-2,5.9795916E-1,-2.1145596E-1,7.701708E-1,1.3367935E-1,-6.306295E-1,7.307824E-1,-5.813053E-1,8.288742E-1,-4.092024E-2,2.4241276E-1,-3.591649E-1,1.8352054E-1,8.9688003E-1,5.6651676E-1,9.221226E-1],"categories":[],"categories_nodes":[],"categories_segments":[],"categories_sizes":[],"default_left":[1,1,1,0,1,1,1,0,0,1,1,1,0,0,0,1,1,0,1,1,0,1,0,1,0,0,0,0,0,0,0],"id":18,"left_children":[1,3,5,-1,7,9,11,-1,-1,13,15,17,-1,-1,-1,19,21,-1,23,25,-1,27,-1,29,-1,-1,-1,-1,-1,-1,-1],"loss_changes":[4.3955762E2,1.7041016E0,9.260071E0,0E0,2.9823148E0,3.6099195E0,1.3339539E0,0E0,0E0,1.1852932E-1,3.0713496E0,2.0712252E0,0E0,0E0,0E0,1.5100193E0,3.1921697E0,0E0,1.2597895E0,1.5347753E0,0E0,1.3190784E0,0E0,6.6106796E-2,0E0,0E0,0E0,0E0,0E0,0E0,0E0],"parents":[2147483647,0,0,1,1,2,2,4,4,5,5,6,6,9,9,10,10,11,11,15,15,16,16,18,18,19,19,21,21,23,23],"right_children":[2,4,6,-1,8,10,12,-1,-1,14,16,18,-1,-1,-1,20,22,-1,24,26,-1,28,-1,30,-1,-1,-1,-1,-1,-1,-1],"split_conditions":[3.9416656E-4,5.336559E-5,1.2217695E-2,-1.0504134E-1,1.5676762E-4,5E-1,9.681076E-2,6.9525644E-2,-9.263619E-2,2.9284146E-3,1.01651296E-1,5.9951305E0,1.0343285E-1,3.4559805E-2,1.0598928E-1,8.438671E-2,1.0324686E-2,-2.1145595E-2,9.430981E-2,5.5E0,-6.306295E-2,4.0815067E0,-5.8130533E-2,1.5E0,-4.092024E-3,2.4241276E-2,-3.591649E-2,1.8352054E-2,8.9688E-2,5.6651678E-2,9.221226E-2],"split_indices":[4,4,4,0,4,6,9,0,0,4,9,2,0,0,0,9,4,0,9,6,0,2,0,6,0,0,0,0,0,0,0],"split_type":[0,0,0,0,0,0,0,0,0,0,0,0,0,0,0,0,0,0,0,0,0,0,0,0,0,0,0,0,0,0,0],"sum_hessian":[7.631618E3,7.4922407E3,1.3937714E2,7.489672E3,2.5691206E0,5.2665905E1,8.671123E1,1.2508045E0,1.318316E0,8.116657E0,4.4549248E1,2.667775E1,6.0033478E1,1.5614431E0,6.5552144E0,2.7881527E1,1.6667723E1,1.931611E0,2.474614E1,2.6015224E1,1.8663018E0,1.5322248E1,1.3454733E0,2.305555E1,1.6905892E0,2.172934E1,4.285885E0,4.0577126E0,1.1264536E1,7.9010468E0,1.5154503E1],"tree_param":{"num_deleted":"0","num_feature":"10","num_nodes":"31","size_leaf_vector":"0"}},{"base_weights":[-1.0020038E0,-1.0362334E0,6.854748E-1,-1.030131E0,-1.0680094E0,3.583628E-1,9.533679E-1,-1.0306028E0,-4.518535E-1,8.587845E-1,2.6863933E-1,7.223756E-1,1.033579E0,-1.0580145E0,-1.0216284E0,-7.893721E-1,-1.3133453E-3,1.0151943E0,2.495508E-1,2.0040102E-2,4.4134283E-1,-3.0687734E-1,7.875616E-1,-9.956512E-1,-1.0728744E0,-1.0289273E0,-9.573385E-1,3.792012E-1,-3.0160162E-1,2.513064E-1,-4.8006383E-1,2.8844506E-1,1.0060204E0,8.541286E-1,1.0214854E-1,-9.9889326E-1,-6.0785096E-2,-6.362759E-2,-1.0291688E0,-5.617407E-1,-9.972301E-1,-1.2042179E-1,5.7122624E-1,2.5506726E-1,-6.698609E-1,4.8959526E-1,-2.4126568E-1,4.639491E-1,9.155095E-1,-4.0967688E-1,5.665373E-1],"categories":[],"categories_nodes":[],"categories_segments":[],"categories_sizes":[],"default_left":[1,1,1,1,0,1,1,1,1,1,1,1,0,1,1,0,1,0,0,1,1,0,1,1,0,1,1,0,0,1,1,1,0,1,1,0,0,0,0,0,0,0,0,0,0,0,0,0,0,0,0],"id":19,"left_children":[1,3,5,7,-1,9,11,13,15,17,19,21,-1,23,25,-1,27,-1,-1,29,31,-1,33,35,-1,37,39,-1,-1,41,43,45,-1,47,49,-1,-1,-1,-1,-1,-1,-1,-1,-1,-1,-1,-1,-1,-1,-1,-1],"loss_changes":[4.0409424E2,2.2753906E-1,1.1877953E1,1.1088867E0,0E0,2.6601553E0,6.6259766E-1,3.3691406E-1,9.851233E-1,6.360612E-1,2.3976617E0,1.7797909E0,0E0,2.2363281E-1,1.0668945E0,0E0,5.461915E-1,0E0,0E0,2.899255E0,2.561285E0,0E0,9.092188E-1,7.943115E-1,0E0,8.466797E-1,6.701355E0,0E0,0E0,2.1004896E0,1.2787507E0,3.0367339E0,0E0,4.8752785E-2,9.615942E-1,0E0,0E0,0E0,0E0,0E0,0E0,0E0,0E0,0E0,0E0,0E0,0E0,0E0,0E0,0E0,0E0],"parents":[2147483647,0,0,1,1,2,2,3,3,5,5,6,6,7,7,8,8,9,9,10,10,11,11,13,13,14,14,16,16,19,19,20,20,22,22,23,23,25,25,26,26,29,29,30,30,31,31,33,33,34,34],"right_children":[2,4,6,8,-1,10,12,14,16,18,20,22,-1,24,26,-1,28,-1,-1,30,32,-1,34,36,-1,38,40,-1,-1,42,44,46,-1,48,50,-1,-1,-1,-1,-1,-1,-1,-1,-1,-1,-1,-1,-1,-1,-1,-1],"split_conditions":[5E-1,5.4157555E-1,1.6529052E-2,5.3496015E-1,-1.06800936E-1,5E-1,9.673008E-2,5.8673687E0,1.05E1,1.65E1,2.5E0,5.975935E0,1.033579E-1,4.2434587E0,9.785954E-2,-7.893721E-2,5.3713834E-1,1.0151943E-1,2.495508E-2,6.025946E-3,8.604537E-3,-3.0687734E-2,9.430981E-2,4.242654E0,-1.07287444E-1,5.8681803E0,1.0173197E-1,3.792012E-2,-3.0160163E-2,5.9705257E0,5.9365683E0,5.98951E0,1.00602046E-1,5E-1,1.05E1,-9.988933E-2,-6.0785096E-3,-6.3627595E-3,-1.0291689E-1,-5.617407E-2,-9.972301E-2,-1.2042179E-2,5.7122625E-2,2.5506726E-2,-6.698609E-2,4.8959527E-2,-2.4126569E-2,4.639491E-2,9.155095E-2,-4.0967688E-2,5.6653734E-2],"split_indices":[1,9,4,9,0,6,9,2,5,5,6,2,0,2,9,0,9,0,0,4,4,0,9,2,0,2,9,0,0,2,2,2,0,6,5,0,0,0,0,0,0,0,0,0,0,0,0,0,0,0,0],"split_type":[0,0,0,0,0,0,0,0,0,0,0,0,0,0,0,0,0,0,0,0,0,0,0,0,0,0,0,0,0,0,0,0,0,0,0,0,0,0,0,0,0,0,0,0,0,0,0,0,0,0,0],"sum_hessian":[6.9825757E3,6.844132E3,1.3844382E2,5.769546E3,1.074586E3,6.3385E1,7.505881E1,5.7640605E3,5.485093E0,8.333645E0,5.5051353E1,2.1925003E1,5.313381E1,1.3928406E3,4.37122E3,2.7059186E0,2.7791743E0,6.1009803E0,2.2326639E0,2.3024548E1,3.2026806E1,1.0850431E0,2.083996E1,2.8110733E2,1.1117333E3,3.912076E3,4.5914423E2,1.1099257E0,1.6692486E0,1.6084145E1,6.9404044E0,2.6391575E1,5.6352324E0,1.8770798E1,2.0691626E0,2.8006757E2,1.0397642E0,1.0449402E0,3.911031E3,4.3439953E1,4.1570428E2,7.7281137E0,8.35603E0,1.353617E0,5.586787E0,1.9182878E1,7.208697E0,3.7148938E0,1.5055903E1,1.0403535E0,1.0288092E0],"tree_param":{"num_deleted":"0","num_feature":"10","num_nodes":"51","size_leaf_vector":"0"}},{"base_weights":[-9.9036455E-1,-1.0252934E0,6.7250216E-1,-1.0165558E0,-1.046682E0,3.7969515E-1,9.6482044E-1,-1.0224249E0,-9.331034E-1,-9.519065E-1,-1.0536332E0,5.501697E-1,4.4201642E-2,-1.0641278E0,-1.0153748E0,-6.106684E-1,-9.853269E-1,-9.873158E-1,2.3939389E-1,3.627004E-1,8.634931E-1,-1.6803135E-1,5.180444E-1,-5.1507927E-2,-1.0156343E0,-1.0111601E0,-3.5238028E-1,-9.8879385E-1,-7.712486E-2,-1.0216553E0,-5.7531005E-1,-7.1223366E-1,1.2150353E0,4.720256E-1,-8.1225425E-1,4.9026197E-1,9.8100525E-1,6.329283E-1,-3.2012984E-1,3.16189E-2,6.3886726E-1,1.3500051E0,-5.2204514E-1,9.705031E-2,-7.5695926E-1,7.5507814E-1,1.9498184E-1,9.1777325E-1,-2.381869E-1,-7.8742236E-1,1.5186821E-1,9.279567E-1,2.1688515E-1],"categories":[],"categories_nodes":[],"categories_segments":[],"categories_sizes":[],"default_left":[1,1,1,1,1,1,0,1,1,1,0,1,1,0,1,1,1,1,1,1,1,1,1,0,0,0,1,0,0,0,1,0,0,1,0,1,0,0,1,0,1,0,0,0,0,0,0,0,0,0,0,0,0],"id":20,"left_children":[1,3,5,7,9,11,-1,13,15,17,-1,19,21,-1,23,25,27,29,31,33,35,37,39,-1,-1,-1,41,-1,-1,-1,43,-1,-1,45,-1,47,-1,-1,49,-1,51,-1,-1,-1,-1,-1,-1,-1,-1,-1,-1,-1,-1],"loss_changes":[3.727456E2,1.0888672E-1,1.0965206E1,1.2446289E0,1.7370605E-1,3.8526936E0,0E0,1.4990234E-1,4.558258E0,5.821411E0,0E0,2.3218832E0,2.4932716E0,0E0,8.483887E-1,4.334133E0,7.4897766E-1,1.2341232E0,5.160954E0,4.210225E0,2.2383595E-1,2.3078055E0,4.2919946E-1,0E0,0E0,0E0,9.110038E0,0E0,0E0,0E0,1.5630183E0,0E0,0E0,2.03971E0,0E0,2.0394526E0,0E0,0E0,3.469195E0,0E0,5.395999E-1,0E0,0E0,0E0,0E0,0E0,0E0,0E0,0E0,0E0,0E0,0E0,0E0],"parents":[2147483647,0,0,1,1,2,2,3,3,4,4,5,5,7,7,8,8,9,9,11,11,12,12,14,14,15,15,16,16,17,17,18,18,19,19,20,20,21,21,22,22,26,26,30,30,33,33,35,35,38,38,40,40],"right_children":[2,4,6,8,10,12,-1,14,16,18,-1,20,22,-1,24,26,28,30,32,34,36,38,40,-1,-1,-1,42,-1,-1,-1,44,-1,-1,46,-1,48,-1,-1,50,-1,52,-1,-1,-1,-1,-1,-1,-1,-1,-1,-1,-1,-1],"split_conditions":[5E-1,1.3206601E-1,6.0335436E0,9.8988995E-2,4.1152954E0,5.9860487E0,9.6482046E-2,5.867297E0,1.0173197E-1,4.0971565E0,-1.05363324E-1,5.4200944E-3,4.5E0,-1.0641278E-1,5.868416E0,5.965537E0,1.317433E-1,4.053562E0,3.7005913E-1,4.7634165E-3,1.5E0,2.503321E-3,5.9908876E0,-5.1507927E-3,-1.0156343E-1,-1.0111602E-1,5.9757404E0,-9.887939E-2,-7.7124857E-3,-1.02165535E-1,4.0644884E0,-7.122337E-2,1.2150353E-1,1.05E1,-8.1225425E-2,7.5E0,9.810053E-2,6.329283E-2,6.0013704E0,3.1618902E-3,5.5E0,1.3500051E-1,-5.2204516E-2,9.705031E-3,-7.5695924E-2,7.550781E-2,1.9498184E-2,9.1777325E-2,-2.381869E-2,-7.8742236E-2,1.5186821E-2,9.279567E-2,2.1688515E-2],"split_indices":[1,9,2,9,2,2,0,2,9,2,0,4,6,0,2,2,9,2,9,4,6,4,2,0,0,0,2,0,0,0,2,0,0,5,0,1,0,0,2,0,6,0,0,0,0,0,0,0,0,0,0,0,0],"split_type":[0,0,0,0,0,0,0,0,0,0,0,0,0,0,0,0,0,0,0,0,0,0,0,0,0,0,0,0,0,0,0,0,0,0,0,0,0,0,0,0,0,0,0,0,0,0,0,0,0,0,0,0,0],"sum_hessian":[6.4047197E3,6.273331E3,1.3138895E2,4.488311E3,1.7850198E3,6.67881E1,6.460085E1,4.182878E3,3.0543338E2,1.3140015E2,1.6536196E3,4.3861065E1,2.2927034E1,5.832099E2,3.599668E3,4.4343594E1,2.610898E2,1.2777354E2,3.626612E0,2.8791796E1,1.506927E1,1.6280449E1,6.646586E0,1.0227627E0,3.5986453E3,1.6242985E1,2.8100609E1,2.600085E2,1.0812953E0,1.1657744E2,1.1196098E1,1.9725739E0,1.654038E0,2.6888206E1,1.9035882E0,4.846927E0,1.02223425E1,2.0936835E0,1.4186765E1,1.5734928E0,5.073093E0,1.9162655E0,2.6184343E1,2.4804888E0,8.71561E0,1.2446387E1,1.4441819E1,2.8905964E0,1.9563308E0,6.793107E0,7.393658E0,2.299037E0,2.7740562E0],"tree_param":{"num_deleted":"0","num_feature":"10","num_nodes":"53","size_leaf_vector":"0"}},{"base_weights":[-9.809621E-1,-1.0136805E0,5.844929E-1,-1.0139023E0,-3.0644834E-1,2.8802404E-1,9.6176255E-1,-1.0076584E0,-1.046547E0,2.4045777E-1,-7.0991784E-1,1.7083439E-1,6.0402095E-1,7.4662125E-1,1.0421268E0,-1.0082241E0,-2.8236163E-1,3.4226277E-1,-2.8466657E-1,2.9903874E-1,8.312924E-1,8.449856E-1,-4.4715753E-1,-1.0388952E0,-9.9829596E-1,2.1928167E-1,-5.229082E-1,-3.9229125E-1,4.054192E-1,-5.470004E-1,3.0662572E-1,7.3348075E-1,-1.0756306E-1,-3.4942973E-1,1.0079062E0,-9.7795457E-1,-1.0535014E0,-1.006824E0,-9.242446E-1,-6.728135E-1,-7.938533E-2,3.2060972E-1,-8.7719387E-1,2.785365E-1,9.288432E-1,-1.5292467E0,-2.132304E-1,7.846372E-1,-7.686301E-1,8.695134E-1,1.3302766E-1,-6.8243825E-1,7.241528E-1],"categories":[],"categories_nodes":[],"categories_segments":[],"categories_sizes":[],"default_left":[1,1,1,1,1,1,1,1,0,0,0,1,1,1,0,1,1,1,1,1,1,0,0,1,1,0,1,1,1,1,1,1,1,0,0,0,0,0,0,0,0,0,0,0,0,0,0,0,0,0,0,0,0],"id":21,"left_children":[1,3,5,7,9,11,13,15,-1,-1,-1,17,19,21,-1,23,25,27,29,31,33,-1,-1,35,37,-1,39,41,43,45,47,49,51,-1,-1,-1,-1,-1,-1,-1,-1,-1,-1,-1,-1,-1,-1,-1,-1,-1,-1,-1,-1],"loss_changes":[3.008335E2,5.9033203E-1,1.321653E1,1.15722656E-1,8.844549E-1,2.4513316E0,1.3237762E-1,1.7036133E0,0E0,0E0,0E0,4.135626E0,1.0175891E0,2.4735813E0,0E0,4.3701172E-1,7.3799944E-1,1.9232283E0,2.4459E0,1.7326378E0,2.4177804E0,0E0,0E0,1.5869141E-3,1.3952637E0,0E0,1.9836712E-1,1.4977052E0,2.099556E0,3.126964E0,3.252345E0,2.644689E-1,3.2233894E0,0E0,0E0,0E0,0E0,0E0,0E0,0E0,0E0,0E0,0E0,0E0,0E0,0E0,0E0,0E0,0E0,0E0,0E0,0E0,0E0],"parents":[2147483647,0,0,1,1,2,2,3,3,4,4,5,5,6,6,7,7,11,11,12,12,13,13,15,15,16,16,17,17,18,18,19,19,20,20,23,23,24,24,26,26,27,27,28,28,29,29,30,30,31,31,32,32],"right_children":[2,4,6,8,10,12,14,16,-1,-1,-1,18,20,22,-1,24,26,28,30,32,34,-1,-1,36,38,-1,40,42,44,46,48,50,52,-1,-1,-1,-1,-1,-1,-1,-1,-1,-1,-1,-1,-1,-1,-1,-1,-1,-1,-1,-1],"split_conditions":[3.9416656E-4,5E-1,4.1551992E-2,3.355E3,1.6591398E-4,6.835E2,1.935E3,3.3155E3,-1.0465471E-1,2.4045778E-2,-7.0991784E-2,3.395E2,2.5E0,1.47E2,1.0421268E-1,5.8673687E0,3.3265E3,5.891716E0,4.5E0,3.3538803E-3,7.77981E-4,8.449856E-2,-4.4715755E-2,4.2435036E0,6.065E2,2.1928167E-2,3.343E3,5.8333406E0,2.925E2,5.980712E0,7.6104207E-3,4.7580166E0,6.018779E0,-3.4942973E-2,1.0079062E-1,-9.779546E-2,-1.0535014E-1,-1.006824E-1,-9.242446E-2,-6.728135E-2,-7.938533E-3,3.2060973E-2,-8.771939E-2,2.7853651E-2,9.2884324E-2,-1.5292467E-1,-2.132304E-2,7.8463726E-2,-7.686301E-2,8.695134E-2,1.3302766E-2,-6.8243824E-2,7.2415285E-2],"split_indices":[4,1,4,0,4,0,0,0,0,0,0,0,6,1,0,2,0,2,6,4,4,0,0,2,0,0,0,2,0,2,4,2,2,0,0,0,0,0,0,0,0,0,0,0,0,0,0,0,0,0,0,0,0],"split_type":[0,0,0,0,0,0,0,0,0,0,0,0,0,0,0,0,0,0,0,0,0,0,0,0,0,0,0,0,0,0,0,0,0,0,0,0,0,0,0,0,0,0,0,0,0,0,0,0,0,0,0,0,0],"sum_hessian":[5.860901E3,5.7412603E3,1.1964103E2,5.7390254E3,2.234614E0,6.798219E1,5.1658833E1,4.84431E3,8.9471545E2,1.1201994E0,1.1144145E0,5.0714855E1,1.726734E1,1.684743E1,3.4811405E1,4.840144E3,4.165681E0,3.7027943E1,1.36869135E1,8.3619585E0,8.90538E0,1.5834853E1,1.0125765E0,1.158265E3,3.6818792E3,1.3787645E0,2.7869165E0,2.5189822E0,3.450896E1,9.532578E0,4.1543355E0,3.6539218E0,4.708037E0,1.0314305E0,7.87395E0,2.3707607E2,9.2118896E2,3.2903518E3,3.915274E2,1.696533E0,1.0903834E0,1.1569126E0,1.3620696E0,2.9009047E1,5.4999137E0,1.5092611E0,8.023317E0,3.0629575E0,1.0913779E0,2.6136942E0,1.0402278E0,2.8899846E0,1.8180522E0],"tree_param":{"num_deleted":"0","num_feature":"10","num_nodes":"53","size_leaf_vector":"0"}},{"base_weights":[-9.665716E-1,-1.0020412E0,5.817879E-1,-9.8997086E-1,-1.0318209E0,2.907729E-1,9.5706105E-1,-9.990675E-1,-8.619657E-1,2.0813322E-1,5.811698E-1,5.12613E-1,1.0244089E0,-5.9998035E-1,-9.497665E-1,4.3718907E-1,1.0803323E-2,7.969571E-1,2.6572523E-1,-7.567437E-2,6.5752155E-1,2.4557291E-1,-6.8582624E-1,-9.9058294E-1,-5.198882E-1,2.3551992E-1,7.969363E-1,1.6814859E-1,-5.338068E-1,8.862278E-1,1.2688679E-1,8.541876E-1,-2.522586E-1,1.0531015E-1,8.715007E-1,-4.3324402E-1,6.6853213E-1,-5.864081E-1,-8.6016995E-1,1.1850761E0,-8.138555E-1,-5.3536785E-1,3.4930822E-1,9.350401E-1,3.0201605E-1,5.1303625E-2,7.0987916E-1,-1.2495128E0,1.2613183E-1,1.8869501E-1,9.9720985E-1,-7.413659E-1,3.8059515E-1,5.812103E-1,-4.5976418E-1],"categories":[],"categories_nodes":[],"categories_segments":[],"categories_sizes":[],"default_left":[1,1,1,1,0,1,1,0,1,1,1,1,0,1,1,1,1,1,1,0,1,1,1,0,1,1,1,1,1,1,0,0,1,1,0,0,0,0,0,0,0,0,0,0,0,0,0,0,0,0,0,0,0,0,0],"id":22,"left_children":[1,3,5,7,-1,9,11,-1,13,15,17,19,-1,21,23,25,27,29,31,-1,33,35,37,-1,39,41,43,45,47,49,-1,-1,51,53,-1,-1,-1,-1,-1,-1,-1,-1,-1,-1,-1,-1,-1,-1,-1,-1,-1,-1,-1,-1,-1],"loss_changes":[2.9511084E2,8.6328125E-1,1.2907047E1,3.511963E0,0E0,1.545414E0,1.040245E0,0E0,5.329544E0,2.5089393E0,7.973261E-1,8.07045E-1,0E0,5.0384197E0,2.8253326E0,1.6777053E0,2.737685E0,3.841939E-1,2.508287E0,0E0,7.6263404E-1,2.2764778E0,5.5587196E-1,0E0,1.0293342E1,1.7567525E0,3.2022142E-1,1.529242E0,3.5422602E0,3.6607075E-1,0E0,0E0,1.7594328E0,1.116159E0,0E0,0E0,0E0,0E0,0E0,0E0,0E0,0E0,0E0,0E0,0E0,0E0,0E0,0E0,0E0,0E0,0E0,0E0,0E0,0E0,0E0],"parents":[2147483647,0,0,1,1,2,2,3,3,5,5,6,6,8,8,9,9,10,10,11,11,13,13,14,14,15,15,16,16,17,17,18,18,20,20,21,21,22,22,24,24,25,25,26,26,27,27,28,28,29,29,32,32,33,33],"right_children":[2,4,6,8,-1,10,12,-1,14,16,18,20,-1,22,24,26,28,30,32,-1,34,36,38,-1,40,42,44,46,48,50,-1,-1,52,54,-1,-1,-1,-1,-1,-1,-1,-1,-1,-1,-1,-1,-1,-1,-1,-1,-1,-1,-1,-1,-1],"split_conditions":[5E-1,8.155E2,1.35E1,6.135E2,-1.0318209E-1,6.835E2,5.995E2,-9.990675E-2,6.375E2,2.845E2,1.8105E3,4.5E0,1.0244089E-1,1.5E0,7.915E2,2.115E2,6.849395E-3,1.1285037E-2,1.05E1,-7.567437E-3,6.7838356E-2,6.255E2,1.65E1,-9.905829E-2,1.5E0,5.4200944E-3,2.65E2,6.355E2,8.632501E-3,4.5E0,1.2688679E-2,8.541876E-2,1.65E1,1.85E1,8.715007E-2,-4.3324403E-2,6.685322E-2,-5.8640808E-2,-8.6017E-2,1.18507616E-1,-8.138555E-2,-5.3536784E-2,3.493082E-2,9.350401E-2,3.0201605E-2,5.1303627E-3,7.098792E-2,-1.2495128E-1,1.2613184E-2,1.8869502E-2,9.9720985E-2,-7.413659E-2,3.8059514E-2,5.8121033E-2,-4.597642E-2],"split_indices":[1,0,1,0,0,0,0,0,0,0,0,5,0,5,0,0,4,4,5,0,4,0,5,0,5,4,0,0,4,5,0,0,5,1,0,0,0,0,0,0,0,0,0,0,0,0,0,0,0,0,0,0,0,0,0],"split_type":[0,0,0,0,0,0,0,0,0,0,0,0,0,0,0,0,0,0,0,0,0,0,0,0,0,0,0,0,0,0,0,0,0,0,0,0,0,0,0,0,0,0,0,0,0,0,0,0,0,0,0,0,0,0,0],"sum_hessian":[5.361884E3,5.2421504E3,1.1973366E2,3.7545757E3,1.4875745E3,6.843717E1,5.1296486E1,3.4991094E3,2.5546645E2,5.4612526E1,1.3824642E1,7.8833594E0,4.3413124E1,6.609163E1,1.8937482E2,2.4711954E1,2.9900572E1,7.3026423E0,6.5220003E0,1.6524915E0,6.230868E0,5.9200907E0,6.0171535E1,1.717619E2,1.7612913E1,1.6895348E1,7.8166084E0,2.373458E1,6.1659927E0,6.1594543E0,1.1431881E0,2.7494216E0,3.7725787E0,2.1568594E0,4.074009E0,2.2633202E0,3.6567707E0,4.109878E1,1.9072754E1,2.144401E0,1.5468512E1,1.6965681E0,1.5198779E1,5.416031E0,2.4005775E0,2.0424053E1,3.3105264E0,2.5294342E0,3.6365588E0,1.2161384E0,4.9433155E0,2.0312455E0,1.7413331E0,1.1553116E0,1.0015478E0],"tree_param":{"num_deleted":"0","num_feature":"10","num_nodes":"55","size_leaf_vector":"0"}},{"base_weights":[-9.580294E-1,-9.938324E-1,5.891463E-1,-9.940202E-1,-2.8296724E-1,3.3788136E-1,9.717597E-1,-9.8661864E-1,-1.0330656E0,5.422833E-1,2.166246E-1,-9.874993E-1,-3.222578E-1,9.4275486E-1,4.1795304E-1,-5.1852787E-1,2.5178227E-1,-1.00998215E-1,-4.919283E-1,1.4826313E-1,7.33114E-1,1.4985036E-2,3.929479E-1,-4.0504226E-1,4.0533492E-1,-6.4291805E-2,-6.4557135E-1,3.6423445E-1,-6.5212613E-1,3.467884E-1,8.1931186E-1,2.8943333E-1,-5.465049E-1,1.1172312E-1,6.8786675E-1],"categories":[],"categories_nodes":[],"categories_segments":[],"categories_sizes":[],"default_left":[1,1,1,1,0,1,0,1,0,1,1,0,1,0,1,0,1,1,1,1,1,1,1,0,0,0,0,0,0,0,0,0,0,0,0],"id":23,"left_children":[1,3,5,7,-1,9,-1,11,-1,13,15,-1,17,-1,19,-1,21,23,25,27,29,31,33,-1,-1,-1,-1,-1,-1,-1,-1,-1,-1,-1,-1],"loss_changes":[2.7296094E2,3.6035156E-1,1.0423691E1,3.6914062E-1,0E0,1.593708E0,0E0,2.0578613E0,0E0,8.5281277E-1,1.2936118E0,0E0,2.0788115E-1,0E0,1.6681788E0,0E0,1.4521704E0,8.163131E-1,1.9665486E-1,2.4015584E0,2.8447628E-2,2.8288376E0,2.186347E0,0E0,0E0,0E0,0E0,0E0,0E0,0E0,0E0,0E0,0E0,0E0,0E0],"parents":[2147483647,0,0,1,1,2,2,3,3,5,5,7,7,9,9,10,10,12,12,14,14,16,16,17,17,18,18,19,19,20,20,21,21,22,22],"right_children":[2,4,6,8,-1,10,-1,12,-1,14,16,-1,18,-1,20,-1,22,24,26,28,30,32,34,-1,-1,-1,-1,-1,-1,-1,-1,-1,-1,-1,-1],"split_conditions":[3.9416656E-4,5E-1,4.1551992E-2,3.355E3,-2.8296724E-2,7.5E0,9.717597E-2,3.298E3,-1.03306554E-1,1.9E2,8.02919E-4,-9.874993E-2,3.3265E3,9.427549E-2,6.27E2,-5.185279E-2,1.5E0,4.5E0,2.5E0,3.58E2,6.755E2,4.5E0,2.5E0,-4.050423E-2,4.0533494E-2,-6.4291805E-3,-6.4557135E-2,3.6423445E-2,-6.5212615E-2,3.4678843E-2,8.193119E-2,2.8943334E-2,-5.4650493E-2,1.1172312E-2,6.878667E-2],"split_indices":[4,1,4,0,0,5,0,0,0,0,4,0,0,0,0,0,6,6,6,0,0,1,1,0,0,0,0,0,0,0,0,0,0,0,0],"split_type":[0,0,0,0,0,0,0,0,0,0,0,0,0,0,0,0,0,0,0,0,0,0,0,0,0,0,0,0,0,0,0,0,0,0,0],"sum_hessian":[4.9160977E3,4.8052573E3,1.1084032E2,4.80359E3,1.6675626E0,6.8040634E1,4.2799683E1,4.060187E3,7.4340295E2,2.4041615E1,4.3999023E1,4.0543262E3,5.860859E0,4.13618E0,1.9905436E1,1.3806552E0,4.2618366E1,3.2360868E0,2.624772E0,1.1518902E1,8.386534E0,1.6330704E1,2.6287663E1,2.1469371E0,1.0891497E0,1.0686989E0,1.5560732E0,9.500329E0,2.0185726E0,2.4462013E0,5.9403324E0,1.1294594E1,5.03611E0,1.416204E1,1.2125624E1],"tree_param":{"num_deleted":"0","num_feature":"10","num_nodes":"35","size_leaf_vector":"0"}},{"base_weights":[-9.426653E-1,-9.800872E-1,5.5199975E-1,-9.713494E-1,-1.0259956E0,2.473629E-1,9.081489E-1,-9.7182465E-1,-2.5585955E-1,3.7788334E-1,-4.9960062E-2,3.3114496E-1,9.18945E-1,-1.0087544E0,-9.599207E-1,-5.9836155E-1,1.6196066E-1,9.896418E-1,2.8023365E-1,-5.6137794E-1,1.4740668E-1,7.0428246E-1,9.950885E-1,-9.102688E-1,-1.0325975E0,-9.7046757E-1,-8.699905E-1,-5.007E-1,3.7156492E-1,-1.3192735E0,2.1053793E-1,3.0845007E-1,-6.753499E-1,8.008397E-1,-1.408506E-1,-9.7867346E-1,-7.8031445E-1,-1.0339465E0,-4.093194E-1,-4.0634096E-2,-9.708317E-1,-3.4874904E-1,-9.25976E-1,-7.462629E-1,1.4661974E-1,2.4811411E-1,8.01157E-1,7.116319E-1,-2.694207E-1,1.43254865E-2,6.418175E-1,9.598194E-1,4.8458424E-1],"categories":[],"categories_nodes":[],"categories_segments":[],"categories_sizes":[],"default_left":[1,1,1,1,0,1,1,1,1,1,1,0,1,1,1,0,0,0,1,1,1,1,0,1,1,1,1,1,1,0,1,1,0,1,0,0,0,0,0,0,0,0,0,0,0,0,0,0,0,0,0,0,0],"id":24,"left_children":[1,3,5,7,-1,9,11,13,15,17,19,-1,21,23,25,-1,-1,-1,27,29,31,33,-1,35,37,39,41,43,45,-1,47,49,-1,51,-1,-1,-1,-1,-1,-1,-1,-1,-1,-1,-1,-1,-1,-1,-1,-1,-1,-1,-1],"loss_changes":[2.5145386E2,7.5878906E-1,1.17328E1,1.0080566E0,0E0,2.3773782E0,9.880066E-3,6.550293E-1,6.421863E-1,2.2526789E0,2.0433257E0,0E0,9.919739E-2,1.1276855E0,1.8242188E0,0E0,0E0,0E0,2.8904276E0,3.5636892E0,2.1702445E0,1.4378424E0,0E0,8.370209E-1,1.6656494E-1,8.1030273E-1,8.576584E0,8.0821407E-1,1.631989E0,0E0,1.068361E0,1.2723114E0,0E0,2.7509022E-1,0E0,0E0,0E0,0E0,0E0,0E0,0E0,0E0,0E0,0E0,0E0,0E0,0E0,0E0,0E0,0E0,0E0,0E0,0E0],"parents":[2147483647,0,0,1,1,2,2,3,3,5,5,6,6,7,7,8,8,9,9,10,10,12,12,13,13,14,14,18,18,19,19,20,20,21,21,23,23,24,24,25,25,26,26,27,27,28,28,30,30,31,31,33,33],"right_children":[2,4,6,8,-1,10,12,14,16,18,20,-1,22,24,26,-1,-1,-1,28,30,32,34,-1,36,38,40,42,44,46,-1,48,50,-1,52,-1,-1,-1,-1,-1,-1,-1,-1,-1,-1,-1,-1,-1,-1,-1,-1,-1,-1,-1],"split_conditions":[5E-1,3.355E3,6.033947E0,3.325E3,-1.0259956E-1,5.9897556E0,3.5E0,5.8673687E0,1.05E1,1.895E2,5.9961414E0,3.3114497E-2,6E2,4.2435446E0,6.065E2,-5.9836157E-2,1.6196067E-2,9.896418E-2,2.735E2,2.915E2,1.95E1,5.845E2,9.950885E-2,4.015127E0,3.2985E3,5.8688936E0,6.305E2,5.9509497E0,1.35E1,-1.3192736E-1,1.05E1,1.05E1,-6.753499E-2,2.65E2,-1.4085061E-2,-9.786735E-2,-7.803144E-2,-1.0339465E-1,-4.093194E-2,-4.0634098E-3,-9.708317E-2,-3.4874905E-2,-9.25976E-2,-7.462629E-2,1.4661974E-2,2.4811411E-2,8.01157E-2,7.116319E-2,-2.6942072E-2,1.4325486E-3,6.418175E-2,9.598194E-2,4.8458423E-2],"split_indices":[1,0,2,0,0,2,1,2,5,0,2,0,0,2,0,0,0,0,0,0,5,0,0,2,0,2,0,2,1,0,5,5,0,0,0,0,0,0,0,0,0,0,0,0,0,0,0,0,0,0,0,0,0],"split_type":[0,0,0,0,0,0,0,0,0,0,0,0,0,0,0,0,0,0,0,0,0,0,0,0,0,0,0,0,0,0,0,0,0,0,0,0,0,0,0,0,0,0,0,0,0,0,0,0,0,0,0,0,0],"sum_hessian":[4.484933E3,4.3757227E3,1.0921075E2,3.6946697E3,6.8105286E2,5.977552E1,4.9435226E1,3.6918594E3,2.8103354E0,4.1351753E1,1.842377E1,1.4897054E0,4.7945522E1,8.795338E2,2.8123257E3,1.3069111E0,1.5034243E0,4.434674E0,3.6917076E1,4.616675E0,1.3807096E1,1.5237532E1,3.270799E1,1.7906674E2,7.004671E2,2.508359E3,3.039666E2,3.396119E0,3.3520958E1,1.9716988E0,2.6449761E0,1.2069715E1,1.7373807E0,1.3722171E1,1.5153611E0,1.1303634E2,6.60304E1,6.982969E2,2.1702316E0,1.0260893E0,2.5073328E3,3.0183012E1,2.737836E2,2.3512964E0,1.0448227E0,2.7263788E1,6.2571707E0,1.0578493E0,1.5871269E0,6.9663715E0,5.103343E0,7.7775135E0,5.944657E0],"tree_param":{"num_deleted":"0","num_feature":"10","num_nodes":"53","size_leaf_vector":"0"}},{"base_weights":[-9.248411E-1,-9.631682E-1,5.333436E-1,-9.529447E-1,-1.0174811E0,3.4157127E-1,9.568009E-1,-9.53948E-1,-3.1894264E-1,2.3318568E-1,6.2207466E-1,5.709136E-1,1.0106823E0,-1.0077986E0,-9.3675345E-1,-1.3249703E-1,-6.134574E-1,7.103195E-1,1.028012E-1,4.6477407E-1,9.348414E-1,8.5595506E-1,-4.5928305E-1,-9.15429E-1,-1.0230913E0,-9.490064E-1,-8.2985157E-1,-4.9553022E-1,3.887423E-1,8.547906E-1,-2.0777564E-1,-6.632214E-2,4.999292E-1,8.375606E-1,2.3687461E-2,-9.652619E-1,-3.1646284E-1,-4.950197E-2,-9.493922E-1,-3.451086E-2,-9.0488046E-1,-3.797765E-2,-6.571794E-1,9.2203325E-1,3.0666375E-1,3.9989557E-2,-1.0786675E0,-2.64095E-1,6.4732707E-1,1.9025679E-1,9.0189904E-1,3.8649455E-1,-5.5864596E-1],"categories":[],"categories_nodes":[],"categories_segments":[],"categories_sizes":[],"default_left":[1,1,1,1,0,1,1,1,1,1,1,1,0,1,1,1,0,1,1,1,0,0,0,1,0,1,1,1,0,1,0,1,1,1,1,0,0,0,0,0,0,0,0,0,0,0,0,0,0,0,0,0,0],"id":25,"left_children":[1,3,5,7,-1,9,11,13,15,17,19,21,-1,23,25,27,-1,29,31,33,-1,-1,-1,35,-1,37,39,41,-1,43,-1,45,47,49,51,-1,-1,-1,-1,-1,-1,-1,-1,-1,-1,-1,-1,-1,-1,-1,-1,-1,-1],"loss_changes":[2.3019751E2,1.2541504E0,8.272833E0,1.8496094E0,0E0,2.1182098E0,9.777641E-2,2.1860352E0,2.9498166E-1,3.3669434E0,5.567694E-1,2.2356365E0,0E0,2.0050049E-1,2.5874023E0,1.227977E0,0E0,1.7292271E0,3.028459E0,2.5115216E0,0E0,0E0,0E0,3.3908691E0,0E0,7.5268555E-1,1.6253677E1,2.4610013E-1,0E0,9.699488E-2,0E0,3.5043368E0,1.6841731E0,1.746645E-1,1.923114E0,0E0,0E0,0E0,0E0,0E0,0E0,0E0,0E0,0E0,0E0,0E0,0E0,0E0,0E0,0E0,0E0,0E0,0E0],"parents":[2147483647,0,0,1,1,2,2,3,3,5,5,6,6,7,7,8,8,9,9,10,10,11,11,13,13,14,14,15,15,17,17,18,18,19,19,23,23,25,25,26,26,27,27,29,29,31,31,32,32,33,33,34,34],"right_children":[2,4,6,8,-1,10,12,14,16,18,20,22,-1,24,26,28,-1,30,32,34,-1,-1,-1,36,-1,38,40,42,-1,44,-1,46,48,50,52,-1,-1,-1,-1,-1,-1,-1,-1,-1,-1,-1,-1,-1,-1,-1,-1,-1,-1],"split_conditions":[5E-1,3.355E3,5.15E1,3.298E3,-1.0174811E-1,4.5E0,1.935E3,5.8673687E0,5.7445397E0,5E-1,6.56E2,6.399661E0,1.01068236E-1,4.1152954E0,6.155E2,4.406418E0,-6.1345737E-2,2.05E1,1.15943E-2,2.855E2,9.348414E-2,8.559551E-2,-4.5928307E-2,4.053562E0,-1.0230913E-1,5.8686104E0,6.335E2,4.3754187E0,3.887423E-2,2.4286885E-2,-2.0777564E-2,6.018498E0,5.9955845E0,5.948165E0,6.8377866E-3,-9.652619E-2,-3.1646285E-2,-4.950197E-3,-9.4939224E-2,-3.4510859E-3,-9.048805E-2,-3.7977651E-3,-6.571794E-2,9.220333E-2,3.0666376E-2,3.9989557E-3,-1.0786676E-1,-2.6409501E-2,6.473271E-2,1.902568E-2,9.0189904E-2,3.8649455E-2,-5.58646E-2],"split_indices":[1,0,1,0,0,6,0,2,2,6,0,2,0,2,0,2,0,1,4,0,0,0,0,2,0,2,0,2,0,4,0,2,2,2,4,0,0,0,0,0,0,0,0,0,0,0,0,0,0,0,0,0,0],"split_type":[0,0,0,0,0,0,0,0,0,0,0,0,0,0,0,0,0,0,0,0,0,0,0,0,0,0,0,0,0,0,0,0,0,0,0,0,0,0,0,0,0,0,0,0,0,0,0,0,0,0,0,0,0],"sum_hessian":[4.108718E3,4.0038206E3,1.0489738E2,3.385165E3,6.186553E2,7.344346E1,3.1453924E1,3.379313E3,5.852235E0,5.429526E1,1.9148193E1,5.2745414E0,2.6179382E1,8.0392847E2,2.5753845E3,4.471431E0,1.3808037E0,1.0698154E1,4.3597107E1,1.4394658E1,4.7535353E0,4.26391E0,1.0106316E0,1.2283784E2,6.8109064E2,2.3034846E3,2.7189984E2,2.6647832E0,1.8066475E0,9.3031645E0,1.3949901E0,3.1160082E1,1.2437025E1,7.3141828E0,7.080476E0,1.1283834E2,9.999494E0,1.0429975E0,2.3024417E3,2.3564568E1,2.4833527E2,1.0180637E0,1.6467197E0,7.678977E0,1.6241877E0,2.9067997E1,2.0920846E0,1.8833138E0,1.0553712E1,1.0190203E0,6.295162E0,4.56973E0,2.5107462E0],"tree_param":{"num_deleted":"0","num_feature":"10","num_nodes":"53","size_leaf_vector":"0"}},{"base_weights":[-9.1607076E-1,-9.5594746E-1,5.2573836E-1,-9.453878E-1,-1.0125186E0,1.8535699E-1,8.401564E-1,-9.4648224E-1,-2.695128E-1,3.484934E-1,-2.1133432E-1,5.869442E-1,9.6125096E-1,-1.0002342E0,-9.294145E-1,-5.351715E-2,-6.125845E-1,9.215389E-1,2.5924462E-1,-5.4022086E-1,3.6353105E-1,-1.9127926E-1,6.851562E-1,-8.746687E-1,-1.0217E0,-9.44193E-1,-8.024155E-1,-4.183563E-1,3.8445002E-1,3.4383982E-1,-2.1269158E-1,6.057519E-1,-7.3501605E-1,8.1343263E-1,-7.936059E-1,7.732839E-1,-1.5115978E-1,-9.6346366E-1,3.5404485E-2,-3.46241E-2,-9.446123E-1,1.09974556E-1,-8.90406E-1,-3.281211E-2,-5.786334E-1,1.7320168E-1,7.5209266E-1,-6.806755E-1,4.5623806E-1,-1.1033963E0,-1.6397563E-1,4.7705656E-1,8.82667E-1],"categories":[],"categories_nodes":[],"categories_segments":[],"categories_sizes":[],"default_left":[1,1,1,1,0,1,1,1,1,1,1,1,0,1,1,1,0,0,1,1,1,0,1,1,0,1,1,1,0,1,1,0,1,0,0,1,0,0,0,0,0,0,0,0,0,0,0,0,0,0,0,0,0],"id":26,"left_children":[1,3,5,7,-1,9,11,13,15,17,19,21,-1,23,25,27,-1,-1,29,31,33,-1,35,37,-1,39,41,43,-1,45,47,-1,49,-1,-1,51,-1,-1,-1,-1,-1,-1,-1,-1,-1,-1,-1,-1,-1,-1,-1,-1,-1],"loss_changes":[2.17677E2,1.2387695E0,1.0793043E1,2.0473633E0,0E0,3.3357155E0,1.057766E0,1.9211426E0,4.4374102E-1,1.607152E0,3.0912218E0,1.6353073E0,0E0,1.0895386E0,3.6955566E0,9.6647024E-1,0E0,0E0,1.375551E0,2.7091384E0,3.8574867E0,0E0,1.4209833E0,9.2761E0,0E0,7.7575684E-1,2.0487701E1,1.8057525E-1,0E0,1.8235326E0,2.056308E0,0E0,1.7375379E0,0E0,0E0,1.0288715E-1,0E0,0E0,0E0,0E0,0E0,0E0,0E0,0E0,0E0,0E0,0E0,0E0,0E0,0E0,0E0,0E0,0E0],"parents":[2147483647,0,0,1,1,2,2,3,3,5,5,6,6,7,7,8,8,9,9,10,10,11,11,13,13,14,14,15,15,18,18,19,19,20,20,22,22,23,23,25,25,26,26,27,27,29,29,30,30,32,32,35,35],"right_children":[2,4,6,8,-1,10,12,14,16,18,20,22,-1,24,26,28,-1,-1,30,32,34,-1,36,38,-1,40,42,44,-1,46,48,-1,50,-1,-1,52,-1,-1,-1,-1,-1,-1,-1,-1,-1,-1,-1,-1,-1,-1,-1,-1,-1],"split_conditions":[5E-1,3.355E3,1.0620794E-2,3.2985E3,-1.0125186E-1,5.989764E0,5.855E2,5.8673687E0,5.7445397E0,1.845E2,6.355E2,5.9919643E0,9.6125096E-2,4.115404E0,6.135E2,4.406418E0,-6.1258446E-2,9.215389E-2,4.8075034E-3,5E-1,6.023988E0,-1.9127926E-2,4.505E2,4.053562E0,-1.02170005E-1,5.868723E0,6.305E2,4.3754187E0,3.8445003E-2,1.5E0,2.5E0,6.0575187E-2,5.9961505E0,8.134326E-2,-7.93606E-2,1.5E0,-1.5115978E-2,-9.634637E-2,3.5404486E-3,-3.46241E-3,-9.446123E-2,1.0997456E-2,-8.90406E-2,-3.2812112E-3,-5.7863344E-2,1.732017E-2,7.520927E-2,-6.806755E-2,4.5623805E-2,-1.10339634E-1,-1.6397564E-2,4.7705658E-2,8.82667E-2],"split_indices":[1,0,4,0,0,2,0,2,2,0,0,2,0,2,0,2,0,0,4,6,2,0,0,2,0,2,0,2,0,1,6,0,2,0,0,6,0,0,0,0,0,0,0,0,0,0,0,0,0,0,0,0,0],"split_type":[0,0,0,0,0,0,0,0,0,0,0,0,0,0,0,0,0,0,0,0,0,0,0,0,0,0,0,0,0,0,0,0,0,0,0,0,0,0,0,0,0,0,0,0,0,0,0,0,0,0,0,0,0],"sum_hessian":[3.7763003E3,3.6749963E3,1.0130392E2,3.1118438E3,5.631528E2,4.940681E1,5.1897106E1,3.106413E3,5.4306617E0,3.509553E1,1.4311282E1,1.8681202E1,3.3215904E1,7.347704E2,2.3716426E3,4.0419016E0,1.38876E0,3.4726906E0,3.1622839E1,9.141563E0,5.169719E0,1.9871973E0,1.6694006E1,1.13367E2,6.214034E2,2.1186646E3,2.5297812E2,2.229468E0,1.8124335E0,2.7046198E1,4.5766406E0,1.0216354E0,8.119927E0,3.9362948E0,1.2334243E0,1.517074E1,1.5232648E0,1.03235725E2,1.0131274E1,1.014736E0,2.1176497E3,2.2229227E1,2.307489E2,1.0084288E0,1.2210393E0,2.007829E1,6.967907E0,2.682442E0,1.8941988E0,4.36913E0,3.7507975E0,5.536992E0,9.633748E0],"tree_param":{"num_deleted":"0","num_feature":"10","num_nodes":"53","size_leaf_vector":"0"}},{"base_weights":[-9.0544355E-1,-9.433509E-1,5.0193274E-1,-9.437624E-1,1.5657212E-1,3.1262848E-1,1.0039941E0,-9.322781E-1,-1.0059271E0,1.1908818E-1,4.837998E-1,-9.5578706E-1,-9.043618E-1,-1.0079843E0,-9.035305E-2,2.7021393E-1,-4.8958966E-1,2.11718E-1,7.631125E-1,-9.1119725E-1,-9.850718E-1,-4.922857E-1,-9.106498E-1,5.1977485E-1,1.1353769E-2,5.9148836E-1,-1.1394532E0,-9.168806E-2,5.147409E-1,2.5020933E-1,8.132184E-1,-9.402482E-1,-8.2586694E-1,-6.7699903E-1,-1.542726E-1,-8.819629E-1,-9.6219635E-1,8.3140874E-1,8.823179E-2,-1.6944721E-1,5.794734E-1,-1.5280161E0,-3.9770326E-1,-4.7543803E-1,5.805959E-1,6.6985166E-1,-4.0668896E-1,8.554477E-1,3.0302095E-1],"categories":[],"categories_nodes":[],"categories_segments":[],"categories_sizes":[],"default_left":[1,1,1,1,0,1,0,1,1,1,1,1,1,0,0,1,1,1,1,1,0,1,1,1,1,0,1,1,1,0,1,0,0,0,0,0,0,0,0,0,0,0,0,0,0,0,0,0,0],"id":27,"left_children":[1,3,5,7,-1,9,-1,11,13,15,17,19,21,-1,-1,23,25,27,29,31,-1,33,35,37,39,-1,41,43,45,-1,47,-1,-1,-1,-1,-1,-1,-1,-1,-1,-1,-1,-1,-1,-1,-1,-1,-1,-1],"loss_changes":[1.8526514E2,1.6745605E0,8.382647E0,1.4697266E0,0E0,2.1917977E0,0E0,1.0124512E0,8.755493E-1,3.1857102E0,2.5519066E0,1.1066895E0,2.9875488E0,0E0,0E0,1.7535862E0,5.562314E0,1.8373244E0,2.3944664E-1,7.648926E-1,0E0,1.2757993E0,1.0809326E0,1.7885377E0,1.576414E0,0E0,7.4328566E-1,3.005063E0,1.6863317E0,0E0,6.948471E-2,0E0,0E0,0E0,0E0,0E0,0E0,0E0,0E0,0E0,0E0,0E0,0E0,0E0,0E0,0E0,0E0,0E0,0E0],"parents":[2147483647,0,0,1,1,2,2,3,3,5,5,7,7,8,8,9,9,10,10,11,11,12,12,15,15,16,16,17,17,18,18,19,19,21,21,22,22,23,23,24,24,26,26,27,27,28,28,30,30],"right_children":[2,4,6,8,-1,10,-1,12,14,16,18,20,22,-1,-1,24,26,28,30,32,-1,34,36,38,40,-1,42,44,46,-1,48,-1,-1,-1,-1,-1,-1,-1,-1,-1,-1,-1,-1,-1,-1,-1,-1,-1,-1],"split_conditions":[7.77981E-4,2.5E0,3.3286762E-1,5.413335E-1,1.5657213E-2,6.0698166E-3,1.0039941E-1,4.6227135E-2,5E-1,4.8159566E-3,2.5E0,2.7994443E-2,4.6549838E-2,-1.0079843E-1,-9.035305E-3,2.5E0,7.5E0,1.05E1,6.957553E-3,2.5896877E-2,-9.850718E-2,4.6388485E-2,1.35E1,5.5101454E-2,1.026194E-1,5.9148837E-2,5.4200944E-3,1.05E1,1.8837759E-1,2.5020933E-2,1.95E1,-9.402482E-2,-8.25867E-2,-6.76999E-2,-1.5427261E-2,-8.819629E-2,-9.621964E-2,8.314087E-2,8.823179E-3,-1.6944721E-2,5.7947338E-2,-1.5280162E-1,-3.9770328E-2,-4.7543805E-2,5.805959E-2,6.698517E-2,-4.0668897E-2,8.554477E-2,3.0302096E-2],"split_indices":[4,1,9,9,0,4,0,9,1,4,6,9,9,0,0,6,5,5,4,9,0,9,5,9,9,0,4,1,9,0,5,0,0,0,0,0,0,0,0,0,0,0,0,0,0,0,0,0,0],"split_type":[0,0,0,0,0,0,0,0,0,0,0,0,0,0,0,0,0,0,0,0,0,0,0,0,0,0,0,0,0,0,0,0,0,0,0,0,0,0,0,0,0,0,0,0,0,0,0,0,0],"sum_hessian":[3.4627668E3,3.3722654E3,9.050157E1,3.371146E3,1.1192398E0,6.689953E1,2.3602043E1,2.858974E3,5.1217206E2,3.2194035E1,3.4705494E1,1.5339568E3,1.3250172E3,5.1092313E2,1.2489297E0,2.623607E1,5.957966E0,1.8470835E1,1.623466E1,6.20809E2,9.1314777E2,2.1106667E1,1.3039105E3,1.2844784E1,1.3391287E1,2.270579E0,3.6873865E0,9.578073E0,8.892762E0,1.9782405E0,1.4256419E1,4.5565933E2,1.651497E2,1.2999809E1,8.106858E0,8.493424E2,4.5456815E2,6.9205747E0,5.9242096E0,1.0690753E1,2.7005336E0,1.7241709E0,1.9632156E0,6.283918E0,3.2941544E0,7.845161E0,1.0476015E0,1.2541641E1,1.7147776E0],"tree_param":{"num_deleted":"0","num_feature":"10","num_nodes":"49","size_leaf_vector":"0"}},{"base_weights":[-8.9503217E-1,-9.324271E-1,3.6575443E-1,-9.196432E-1,-1.0019764E0,1.5557934E-1,9.541507E-1,-9.2092156E-1,-2.2172208E-1,2.130861E-1,-3.1309727E-1,-9.468725E-1,-8.901149E-1,-3.8205785E-1,1.5640861E-1,1.0485702E-1,5.001221E-1,-5.705767E-1,8.072691E-2,-8.975895E-1,-9.784721E-1,-4.6930763E-1,-8.96891E-1,-7.3679507E-1,3.327653E-1,5.152647E-1,-1.2106828E-3,1.6480821E-1,7.7072E-1,9.724987E-2,-7.677141E-1,5.6241125E-1,-2.983296E-1,-9.2569715E-1,-8.086606E-1,-5.9463406E-1,-2.1328321E-1,-8.616825E-1,-9.4660187E-1,7.9415715E-1,-5.179774E-4,-1.1384741E-1,5.041761E-1,5.8041704E-1,-2.4319553E-1,8.5901517E-1,5.3993277E-2,-1.1522973E0,-1.9125703E-1],"categories":[],"categories_nodes":[],"categories_segments":[],"categories_sizes":[],"default_left":[1,1,1,1,0,1,0,1,1,1,1,1,1,1,0,1,1,1,1,1,0,1,1,0,0,1,1,1,1,0,1,0,0,0,0,0,0,0,0,0,0,0,0,0,0,0,0,0,0],"id":28,"left_children":[1,3,5,7,-1,9,-1,11,13,15,17,19,21,23,-1,25,27,29,31,33,-1,35,37,-1,-1,39,41,43,45,-1,47,-1,-1,-1,-1,-1,-1,-1,-1,-1,-1,-1,-1,-1,-1,-1,-1,-1,-1],"loss_changes":[1.4990967E2,1.8183594E0,1.1241326E1,2.1289062E0,0E0,1.9279138E0,0E0,1.2436523E0,4.294849E-1,1.8768501E0,8.5241663E-1,1.3034668E0,3.029358E0,1.4047573E0,0E0,2.0189009E0,1.3918486E0,7.240211E-1,9.017326E-1,6.4971924E-1,0E0,5.557513E-1,1.2666626E0,0E0,0E0,1.370429E0,2.2114487E0,1.6245245E0,5.2264786E-1,0E0,6.488013E-1,0E0,0E0,0E0,0E0,0E0,0E0,0E0,0E0,0E0,0E0,0E0,0E0,0E0,0E0,0E0,0E0,0E0,0E0],"parents":[2147483647,0,0,1,1,2,2,3,3,5,5,7,7,8,8,9,9,10,10,11,11,12,12,13,13,15,15,16,16,17,17,18,18,19,19,21,21,22,22,25,25,26,26,27,27,28,28,30,30],"right_children":[2,4,6,8,-1,10,-1,12,14,16,18,20,22,24,-1,26,28,30,32,34,-1,36,38,-1,-1,40,42,44,46,-1,48,-1,-1,-1,-1,-1,-1,-1,-1,-1,-1,-1,-1,-1,-1,-1,-1,-1,-1],"split_conditions":[5E-1,3.355E3,5.15E1,3.2985E3,-1.00197636E-1,1.95E1,9.541507E-2,2.865E2,1.65E1,4.5E0,3.5E0,1.715E2,2.885E2,4.5E0,1.564086E-2,5E-1,1.5E0,5E-1,3.59E2,1.605E2,-9.7847216E-2,2.875E2,6.595E2,-7.367951E-2,3.327653E-2,4.5E0,1.05E1,5.5E0,2.2E1,9.724988E-3,1.5E0,5.6241125E-2,-2.983296E-2,-9.256972E-2,-8.086606E-2,-5.9463408E-2,-2.132832E-2,-8.616825E-2,-9.4660185E-2,7.9415716E-2,-5.1797742E-5,-1.1384741E-2,5.041761E-2,5.8041703E-2,-2.4319554E-2,8.590152E-2,5.3993277E-3,-1.15229726E-1,-1.9125704E-2],"split_indices":[1,0,1,0,0,5,0,0,5,6,1,0,0,6,0,6,1,6,0,0,0,0,0,0,0,1,1,6,1,0,6,0,0,0,0,0,0,0,0,0,0,0,0,0,0,0,0,0,0],"split_type":[0,0,0,0,0,0,0,0,0,0,0,0,0,0,0,0,0,0,0,0,0,0,0,0,0,0,0,0,0,0,0,0,0,0,0,0,0,0,0,0,0,0,0,0,0,0,0,0,0],"sum_hessian":[3.171392E3,3.0802913E3,9.110092E1,2.6140283E3,4.6626294E2,6.805581E1,2.3045115E1,2.60893E3,5.098314E0,6.1103706E1,6.9520984E0,1.399927E3,1.2090029E3,3.5729275E0,1.5253861E0,4.536413E1,1.5739577E1,3.932347E0,3.0197515E0,5.584194E2,8.415076E2,2.0272945E1,1.18873E3,2.3673646E0,1.205563E0,8.52407E0,3.684006E1,7.7478323E0,7.9917445E0,1.0117185E0,2.9206285E0,1.1168306E0,1.9029208E0,4.171589E2,1.4126047E2,1.272256E1,7.5503845E0,7.066024E2,4.8212766E2,5.182235E0,3.3418355E0,3.0759377E1,6.0806823E0,3.6288073E0,4.119025E0,6.9384556E0,1.0532889E0,1.1526852E0,1.7679435E0],"tree_param":{"num_deleted":"0","num_feature":"10","num_nodes":"49","size_leaf_vector":"0"}},{"base_weights":[-8.803019E-1,-9.2160535E-1,4.312421E-1,-9.074397E-1,-9.9856484E-1,2.7916855E-1,8.950929E-1,-9.7112536E-1,-8.8744205E-1,4.726091E-1,1.8314342E-1,3.681107E-1,9.7669333E-1,-8.3634347E-1,-1.0047827E0,-9.0279406E-1,-7.6240206E-1,9.8103017E-1,2.495494E-1,-1.1166452E-1,3.6528292E-1,7.4201095E-1,-4.6084616E-1,-9.473939E-1,-7.078897E-1,-1.0090296E0,-1.9321734E-1,-7.9841197E-1,-9.124919E-1,-1.0498435E-1,-8.505515E-1,-5.588123E-1,3.8949624E-1,-4.9967152E-1,3.840572E-1,9.2445046E-1,2.7225798E-1,-6.5261954E-1,-1.0092618E0,-5.000936E-1,-8.7122524E-1,-1.0153818E0,-7.333665E-1,3.581858E-1,-6.122117E-1,-8.328384E-1,1.7008466E-1,-4.6499676E-1,8.2743156E-1,-6.9110197E-1,-9.6385527E-1,8.933341E-1,1.7734207E-1,-8.726969E-3,-1.2388012E0,-1.044114E-1,6.198036E-1,-2.8304735E-1,4.0814885E-1],"categories":[],"categories_nodes":[],"categories_segments":[],"categories_sizes":[],"default_left":[1,1,1,1,0,1,1,1,1,1,1,1,0,1,1,1,1,0,1,1,1,0,0,1,1,1,1,1,0,1,1,0,1,1,1,0,1,0,0,0,0,0,0,0,0,0,0,0,0,0,0,0,0,0,0,0,0,0,0],"id":29,"left_children":[1,3,5,7,-1,9,11,13,15,17,19,21,-1,23,25,27,29,-1,31,33,35,-1,-1,37,39,41,43,45,-1,47,49,-1,51,53,55,-1,57,-1,-1,-1,-1,-1,-1,-1,-1,-1,-1,-1,-1,-1,-1,-1,-1,-1,-1,-1,-1,-1,-1],"loss_changes":[1.5804395E2,2.170166E0,6.0655365E0,2.1870117E0,0E0,1.1928692E0,5.7154846E-1,1.7067261E0,2.8312988E0,2.2747135E0,2.6000462E0,1.7392046E0,0E0,1.0148544E0,1.3364563E0,9.189453E-1,1.1902084E1,0E0,2.116262E0,3.8401296E0,1.2929189E0,0E0,0E0,4.4315338E-1,1.5580292E0,2.8900146E-2,1.0394279E0,5.0214615E0,0E0,8.980066E0,2.6276703E0,0E0,1.4337635E0,4.007681E0,1.088798E0,0E0,2.1436543E0,0E0,0E0,0E0,0E0,0E0,0E0,0E0,0E0,0E0,0E0,0E0,0E0,0E0,0E0,0E0,0E0,0E0,0E0,0E0,0E0,0E0,0E0],"parents":[2147483647,0,0,1,1,2,2,3,3,5,5,6,6,7,7,8,8,9,9,10,10,11,11,13,13,14,14,15,15,16,16,18,18,19,19,20,20,23,23,24,24,25,25,26,26,27,27,29,29,30,30,32,32,33,33,34,34,36,36],"right_children":[2,4,6,8,-1,10,12,14,16,18,20,22,-1,24,26,28,30,-1,32,34,36,-1,-1,38,40,42,44,46,-1,48,50,-1,52,54,56,-1,58,-1,-1,-1,-1,-1,-1,-1,-1,-1,-1,-1,-1,-1,-1,-1,-1,-1,-1,-1,-1,-1,-1],"split_conditions":[5E-1,5.413335E-1,5.15E1,5.8673687E0,-9.985649E-2,7.5E0,3.1261808E-1,4.2434587E0,9.785954E-2,5.9460135E0,5.980712E0,6.3764577E0,9.766933E-2,3.9560635E0,5.3487945E-1,5.921922E0,1.0173197E-1,9.810302E-2,5.9651136E0,1.3698721E-1,5.9860487E0,7.42011E-2,-4.6084616E-2,3.481027E0,4.115404E0,4.9139526E-1,3.5E0,5.9213004E0,-9.124919E-2,1.00925215E-1,1.3206601E-1,-5.5881232E-2,5.984498E0,4.687254E-2,7.77981E-4,9.2445046E-2,5.9918737E0,-6.526195E-2,-1.0092618E-1,-5.000936E-2,-8.712252E-2,-1.0153818E-1,-7.333665E-2,3.581858E-2,-6.122117E-2,-8.328384E-2,1.7008467E-2,-4.6499677E-2,8.274316E-2,-6.91102E-2,-9.638553E-2,8.933341E-2,1.7734207E-2,-8.726969E-4,-1.23880126E-1,-1.044114E-2,6.1980363E-2,-2.8304735E-2,4.0814888E-2],"split_indices":[1,9,1,2,0,5,9,2,9,2,2,2,0,2,9,2,9,0,2,9,2,0,0,2,2,9,6,2,0,9,9,0,2,9,4,0,2,0,0,0,0,0,0,0,0,0,0,0,0,0,0,0,0,0,0,0,0,0,0],"split_type":[0,0,0,0,0,0,0,0,0,0,0,0,0,0,0,0,0,0,0,0,0,0,0,0,0,0,0,0,0,0,0,0,0,0,0,0,0,0,0,0,0,0,0,0,0,0,0,0,0,0,0,0,0,0,0,0,0,0,0],"sum_hessian":[2.9091501E3,2.8206199E3,8.853031E1,2.3929504E3,4.2766962E2,6.7878265E1,2.0652048E1,5.60473E2,1.8324773E3,2.1216455E1,4.6661808E1,3.5080316E0,1.7144016E1,1.171582E2,4.4331482E2,1.6265546E3,2.0592273E2,5.4335885E0,1.57828665E1,1.796725E1,2.869456E1,2.4898655E0,1.018166E0,5.94164E1,5.7741802E1,4.4076495E2,2.549865E0,1.4535655E2,1.481198E3,2.4605576E1,1.8131715E2,1.8874625E0,1.3895404E1,1.007414E1,7.893111E0,2.8180091E0,2.5876549E1,1.2310534E1,4.7105865E1,2.7199831E1,3.054197E1,4.282141E2,1.2550857E1,1.163634E0,1.386231E0,1.4050229E2,4.854265E0,1.8113228E1,6.4923477E0,7.826972E1,1.0304743E2,3.16594E0,1.0729464E1,6.661348E0,3.412792E0,2.7507129E0,5.1423984E0,4.8744917E0,2.1002058E1],"tree_param":{"num_deleted":"0","num_feature":"10","num_nodes":"59","size_leaf_vector":"0"}},{"base_weights":[-8.615554E-1,-9.028541E-1,4.1712576E-1,-8.8861233E-1,-9.819701E-1,1.864797E-1,7.958102E-1,-8.893646E-1,-7.766204E-2,4.2427284E-1,2.5451574E-2,9.843959E-1,5.8545727E-1,-9.151827E-1,-8.5895866E-1,1.9459085E-1,6.808928E-1,-4.4102734E-1,1.991744E-1,2.6108706E-1,9.068543E-1,-8.5307413E-1,-9.5680094E-1,-3.9312306E-1,-8.6682296E-1,8.301044E-1,3.4949277E-2,-1.4575885E-1,8.7840974E-1,1.287235E-2,-1.3763529E0,9.0249956E-1,7.0096865E-2,-1.14200376E-1,6.724907E-1,-9.1297597E-1,-7.6627934E-1,-5.98343E-1,-5.3534973E-2,-8.326407E-1,-9.28497E-1,5.1228964E-1,-1.6029637E-1,2.8255364E-1,-8.024984E-1,-1.4012745E-1,3.7578192E-1,6.6890466E-1,-4.7377822E-1,8.326175E-1,2.1882178E-2],"categories":[],"categories_nodes":[],"categories_segments":[],"categories_sizes":[],"default_left":[1,1,1,1,0,1,1,1,0,1,1,0,1,1,1,1,1,1,1,1,0,1,0,1,1,0,1,0,0,1,0,0,1,1,1,0,0,0,0,0,0,0,0,0,0,0,0,0,0,0,0],"id":30,"left_children":[1,3,5,7,-1,9,11,13,-1,15,17,-1,19,21,23,25,27,29,31,33,-1,35,-1,37,39,-1,41,-1,-1,43,-1,-1,45,47,49,-1,-1,-1,-1,-1,-1,-1,-1,-1,-1,-1,-1,-1,-1,-1,-1],"loss_changes":[1.4130981E2,2.0407715E0,7.2043495E0,1.2740479E0,0E0,2.0425396E0,6.7562485E-1,9.406738E-1,0E0,1.1398892E0,2.765063E0,0E0,1.5757761E0,2.2189941E0,3.4191284E0,1.2687687E0,1.7274499E0,3.9557042E0,2.1846087E0,1.6296074E0,0E0,1.7979126E0,0E0,1.2829244E0,1.3528442E0,0E0,1.1322376E0,0E0,0E0,1.8178456E0,0E0,0E0,1.4667807E0,2.0386488E0,4.96742E-1,0E0,0E0,0E0,0E0,0E0,0E0,0E0,0E0,0E0,0E0,0E0,0E0,0E0,0E0,0E0,0E0],"parents":[2147483647,0,0,1,1,2,2,3,3,5,5,6,6,7,7,9,9,10,10,12,12,13,13,14,14,15,15,16,16,17,17,18,18,19,19,21,21,23,23,24,24,26,26,29,29,32,32,33,33,34,34],"right_children":[2,4,6,8,-1,10,12,14,-1,16,18,-1,20,22,24,26,28,30,32,34,-1,36,-1,38,40,-1,42,-1,-1,44,-1,-1,46,48,50,-1,-1,-1,-1,-1,-1,-1,-1,-1,-1,-1,-1,-1,-1,-1,-1],"split_conditions":[5E-1,3.355E3,8.31E2,3.325E3,-9.8197006E-2,2.845E2,1.05E1,2.865E2,-7.7662044E-3,2.5E0,2.925E2,9.84396E-2,2.325E2,1.735E2,2.885E2,5.155872E-3,5.2770814E-3,4.5E0,3.095E2,2.5E0,9.068543E-2,1.555E2,-9.5680095E-2,2.875E2,1.35E1,8.301044E-2,5E-1,-1.4575886E-2,8.7840974E-2,2.915E2,-1.3763529E-1,9.0249956E-2,3.5E0,1.5955E3,3.0393295E-2,-9.12976E-2,-7.662793E-2,-5.98343E-2,-5.3534973E-3,-8.3264075E-2,-9.28497E-2,5.1228967E-2,-1.6029637E-2,2.8255364E-2,-8.024984E-2,-1.4012746E-2,3.757819E-2,6.689047E-2,-4.737782E-2,8.326175E-2,2.1882178E-3],"split_indices":[1,0,0,0,0,0,5,0,0,6,0,0,1,0,0,4,4,6,0,6,0,0,0,0,5,0,6,0,0,0,0,0,6,0,4,0,0,0,0,0,0,0,0,0,0,0,0,0,0,0,0],"split_type":[0,0,0,0,0,0,0,0,0,0,0,0,0,0,0,0,0,0,0,0,0,0,0,0,0,0,0,0,0,0,0,0,0,0,0,0,0,0,0,0,0,0,0,0,0,0,0,0,0,0,0],"sum_hessian":[2.6677905E3,2.5846072E3,8.318341E1,2.2006907E3,3.839165E2,5.262403E1,3.0559378E1,2.1985544E3,2.136152E0,2.058743E1,3.2036602E1,1.4173135E1,1.6386242E1,1.1732406E3,1.025314E3,1.1791761E1,8.795668E0,8.2758045E0,2.3760798E1,9.057402E0,7.3288407E0,4.793642E2,6.938764E2,1.7868591E1,1.0074454E3,1.5242217E0,1.026754E1,1.7468328E0,7.0488353E0,6.235868E0,2.039937E0,2.7553532E0,2.1005444E1,5.114398E0,3.943004E0,2.7798962E2,2.0137457E2,1.0662848E1,7.205742E0,6.5752136E2,3.49924E2,2.5091934E0,7.7583466E0,5.177043E0,1.0588248E0,1.2766986E1,8.238459E0,1.3386893E0,3.775709E0,2.93973E0,1.003274E0],"tree_param":{"num_deleted":"0","num_feature":"10","num_nodes":"51","size_leaf_vector":"0"}},{"base_weights":[-8.560707E-1,-8.996827E-1,4.251808E-1,-8.791505E-1,-9.517326E-1,2.2540961E-1,8.4409845E-1,-8.968645E-1,-6.483888E-1,-7.301398E-1,-9.694234E-1,3.573162E-1,-1.6122012E-1,6.272241E-1,9.5918834E-1,-9.961708E-1,-8.8078874E-1,4.0269542E-2,-7.475976E-1,-7.975532E-1,7.566341E-1,-9.717457E-1,-1.4903572E-1,2.1775356E-1,7.372417E-1,1.1764355E-1,-5.2388936E-1,7.714806E-1,-4.7162688E-1,-7.627652E-1,-8.934376E-1,1.3369931E0,-4.771005E-1,-5.39269E-1,-9.1019183E-1,-8.577236E-1,-2.3003834E-1,4.969985E-1,1.33637395E-2,2.8938717E-1,8.865142E-1,-1.2375671E-1,8.1547844E-1,-8.43471E-1,2.8603935E-1,-8.068239E-1,-5.0107557E-1,-5.320646E-1,1.9703231E0,-8.5443854E-1,1.9733242E0,-1.6139878E-1,-7.9670876E-1,-9.787165E-1,-7.028911E-1,-3.7717578E-1,-8.905332E-1,8.945912E-1,-6.398837E-1,7.6739234E-1,-6.5910794E-2,5.7264763E-1,-3.4680682E-1,5.524095E-1,-2.5993687E-1,1.6111463E-1,9.8239815E-1,-4.9412793E-1,7.443219E-1,-3.7342367E-1,-1.1470739E0],"categories":[],"categories_nodes":[],"categories_segments":[],"categories_sizes":[],"default_left":[1,1,1,1,1,1,1,1,1,1,1,1,1,1,0,0,1,1,1,1,0,0,0,1,1,1,1,0,0,1,0,1,1,1,1,1,1,1,1,1,1,1,0,1,0,0,0,0,0,0,0,0,0,0,0,0,0,0,0,0,0,0,0,0,0,0,0,0,0,0,0],"id":31,"left_children":[1,3,5,7,9,11,13,15,17,19,21,23,25,27,-1,-1,29,31,33,35,-1,-1,-1,37,39,41,43,-1,-1,45,-1,47,49,51,53,55,57,59,61,63,65,67,-1,69,-1,-1,-1,-1,-1,-1,-1,-1,-1,-1,-1,-1,-1,-1,-1,-1,-1,-1,-1,-1,-1,-1,-1,-1,-1,-1,-1],"loss_changes":[1.378717E2,1.706543E0,6.644912E0,6.4483643E0,1.8838501E0,2.9475598E0,4.753685E-2,1.6680908E0,8.65295E0,5.908396E0,1.0157471E0,2.096283E0,1.5891942E0,2.2511873E0,0E0,0E0,1.380127E0,1.1936568E1,3.2477074E0,1.5482979E0,0E0,0E0,0E0,1.8509858E0,4.7986507E-1,1.6768826E0,1.9881395E0,0E0,0E0,1.215828E0,0E0,7.0452223E0,1.34986725E1,4.816516E0,1.7198181E-1,3.8705444E-1,3.4609754E0,2.139961E0,4.1910944E0,7.5596476E-1,3.8265467E-1,2.881693E0,0E0,2.984116E-1,0E0,0E0,0E0,0E0,0E0,0E0,0E0,0E0,0E0,0E0,0E0,0E0,0E0,0E0,0E0,0E0,0E0,0E0,0E0,0E0,0E0,0E0,0E0,0E0,0E0,0E0,0E0],"parents":[2147483647,0,0,1,1,2,2,3,3,4,4,5,5,6,6,7,7,8,8,9,9,10,10,11,11,12,12,13,13,16,16,17,17,18,18,19,19,23,23,24,24,25,25,26,26,29,29,31,31,32,32,33,33,34,34,35,35,36,36,37,37,38,38,39,39,40,40,41,41,43,43],"right_children":[2,4,6,8,10,12,14,16,18,20,22,24,26,28,-1,-1,30,32,34,36,-1,-1,-1,38,40,42,44,-1,-1,46,-1,48,50,52,54,56,58,60,62,64,66,68,-1,70,-1,-1,-1,-1,-1,-1,-1,-1,-1,-1,-1,-1,-1,-1,-1,-1,-1,-1,-1,-1,-1,-1,-1,-1,-1,-1,-1],"split_conditions":[3.9416656E-4,1.3158195E-1,3.7625443E-2,9.9150345E-2,4.1152954E0,1.65E1,3.1221467E-1,5.867297E0,1.5E0,4.097673E0,2.0990523E-5,4.5E0,5.9897556E0,6.3844194E0,9.5918834E-2,-9.961709E-2,5.9243145E0,1.0334548E-1,1.0689521E-1,4.053562E0,7.566341E-2,-9.717458E-2,-1.4903572E-2,3.6171833E-3,3.4782714E-3,5.9840074E0,6.0421343E0,7.7148065E-2,-4.716269E-2,5.9211445E0,-8.9343764E-2,5.9256926E0,1.2883899E-1,1.05E1,5.988216E0,3.4182534E0,4.064492E0,2.5E0,7.5E0,2.6366985E-3,5.9309373E0,5.1455023E-3,8.154785E-2,6.011684E0,2.8603936E-2,-8.068239E-2,-5.0107557E-2,-5.3206462E-2,1.9703232E-1,-8.5443854E-2,1.9733243E-1,-1.6139878E-2,-7.9670876E-2,-9.7871654E-2,-7.028911E-2,-3.7717577E-2,-8.9053325E-2,8.945912E-2,-6.398837E-2,7.673924E-2,-6.5910793E-3,5.7264764E-2,-3.4680683E-2,5.5240955E-2,-2.5993688E-2,1.6111463E-2,9.823982E-2,-4.9412794E-2,7.443219E-2,-3.7342366E-2,-1.1470739E-1],"split_indices":[4,9,4,9,2,5,9,2,5,2,4,6,2,2,0,0,2,9,9,2,0,0,0,4,4,2,2,0,0,2,0,2,9,5,2,2,2,6,5,4,2,4,0,2,0,0,0,0,0,0,0,0,0,0,0,0,0,0,0,0,0,0,0,0,0,0,0,0,0,0,0],"split_type":[0,0,0,0,0,0,0,0,0,0,0,0,0,0,0,0,0,0,0,0,0,0,0,0,0,0,0,0,0,0,0,0,0,0,0,0,0,0,0,0,0,0,0,0,0,0,0,0,0,0,0,0,0,0,0,0,0,0,0,0,0,0,0,0,0,0,0,0,0,0,0],"sum_hessian":[2.4595237E3,2.3788486E3,8.067489E1,1.718744E3,6.6010474E2,5.566686E1,2.5008034E1,1.5935332E3,1.25210815E2,5.1928482E1,6.081763E2,4.1562714E1,1.4104145E1,1.0906252E1,1.4101781E1,2.1352623E2,1.380007E3,1.5841447E1,1.0936937E2,5.0119526E1,1.808954E0,6.062756E2,1.9006903E0,3.1547234E1,1.0015479E1,8.355247E0,5.748899E0,9.903983E0,1.0022688E0,1.3951619E2,1.2404907E3,4.066089E0,1.1775357E1,4.9834335E1,5.9535034E1,4.485268E1,5.266846E0,1.2727218E1,1.8820017E1,3.2383316E0,6.777148E0,6.8190174E0,1.5362291E0,4.0926194E0,1.6562792E0,1.1762881E2,2.188738E1,1.0695552E0,2.996534E0,1.0768447E1,1.0069107E0,2.0853092E1,2.8981241E1,4.1947704E1,1.758733E1,3.6652544E0,4.1187428E1,1.0908269E0,4.176019E0,8.352046E0,4.3751717E0,7.1411247E0,1.1678892E1,2.1860232E0,1.0523084E0,1.104148E0,5.6729994E0,5.0816703E0,1.7373471E0,2.48117E0,1.6114497E0],"tree_param":{"num_deleted":"0","num_feature":"10","num_nodes":"71","size_leaf_vector":"0"}},{"base_weights":[-8.409937E-1,-8.8355297E-1,3.6326486E-1,-8.672533E-1,-9.742895E-1,1.5963167E-1,8.2188255E-1,-8.7017596E-1,-5.057645E-1,-9.8417854E-1,1.5661779E-1,2.235975E-1,-2.5286573E-1,3.1917873E-1,8.841506E-1,-8.9735246E-1,-8.3788335E-1,1.9641253E-1,-6.264955E-1,6.1676687E-1,-2.57312E-1,1.1112085E-1,5.284547E-1,7.502002E-2,-7.633243E-1,7.151292E-1,-4.5000562E-1,-8.3255816E-1,-9.4150686E-1,-4.2172408E-1,-8.4507555E-1,-1.399379E-1,4.8232225E-1,-7.119008E-1,-8.126534E-2,3.181265E-1,-1.4520423E-1,2.6866788E-1,7.9707444E-1,-2.543166E-1,6.76351E-1,-2.652991E-1,-9.2043084E-1,-8.7504745E-1,-7.129845E-1,-6.31695E-1,-2.171723E-1,-8.144755E-1,-9.0814734E-1,-1.5535754E-1,-7.6248646E-1,4.3442792E-1,-4.0190023E-1,-7.9928094E-1,2.413206E-1,5.546338E-1,-3.8107365E-1,1.5681724E-1,9.06561E-1,-6.714232E-1,2.180999E-1],"categories":[],"categories_nodes":[],"categories_segments":[],"categories_sizes":[],"default_left":[1,1,1,1,1,1,1,1,1,0,1,1,1,1,0,1,1,1,1,0,0,1,1,1,1,0,0,1,0,1,1,0,0,1,0,1,1,1,1,1,0,0,0,0,0,0,0,0,0,0,0,0,0,0,0,0,0,0,0,0,0],"id":32,"left_children":[1,3,5,7,9,11,13,15,17,-1,19,21,23,25,-1,27,29,31,33,-1,-1,35,37,39,41,-1,-1,43,-1,45,47,-1,-1,49,-1,51,53,55,57,59,-1,-1,-1,-1,-1,-1,-1,-1,-1,-1,-1,-1,-1,-1,-1,-1,-1,-1,-1,-1,-1],"loss_changes":[1.16113525E2,2.3828125E0,7.1370573E0,1.5241699E0,3.780365E0,1.5113802E0,4.5934486E-1,8.6535645E-1,1.5895538E0,0E0,8.5837996E-1,1.5962799E0,1.3747427E0,1.5936193E0,0E0,2.0388794E0,2.2094727E0,3.8477314E-1,6.406102E-1,0E0,0E0,1.9841754E0,6.750355E-1,1.3015132E0,3.6950111E-3,0E0,0E0,1.4515076E0,0E0,5.7406306E-1,8.8482666E-1,0E0,0E0,2.4301004E-1,0E0,1.8928783E0,4.491941E0,1.695174E0,2.613318E-1,1.015789E0,0E0,0E0,0E0,0E0,0E0,0E0,0E0,0E0,0E0,0E0,0E0,0E0,0E0,0E0,0E0,0E0,0E0,0E0,0E0,0E0,0E0],"parents":[2147483647,0,0,1,1,2,2,3,3,4,4,5,5,6,6,7,7,8,8,10,10,11,11,12,12,13,13,15,15,16,16,17,17,18,18,21,21,22,22,23,23,24,24,27,27,29,29,30,30,33,33,35,35,36,36,37,37,38,38,39,39],"right_children":[2,4,6,8,10,12,14,16,18,-1,20,22,24,26,-1,28,30,32,34,-1,-1,36,38,40,42,-1,-1,44,-1,46,48,-1,-1,50,-1,52,54,56,58,60,-1,-1,-1,-1,-1,-1,-1,-1,-1,-1,-1,-1,-1,-1,-1,-1,-1,-1,-1,-1,-1],"split_conditions":[7.77981E-4,3.355E3,4.1687272E-2,3.0455E3,5E-1,1.95E1,2.55E1,2.865E2,3.0995E3,-9.8417856E-2,1.5265E-4,5E-1,7.2461492E-3,1.85E1,8.8415064E-2,1.735E2,2.885E2,3.0795E3,3.325E3,6.167669E-2,-2.57312E-2,3.12E2,3.605E2,3.442351E-3,2.335E2,7.151292E-2,-4.5000564E-2,1.605E2,-9.4150685E-2,1.05E1,8.185E2,-1.3993789E-2,4.8232224E-2,1.5E0,-8.126534E-3,2.8777145E-2,6.215E2,2.875E2,1.6077212E-3,2.925E2,6.7635104E-2,-2.6529912E-2,-9.204309E-2,-8.7504745E-2,-7.129845E-2,-6.31695E-2,-2.171723E-2,-8.144755E-2,-9.081473E-2,-1.5535754E-2,-7.6248646E-2,4.3442793E-2,-4.0190022E-2,-7.992809E-2,2.413206E-2,5.546338E-2,-3.8107365E-2,1.5681725E-2,9.06561E-2,-6.714232E-2,2.1809991E-2],"split_indices":[4,0,4,0,1,5,1,0,0,0,4,8,4,1,0,0,0,0,0,0,0,0,0,4,0,0,0,0,0,5,0,0,0,5,0,4,0,0,4,0,0,0,0,0,0,0,0,0,0,0,0,0,0,0,0,0,0,0,0,0,0],"split_type":[0,0,0,0,0,0,0,0,0,0,0,0,0,0,0,0,0,0,0,0,0,0,0,0,0,0,0,0,0,0,0,0,0,0,0,0,0,0,0,0,0,0,0,0,0,0,0,0,0,0,0,0,0,0,0,0,0,0,0,0,0],"sum_hessian":[2.2582651E3,2.181438E3,7.682711E1,1.8581943E3,3.232437E2,5.4137367E1,2.268974E1,1.8418954E3,1.6298853E1,3.2057028E2,2.6734426E0,4.7265816E1,6.8715515E0,3.1758993E0,1.951384E1,9.856294E2,8.56266E2,2.2992795E0,1.3999574E1,1.0339804E0,1.6394622E0,3.5523846E1,1.1741971E1,4.7034144E0,2.1681368E0,2.14302E0,1.0328792E0,4.0750003E2,5.781294E2,1.55599785E1,8.4070605E2,1.2910326E0,1.0082468E0,1.1839358E1,2.1602156E0,1.9519213E1,1.6004633E1,6.985932E0,4.756039E0,3.4118767E0,1.2915378E0,1.1647034E0,1.0034336E0,2.96001E2,1.1149903E2,6.647834E0,8.912145E0,5.754384E2,2.652676E2,1.3256574E0,1.0513701E1,1.7146324E1,2.372888E0,5.5481677E0,1.0456465E1,4.9525714E0,2.0333607E0,1.049727E0,3.7063122E0,1.5882895E0,1.8235872E0],"tree_param":{"num_deleted":"0","num_feature":"10","num_nodes":"61","size_leaf_vector":"0"}},{"base_weights":[-8.291637E-1,-8.735339E-1,3.145536E-1,-8.575103E-1,-9.647381E-1,1.6744214E-1,8.831299E-1,-8.942913E-1,-8.0523044E-1,-7.9020643E-1,-1.0025431E0,6.461783E-2,4.5096892E-1,-9.832319E-2,9.7666126E-1,-8.968255E-1,-8.637798E-2,3.9873607E-2,-8.119327E-1,-3.881883E-1,-8.385059E-1,1.5704809E-1,-3.5656652E-1,5.399487E-1,-4.7407162E-1,-7.136155E-1,-9.0858865E-1,4.7700223E-1,-4.1029635E-1,7.37601E-1,-2.669075E-1,-8.45271E-1,-6.475117E-1,4.8989666E-1,-5.8506227E-1,-8.5523736E-1,-1.6576529E-2,-6.326491E-2,3.3481884E-1,-7.083809E-1,2.19291E-1,3.4298566E-1,8.4595376E-1,-8.4956086E-1,4.243977E-1,-9.841883E-1,-8.6515564E-1,-5.7006747E-1,-3.1676028E-2,-5.532493E-1,4.8084983E-1,-6.6793865E-1,-8.536342E-1,2.5978854E-1,-7.6858425E-1,-6.793317E-1,-1.6576529E-2,7.5433743E-1,-2.0257996E-1,6.258294E-1,-8.032763E-2,-9.6457046E-1,-2.5238228E-1,-5.0378954E-1,7.0364213E-1,7.3038906E-1,-1.0988566E-1],"categories":[],"categories_nodes":[],"categories_segments":[],"categories_sizes":[],"default_left":[1,1,1,1,1,1,1,1,1,1,0,1,1,0,0,1,1,1,1,1,1,1,1,1,0,1,1,0,1,0,1,1,1,0,1,0,0,1,1,1,1,1,0,0,0,0,0,0,0,0,0,0,0,0,0,0,0,0,0,0,0,0,0,0,0,0,0],"id":33,"left_children":[1,3,5,7,9,11,13,15,17,19,-1,21,23,-1,-1,25,27,29,31,33,35,37,39,41,-1,43,45,-1,47,-1,49,51,53,-1,55,-1,-1,57,59,61,63,65,-1,-1,-1,-1,-1,-1,-1,-1,-1,-1,-1,-1,-1,-1,-1,-1,-1,-1,-1,-1,-1,-1,-1,-1,-1],"loss_changes":[1.0620215E2,2.1096191E0,6.434055E0,2.5841064E0,1.1365662E0,1.8293566E0,1.55935E0,1.9692383E0,4.1088257E0,7.767525E-1,0E0,1.9226925E0,1.6386983E0,0E0,0E0,1.4990234E0,9.6808624E-1,1.6130208E0,3.3669434E0,1.6610581E0,6.708946E-1,1.5883769E0,1.965494E0,6.61685E-1,0E0,1.0381939E1,2.2108765E0,0E0,1.7702669E-1,0E0,1.4072002E0,3.0548096E-1,1.3892822E1,0E0,3.6120772E-1,0E0,0E0,2.28401E0,2.74493E0,4.321108E-1,1.8086554E0,2.0610204E0,0E0,0E0,0E0,0E0,0E0,0E0,0E0,0E0,0E0,0E0,0E0,0E0,0E0,0E0,0E0,0E0,0E0,0E0,0E0,0E0,0E0,0E0,0E0,0E0,0E0],"parents":[2147483647,0,0,1,1,2,2,3,3,4,4,5,5,6,6,7,7,8,8,9,9,11,11,12,12,15,15,16,16,17,17,18,18,19,19,20,20,21,21,22,22,23,23,25,25,26,26,28,28,30,30,31,31,32,32,34,34,37,37,38,38,39,39,40,40,41,41],"right_children":[2,4,6,8,10,12,14,16,18,20,-1,22,24,-1,-1,26,28,30,32,34,36,38,40,42,-1,44,46,-1,48,-1,50,52,54,-1,56,-1,-1,58,60,62,64,66,-1,-1,-1,-1,-1,-1,-1,-1,-1,-1,-1,-1,-1,-1,-1,-1,-1,-1,-1,-1,-1,-1,-1,-1,-1],"split_conditions":[5E-1,5.413335E-1,4.1910988E-1,5.9647026E0,4.906155E0,6.0419893E0,1.7518649E-4,5.3213644E-1,5.964861E0,1.5E0,-1.0025431E-1,4.5E0,6.407663E0,-9.832319E-3,9.766613E-2,4.1152954E0,5.3512144E-1,2.4928771E-2,9.9150345E-2,4.4463506E0,4.8926473E0,5.979434E0,2.5E0,9.673008E-2,-4.740716E-2,4.053562E0,5.8673687E0,4.7700223E-2,4.4117346E0,7.37601E-2,4.6227135E-2,5.965952E0,1.0173197E-1,4.8989665E-2,4.8198442E0,-8.552374E-2,-1.6576529E-3,2.9769309E-2,4.890684E-3,6.0148697E0,5.5E0,4.2758085E-2,8.4595375E-2,-8.495609E-2,4.243977E-2,-9.841883E-2,-8.651557E-2,-5.7006747E-2,-3.167603E-3,-5.532493E-2,4.8084985E-2,-6.679387E-2,-8.536342E-2,2.5978854E-2,-7.685842E-2,-6.793317E-2,-1.6576529E-3,7.5433746E-2,-2.0257996E-2,6.258294E-2,-8.032763E-3,-9.645705E-2,-2.5238229E-2,-5.0378956E-2,7.0364214E-2,7.3038906E-2,-1.0988566E-2],"split_indices":[1,9,9,2,2,2,4,9,2,5,0,1,2,0,0,2,9,9,9,2,2,2,6,9,0,2,2,0,2,0,9,2,9,0,2,0,0,9,4,2,1,9,0,0,0,0,0,0,0,0,0,0,0,0,0,0,0,0,0,0,0,0,0,0,0,0,0],"split_type":[0,0,0,0,0,0,0,0,0,0,0,0,0,0,0,0,0,0,0,0,0,0,0,0,0,0,0,0,0,0,0,0,0,0,0,0,0,0,0,0,0,0,0,0,0,0,0,0,0,0,0,0,0,0,0,0,0,0,0,0,0,0,0,0,0,0,0],"sum_hessian":[2.0863599E3,2.0086702E3,7.7689705E1,1.7173522E3,2.91318E2,6.2748795E1,1.49409075E1,9.9865436E2,7.1869775E2,5.5766563E1,2.3555144E2,4.6949802E1,1.5798991E1,1.2955083E0,1.3645399E1,9.9542194E2,3.2324362E0,5.6159883E0,7.130817E2,6.950609E0,4.8815956E1,3.901497E1,7.934834E0,1.4792405E1,1.0065866E0,6.3776318E1,9.316456E2,1.0075095E0,2.2249267E0,1.2862604E0,4.329728E0,5.8942755E2,1.2365421E2,1.0003836E0,5.950226E0,4.7802353E1,1.0136031E0,1.771041E1,2.130456E1,4.782737E0,3.1520972E0,1.0289998E1,4.5024066E0,5.7197105E1,6.5792103E0,3.3203827E2,5.9960736E2,1.2090746E0,1.0158522E0,3.3189218E0,1.0108064E0,3.0188192E1,5.592393E2,1.4423188E1,1.09231026E2,4.9366226E0,1.0136031E0,1.9356992E0,1.577471E1,1.2226501E1,9.078058E0,2.3481846E0,2.4345522E0,1.2483385E0,1.9037586E0,5.2155886E0,5.0744095E0],"tree_param":{"num_deleted":"0","num_feature":"10","num_nodes":"67","size_leaf_vector":"0"}},{"base_weights":[-8.085391E-1,-8.312585E-1,4.0593144E-2,-8.627028E-1,-7.356686E-1,3.8627434E-1,-9.2342186E-1,-9.378405E-1,-8.269794E-1,2.7847958E-1,-7.5609004E-1,-5.460689E-2,5.271158E-1,-9.9452746E-1,-8.6032003E-1,-7.870742E-1,-9.7335875E-1,-3.9658684E-1,5.238486E-1,3.7286673E-2,-7.7583885E-1,7.1095437E-1,-5.5060166E-1,3.4074044E-1,7.509012E-1,-5.88652E-1,-9.043083E-1,-7.988949E-1,9.4883215E-1,1.6348177E-1,-8.220345E-1,7.842807E-1,9.4642766E-2,2.0101103E-1,-6.183393E-1,-8.3835745E-1,-6.7327964E-1,-2.0948648E-1,-1.1540176E0,7.2045743E-1,9.9977784E-2,-8.2086366E-1,5.132834E-1,-1.000926E0,-8.469804E-1,-8.314216E-1,-4.0721667E-1,-7.079794E-1,2.2727559E0,-2.0257191E-1,3.1253144E-1,-5.7929628E-2,8.3101803E-1,-9.174096E-1,-7.5076395E-1,-3.3268937E-1,-7.1049225E-1,-4.245529E-1,2.4650617E-1,7.18242E-2,8.4498125E-1,-2.9647E-1,4.508552E-1],"categories":[],"categories_nodes":[],"categories_segments":[],"categories_sizes":[],"default_left":[1,1,1,1,1,1,0,1,1,1,1,1,1,0,1,1,0,1,1,1,1,0,1,1,0,1,1,1,1,0,0,0,1,1,0,1,1,1,0,1,1,0,0,0,0,0,0,0,0,0,0,0,0,0,0,0,0,0,0,0,0,0,0],"id":34,"left_children":[1,3,5,7,9,11,-1,13,15,17,19,21,23,-1,25,27,-1,29,31,33,35,-1,37,39,-1,41,43,45,47,-1,-1,-1,49,51,-1,53,55,57,-1,59,61,-1,-1,-1,-1,-1,-1,-1,-1,-1,-1,-1,-1,-1,-1,-1,-1,-1,-1,-1,-1,-1,-1],"loss_changes":[3.710681E1,4.991089E0,1.736226E1,2.9892578E0,9.946106E0,2.404932E0,0E0,1.0977478E0,4.8361816E0,1.8657742E0,7.2530823E0,4.253499E0,9.5766735E-1,0E0,1.7998962E0,1.632956E1,0E0,9.058257E-1,7.9454684E-1,1.4287525E0,2.320343E0,0E0,1.1446803E0,1.5466404E0,0E0,8.11359E0,7.2250366E-2,9.2708435E0,1.386988E1,0E0,0E0,0E0,3.2703197E-1,1.7575824E0,0E0,1.2185516E0,1.9876099E0,6.464732E-1,0E0,4.8120546E-1,1.8024256E0,0E0,0E0,0E0,0E0,0E0,0E0,0E0,0E0,0E0,0E0,0E0,0E0,0E0,0E0,0E0,0E0,0E0,0E0,0E0,0E0,0E0,0E0],"parents":[2147483647,0,0,1,1,2,2,3,3,4,4,5,5,7,7,8,8,9,9,10,10,11,11,12,12,14,14,15,15,17,17,18,18,19,19,20,20,22,22,23,23,25,25,26,26,27,27,28,28,32,32,33,33,35,35,36,36,37,37,39,39,40,40],"right_children":[2,4,6,8,10,12,-1,14,16,18,20,22,24,-1,26,28,-1,30,32,34,36,-1,38,40,-1,42,44,46,48,-1,-1,-1,50,52,-1,54,56,58,-1,60,62,-1,-1,-1,-1,-1,-1,-1,-1,-1,-1,-1,-1,-1,-1,-1,-1,-1,-1,-1,-1,-1,-1],"split_conditions":[6.001631E0,6.5E0,6.5752745E0,5.874922E0,4.7826877E0,6.0335436E0,-9.234219E-2,1.444E3,8.185E2,1.5985E3,1.895E2,6.0117598E0,1.2925E3,-9.945275E-2,4.0998697E0,7.915E2,-9.7335875E-2,1.4685E3,1.35E1,5.98951E0,5.9719286E0,7.109544E-2,1.65E1,6.1162596E0,7.5090125E-2,4.053562E0,2.7255E3,6.135E2,5.9816995E0,1.6348178E-2,-8.220345E-2,7.8428075E-2,1.65E1,5.979601E0,-6.183393E-2,2.865E2,5.973217E0,2.5E0,-1.1540176E-1,1.89E2,1.05E1,-8.208637E-2,5.132834E-2,-1.00092605E-1,-8.4698044E-2,-8.314216E-2,-4.0721666E-2,-7.079794E-2,2.272756E-1,-2.0257192E-2,3.1253144E-2,-5.792963E-3,8.31018E-2,-9.174096E-2,-7.5076394E-2,-3.326894E-2,-7.104923E-2,-4.245529E-2,2.4650617E-2,7.18242E-3,8.449813E-2,-2.9646998E-2,4.508552E-2],"split_indices":[2,3,2,2,2,2,0,0,0,0,0,2,0,0,2,0,0,0,5,2,2,0,5,2,0,2,0,0,2,0,0,0,5,2,0,0,2,6,0,0,5,0,0,0,0,0,0,0,0,0,0,0,0,0,0,0,0,0,0,0,0,0,0],"split_type":[0,0,0,0,0,0,0,0,0,0,0,0,0,0,0,0,0,0,0,0,0,0,0,0,0,0,0,0,0,0,0,0,0,0,0,0,0,0,0,0,0,0,0,0,0,0,0,0,0,0,0,0,0,0,0,0,0,0,0,0,0,0,0],"sum_hessian":[1.9207047E3,1.870674E3,5.0030704E1,1.4015944E3,4.6907968E2,3.7266727E1,1.2763977E1,4.4350626E2,9.580881E2,9.009771E0,4.6006992E2,9.170924E0,2.8095802E1,2.49344E2,1.9416226E2,7.578607E2,2.0022736E2,2.237529E0,6.7722425E0,1.1152375E1,4.4891754E2,3.4352582E0,5.7356663E0,1.670554E1,1.1390264E1,2.9061703E1,1.6510057E2,7.5327106E2,4.589633E0,1.2317578E0,1.0057713E0,3.6999288E0,3.072314E0,9.478731E0,1.6736438E0,2.7444528E2,1.7447224E2,4.524885E0,1.2107809E0,5.7090917E0,1.0996447E1,2.4214115E1,4.8475866E0,5.5352516E1,1.0974805E2,6.9447595E2,5.879511E1,2.2451735E0,2.3444595E0,1.3293239E0,1.7429901E0,7.3612256E0,2.1175056E0,1.3927635E2,1.3516893E2,1.816414E1,1.563081E2,3.1215644E0,1.4033207E0,1.1734563E0,4.5356355E0,5.235756E0,5.760691E0],"tree_param":{"num_deleted":"0","num_feature":"10","num_nodes":"63","size_leaf_vector":"0"}},{"base_weights":[-7.8388834E-1,-8.34094E-1,3.6578327E-1,-8.0637956E-1,-9.094643E-1,2.189923E-1,9.541115E-1,-8.284683E-1,-5.7076645E-1,-7.888914E-1,-9.727273E-1,1.424688E-1,5.3193957E-1,-9.772633E-1,-8.0470407E-1,1.5258704E-1,-7.011273E-1,-2.6486775E-1,-8.0635786E-1,4.342451E-2,4.210745E-1,8.6662143E-1,1.8816374E-1,-7.3652005E-1,-8.3275276E-1,-2.3845577E-1,1.2499896E0,-4.5169955E-1,-9.352577E-1,5.609716E-1,-7.913898E-1,-9.2223704E-1,-6.942647E-1,2.7600503E-1,-1.7721803E-1,7.593779E-1,5.5350054E-2,-3.0608022E-1,5.72425E-1,-8.020085E-1,-5.7805955E-1,-8.925849E-1,-7.663738E-1,4.1582286E-1,-7.7679783E-1,1.8390963E0,9.420635E-2,-8.2010216E-1,-1.707019E-1,-7.3418593E-1,-9.9626815E-1,2.3603703E-1,-7.226698E-1,-1.1589119E-1,4.4430184E-1,-8.3863145E-1,-3.2652486E-2,8.4405977E-1,2.0420213E-1,-5.2349246E-1,5.300775E-1,-1.0138441E0,5.837071E-1,3.611199E-2,7.2863615E-1],"categories":[],"categories_nodes":[],"categories_segments":[],"categories_sizes":[],"default_left":[1,1,1,1,1,1,0,1,1,1,0,1,1,0,1,1,1,1,1,1,1,0,1,1,1,1,1,1,0,0,0,1,1,1,1,1,1,1,1,0,0,0,0,0,0,0,0,0,0,0,0,0,0,0,0,0,0,0,0,0,0,0,0,0,0],"id":35,"left_children":[1,3,5,7,9,11,-1,13,15,17,-1,19,21,-1,23,25,27,29,31,33,35,-1,37,39,41,43,45,47,-1,-1,-1,49,51,53,55,57,59,61,63,-1,-1,-1,-1,-1,-1,-1,-1,-1,-1,-1,-1,-1,-1,-1,-1,-1,-1,-1,-1,-1,-1,-1,-1,-1,-1],"loss_changes":[1.02925415E2,2.8256836E0,6.275634E0,6.0563965E0,2.6670227E0,1.3943956E0,0E0,3.2616577E0,1.055027E1,1.2530212E0,0E0,1.3805985E0,1.1826627E0,0E0,1.2854004E0,7.907622E0,5.067978E0,3.338872E0,1.3675613E0,2.025353E0,1.588728E0,0E0,1.5135899E0,2.6291199E0,2.0793457E0,5.223738E0,3.107808E0,4.772586E0,0E0,0E0,0E0,2.8426743E-1,2.3537636E0,1.3139255E0,1.9206648E0,1.458404E-1,2.314295E0,2.943327E0,3.3503056E-1,0E0,0E0,0E0,0E0,0E0,0E0,0E0,0E0,0E0,0E0,0E0,0E0,0E0,0E0,0E0,0E0,0E0,0E0,0E0,0E0,0E0,0E0,0E0,0E0,0E0,0E0],"parents":[2147483647,0,0,1,1,2,2,3,3,4,4,5,5,7,7,8,8,9,9,11,11,12,12,14,14,15,15,16,16,17,17,18,18,19,19,20,20,22,22,23,23,24,24,25,25,26,26,27,27,31,31,32,32,33,33,34,34,35,35,36,36,37,37,38,38],"right_children":[2,4,6,8,10,12,-1,14,16,18,-1,20,22,-1,24,26,28,30,32,34,36,-1,38,40,42,44,46,48,-1,-1,-1,50,52,54,56,58,60,62,64,-1,-1,-1,-1,-1,-1,-1,-1,-1,-1,-1,-1,-1,-1,-1,-1,-1,-1,-1,-1,-1,-1,-1,-1,-1,-1],"split_conditions":[1.7518649E-4,1.433606E-1,5.15E1,9.8988995E-2,4.9077835E0,6.0421343E0,9.541115E-2,5.8793774E0,1.01409264E-1,3.481027E0,-9.727273E-2,4.5E0,4.2758085E-2,-9.772633E-2,2.7994443E-2,1.00925215E-1,1.05E1,2.5E0,4.002318E-1,3.6171833E-3,5.5E0,8.666214E-2,6.2197084E0,2.5735527E-2,4.6227135E-2,1.0011846E-1,5.98919E0,5.9266205E0,-9.352577E-2,5.609716E-2,-7.913899E-2,4.1152954E0,4.078153E-1,1.8989835E-3,5.050634E-3,6.8657817E-3,4.840538E-2,9.9876426E-2,7.0025854E-2,-8.020085E-2,-5.7805955E-2,-8.925849E-2,-7.663738E-2,4.1582286E-2,-7.767978E-2,1.8390964E-1,9.420635E-3,-8.201022E-2,-1.7070191E-2,-7.3418595E-2,-9.962682E-2,2.3603704E-2,-7.226698E-2,-1.1589119E-2,4.4430185E-2,-8.386315E-2,-3.2652486E-3,8.440598E-2,2.0420214E-2,-5.2349247E-2,5.300775E-2,-1.01384416E-1,5.837071E-2,3.6111993E-3,7.2863616E-2],"split_indices":[4,9,1,9,2,2,0,2,9,2,0,6,9,0,9,9,5,6,9,4,6,0,2,9,9,9,2,2,0,0,0,2,9,4,4,4,9,9,4,0,0,0,0,0,0,0,0,0,0,0,0,0,0,0,0,0,0,0,0,0,0,0,0,0,0],"split_type":[0,0,0,0,0,0,0,0,0,0,0,0,0,0,0,0,0,0,0,0,0,0,0,0,0,0,0,0,0,0,0,0,0,0,0,0,0,0,0,0,0,